13292 16
9546 -2.025034 -1.2378217 -5.882689 2.8224275 1.1744109 1.6559185 -1.9218336 -0.46657658 -0.996356 -0.09492666 -1.803225 5.6201253 -1.5393178 -2.0048752 -2.1257963 -3.1859322
9676 2.4413865 -0.8512996 -3.3293364 4.6440983 1.9775875 7.068182 -3.242758 0.19214582 -1.1313587 1.433138 -0.16559106 1.8347136 0.6425649 -1.9160488 -4.265966 -1.4359716
11708 2.9249277 -1.1771736 -3.5114098 4.305127 2.1837153 7.241786 -3.7580204 -0.21270391 -1.1921202 1.4298785 -0.120455675 2.0763485 0.68722105 -1.7691952 -4.3772984 -1.1044334
7844 3.558243 -1.3472202 -3.3519833 3.6119916 2.4045022 7.0647845 -4.1385884 0.29137716 -1.7646935 1.4921614 -0.32058072 2.1965451 1.0504719 -1.6129289 -3.7095404 -1.0508242
7985 2.470217 1.9522372 -3.334388 0.23649018 -3.6411564 2.3514602 -3.2463987 2.7812617 3.2596583 1.7930887 -4.591153 -1.041583 -2.2333345 1.5240371 1.6864591 -0.73463255
3964 1.0422283 -1.7069026 -3.6937413 -0.952888 -4.186001 6.0211987 -4.6799326 -0.13547046 1.7894411 0.3059456 -4.3965945 2.0880961 -4.058879 -1.9367694 -2.8637283 -1.171415
11885 -2.5717978 2.092364 -3.1067376 3.3647528 -0.12019 -0.43206847 2.1975296 1.6664765 -4.6245584 -2.4328907 -1.7655338 5.397587 1.651174 -0.12961438 -3.2712557 -1.6758555
9347 -0.41766706 -0.78855354 -0.70090526 0.07799755 1.7634981 -4.910288 -1.437147 2.5108364 5.281439 -3.0366433 0.8769993 2.0020428 2.3105347 3.6886468 -4.345259 0.3139339
4604 -1.4838811 4.115659 6.7798085 6.632453 0.7760368 6.4026136 0.38111374 -2.1080225 -2.706874 3.5064955 -11.623767 -4.506149 -5.075883 3.9100707 -0.7600228 5.4264326
4283 -0.1353999 1.3804806 6.770527 8.642541 4.217322 6.2256203 -0.22483735 -3.5198324 -1.5037173 7.6648417 -8.3949995 -5.1298695 0.68474925 -2.0270944 4.0493503 6.403003
10745 -0.21585359 3.7658842 5.9645524 2.8822196 3.8500717 4.1589313 -3.2167645 -4.712 1.7141612 7.173028 -14.388816 -2.8653595 3.209805 1.3423797 -1.1363007 5.672706
3616 2.549377 -3.9698327 8.251857 0.45535067 -1.2694665 5.7237134 -4.8220663 -5.4670696 -1.4850693 7.6170306 -9.554035 -3.9798145 -3.1558256 2.3463163 2.874104 6.707572
7227 2.285295 -0.07864217 0.58654815 2.4816487 -4.151383 -5.5056434 2.4084547 0.16325893 1.9128872 0.27100375 6.761217 -3.2703552 -2.8026972 3.0528831 0.9820803 -2.5878375
9346 0.5231696 0.57231146 1.7724376 -0.59200656 -1.6352049 -1.03948 -1.7599384 0.7436519 0.7061496 -2.6253545 2.7108414 0.6339025 2.82824 1.7532394 -7.212003 6.822697
4003 -0.046177898 0.2919225 -0.57927185 -0.46562526 -10.0438385 -4.7578497 0.279034 0.8328993 0.114560276 -4.128294 -0.5761215 -1.3770463 0.6920289 2.6749277 -2.1968093 -7.124468
9001 -4.315269 -5.212115 2.9634109 5.5227547 0.41466048 5.488689 -3.587277 -1.2430223 6.2831655 -0.19843748 -1.1362673 0.76240635 -2.309246 -0.91638833 4.8894544 -6.194094
1923 -4.851005 0.47138956 -5.559462 13.932093 -0.5725786 8.23423 2.6959746 1.1867963 2.2111425 3.0448763 3.6139958 0.67857105 -1.5467703 -1.5040882 -8.764873 0.20672789
10733 -3.404144 4.2626033 -0.39018908 11.284241 -3.224071 5.668777 4.754856 -0.90014285 2.9110253 -2.2727826 4.815214 -0.7261228 -5.804359 -0.27205846 -8.165961 -7.384922
8985 -0.5905914 0.3254458 -1.8507899 -4.1248727 -4.117523 3.4762547 -7.190193 2.978198 4.1430645 -3.8919084 -2.7483046 7.751346 4.542484 -6.633401 0.68881077 -6.229445
4074 -3.7211928 0.71786374 -2.1357 11.309692 -1.4692765 9.219676 1.6241741 -5.035763 2.790152 0.9706214 0.3001258 0.7829557 -1.0276208 0.35707444 -8.229894 -2.9141123
9778 8.713275 -1.8651437 -2.7237864 1.2488431 4.9520693 5.625252 -7.516503 -1.0596696 -7.06479 -0.26384926 -0.7714765 1.7609001 -0.25458238 -1.1899875 -1.4098762 6.2530327
9154 -2.6669817 1.4335455 -2.2888625 11.921329 -1.1252624 8.959545 0.2829076 1.8645923 3.1343198 3.2762768 -0.018362334 -3.6604655 -4.5512824 -2.4331057 -11.938016 -8.180472
10574 -0.8683727 -4.632389 -3.694869 0.6310194 -4.620883 6.734471 -5.345259 -4.7275796 5.7288413 -5.533825 -4.8557463 4.676081 -3.539656 0.103172325 3.620152 -0.02128502
3566 -3.709316 1.3748013 5.476605 2.5375333 -3.028062 -0.31499824 -10.304404 0.71540153 -0.567469 -2.8288095 -2.3070939 -2.6603155 1.4469061 -4.721197 -4.7158446 -3.0021667
10396 3.1786168 -3.6582334 -1.0107336 -1.732186 -3.0631456 9.9908695 -9.649231 -2.8778896 6.8592653 -1.2674425 -4.7409854 2.3319845 0.8061922 -0.8280362 -0.081476204 0.83192813
4799 -1.757309 2.470282 -2.718189 11.325077 -1.1591095 7.765068 0.96529895 -0.43096995 0.5812094 1.0490569 2.374523 -0.22650492 -2.789359 -1.130744 -8.979277 -3.1484172
8465 1.9318312 -2.5045903 -5.566965 4.678962 3.5415814 9.199528 -3.3246937 -1.2138987 2.7884355 2.748141 -8.191801 0.81474215 0.015818585 -1.6780684 -2.9270535 -3.802736
11018 -3.3299685 -4.504938 1.7738426 3.1625392 -0.4592652 4.506084 -7.4981256 -7.2415056 3.4116032 2.10693 -5.3538284 0.5440051 -0.94506 -2.4272146 -4.480348 -6.153316
5992 -2.778217 -2.8844643 -0.6647934 4.0459504 3.118198 4.7004743 -8.382949 -3.059851 5.415828 -0.27212852 -4.8947372 2.4897027 0.76621854 -2.4816048 -6.503288 -5.33771
5142 0.59679407 1.5686779 5.4923205 -1.5058205 -5.542391 1.2006172 -0.6039319 6.862105 -0.671536 -2.747367 6.3412232 3.359675 -0.75566006 5.9722004 -3.5524564 -0.77749395
1246 5.070395 -4.0053787 -2.311636 0.5314435 -6.139032 -1.603097 -3.4526217 5.2614465 -3.6757002 2.0443418 5.4090376 -2.1401057 -4.302217 -2.346897 1.361952 -4.7516656
1232 -1.9353164 9.588053 -3.0796323 3.5978115 -6.9648495 5.5306416 3.8243315 4.9782166 2.5148797 1.9393177 -4.5388083 -0.05032766 -2.3257961 0.10552676 5.3186975 -1.6441492
11716 -1.8840337 8.517289 -0.040889483 0.8514265 -8.535146 5.135413 4.870703 7.0208063 -0.66062695 1.8632897 -4.3428 0.24704099 -3.6967998 0.92076606 5.2295747 -2.3063314
10800 0.1504697 4.3280845 -1.3776431 1.0684209 -4.2841606 2.789175 1.0396577 2.7054172 1.4462546 1.8752353 -3.5980124 0.651767 -2.1046824 1.7021477 2.3112633 -0.6567393
8674 -0.59617555 6.8758364 -5.4615645 0.56291544 -7.3419094 8.549953 2.1236956 4.350596 2.2496114 3.5713196 -7.4216037 1.7989038 -6.2368703 4.7404814 2.6754136 -1.9409006
3593 5.3916926 7.609351 -6.899681 0.124487564 -3.5952916 -1.9458721 -2.0216742 4.8470707 -2.6514335 -5.7698655 4.392188 4.6632743 1.5864666 -2.5416095 -4.4386153 -3.4603083
12134 1.7521808 -3.549069 -1.202305 5.307733 3.1444685 8.546536 -2.2480514 -4.518001 3.965269 0.703112 -6.5575027 -1.1405114 -1.2410423 -3.143743 -0.012267575 -3.932627
8007 3.0969079 -2.6827903 -6.2032957 3.7171674 4.4101253 5.8169346 4.9587293 0.9450431 7.415735 -2.0089755 -1.7604054 4.9034405 1.0943362 -3.5899017 -4.7785673 -4.7366066
10896 -0.8635153 -3.0332773 -0.55191493 -1.4429651 -5.1337295 -5.62521 -2.6926336 8.381969 -2.7770565 3.4297485 -0.19715126 -0.50851184 -3.2873297 -0.99161327 3.7295234 -7.4891024
11707 -1.1243372 0.9865113 -3.0198195 8.387354 2.3368142 7.004369 -4.9506435 -6.6937656 6.354202 -0.05500102 -2.6853304 1.1957078 2.2326796 1.9832456 -1.133807 0.26850298
4997 1.8784539 0.3503908 -4.7479944 3.839727 -1.9820313 2.4767888 -3.2320528 5.573029 2.8929088 -1.1697836 -0.8868287 1.3677708 10.5260105 0.07410954 3.0694969 0.35041997
642 2.3967261 1.3634746 -2.2762334 -4.3749447 -6.1835685 4.9952593 -0.45245373 -1.8303688 3.4663098 3.1748264 2.0914516 5.864 -2.8730738 0.48883796 -6.237722 2.448823
7819 -3.8101685 -4.022941 2.713397 4.3696103 3.077035 7.3745966 -7.2530775 -3.6346757 1.9345249 -0.48584625 -2.2376742 3.8023465 1.4782671 -0.7298269 -1.2406509 -2.743532
5337 -3.3216927 -0.72588235 -2.1971183 3.6997025 1.2084976 2.7813346 -3.5406096 -2.4481516 -0.35405695 -3.4561384 -10.628483 -0.10645237 -1.6924648 -4.405153 2.4259439 1.4788616
5151 -2.4774249 -1.7405055 1.933378 3.7991257 1.4223235 3.7609904 -3.3136559 -2.6403632 10.603799 -4.139749 -1.9863094 2.163969 4.609375 -1.2315534 -2.760041 -3.361612
2734 5.7301164 4.6818366 3.8986323 -0.6892467 4.1482925 -0.29682928 0.39986855 -0.2974459 2.304548 2.1501615 -1.9403781 2.2741683 -1.5894667 0.60901177 -4.343241 -8.042326
9649 5.1603203 0.6322676 0.061071623 1.966484 -4.48607 -2.4781735 -4.0795937 4.442365 -4.8421435 -7.2779536 5.272015 -1.7856884 -4.3066645 2.7856972 -2.0659893 2.5910306
4723 -1.5100775 -4.0770006 -1.5289983 7.5302696 1.4789808 6.2845526 -3.2706294 -5.294139 3.3044925 2.9917133 -8.184441 -3.3648906 -5.574126 -2.3415387 2.0253804 3.338617
10310 -1.5774367 -5.4724903 -0.7874879 0.41534707 -5.528751 3.5682242 -6.76061 -2.3050268 -1.5360757 2.4422138 0.77754086 5.291037 7.0097 4.6107864 -0.84657246 -0.32241318
10395 -4.6802034 -1.3735216 1.2258296 2.8360806 -3.802323 1.0617744 -3.0698864 0.62540114 2.3934867 -1.4348516 -0.8893181 1.3148832 2.3259845 -9.032889 -0.7092123 -4.398985
12245 3.685806 0.9068892 8.646836 -3.9547262 -1.8913013 1.9500791 -2.6130507 1.5329812 2.0046117 -5.757053 0.17232862 3.0988824 5.2420506 7.326322 2.317112 -1.4253193
8177 0.4731758 -0.48518285 0.28187162 2.2936893 3.186643 5.0055633 -2.139489 -4.601078 1.7924925 -4.31319 -5.0337834 2.323913 -2.25557 -0.66308165 0.08285477 -3.646643
350 1.4738355 0.052593052 -4.9741197 -1.2609774 1.0127842 -0.64528316 4.558738 2.204783 3.655514 8.209881 1.1098042 5.612605 1.2110531 -3.0001626 -4.8621964 -3.1887813
10517 -1.7235303 -3.9198291 -1.9024979 1.3097439 -3.1327255 6.6272445 -6.777199 -3.4167776 4.456854 -0.9056591 -5.355192 1.425155 -6.096798 -0.8359952 0.46052927 -0.03577642
4063 -0.33135858 -3.12357 6.4105353 2.3295572 0.59376854 2.782713 0.4796725 2.7000453 6.8940725 2.8294315 4.7413645 0.046918657 -3.6455517 3.7434313 1.9353272 -2.6217713
7444 3.2487483 -6.8662863 -1.6765974 1.5387491 4.1092405 3.0043247 -5.665252 -3.125132 3.7503023 -5.9123583 -2.867026 3.9184437 1.7857634 -0.28698012 -0.9112532 -4.118934
5610 8.22002 -2.925508 -4.6454744 -3.2450414 -6.5801473 -3.7745612 -2.3785763 7.264178 -5.335806 -0.04750522 0.71367747 -1.9464778 -0.52853906 -1.3802311 0.17082833 -0.31121796
895 4.234016 5.0240903 3.001486 2.649973 -1.5707033 5.6084228 -1.9131738 2.2477386 -2.9853592 -3.03565 3.584356 1.0015519 -4.076716 6.509132 -1.7328922 -0.8231342
4725 -2.7359154 -1.2728473 -2.9331944 5.8428473 -4.9664006 4.364403 -3.4927347 -0.40885782 6.246614 -1.7061441 2.7073264 2.6961255 4.160228 -7.4692426 0.028664112 -2.5132108
4959 5.105565 -1.90578 2.2476814 -0.65533733 -1.1174667 -6.4134746 0.4319413 3.164914 -3.171682 -0.6536047 6.3416743 0.06723387 2.8532948 0.970335 2.2907662 0.11144972
8561 0.6486625 -4.03837 1.0017203 5.6458106 2.862318 10.424674 -3.8949785 -4.1537433 1.452136 -3.1079717 -4.249053 1.4029344 -0.46614996 -3.090532 -1.0666432 -4.620698
5598 0.99923074 -0.4086871 -1.5349848 4.2535267 3.2373881 8.733676 -4.839719 -1.8996459 -1.2195425 2.326252 -3.3800237 2.682393 1.7810677 0.06380038 -5.108689 -4.232996
6855 -1.5354427 -0.9896761 3.0206385 1.1881707 -1.2557118 5.6880674 -1.9045197 1.0004466 2.2324128 1.5273921 6.683146 5.1704993 -3.9187577 -0.5360736 7.3804827 2.2774901
8364 -3.5102928 -1.7002858 -0.9671438 4.8941464 1.6104614 1.3309255 -3.6639569 -7.1259665 4.9722157 -2.554433 -4.4341564 2.4813607 -1.0339912 1.2333063 1.3876846 -4.798407
7256 -1.3190063 4.5400133 6.877692 -2.1064312 -5.828824 -0.06863172 -3.8586345 1.6817428 -1.7426578 -5.1811852 1.7656918 3.434616 -2.5120785 6.659868 -0.26407686 -0.9837838
7770 -3.6423912 -5.8327966 0.60720223 -0.08264706 -3.393801 -5.0178576 -3.2684276 -0.7749494 3.0969863 -4.126923 -3.4785907 -0.48317328 -1.3952193 -7.4912224 1.9871666 1.3809456
11550 2.6195822 1.6614958 -1.655478 -0.5580456 0.7664932 -4.1773477 -11.128816 -0.35986957 -1.201765 3.343116 0.41019905 0.97081566 -2.843446 -3.113331 -0.2957386 -4.3423085
7836 2.6433406 6.7728114 2.0111525 -1.9870268 -0.08187085 1.1635108 -4.003842 6.239071 -1.5858959 -2.4692554 0.0038236 3.1593726 -3.5579095 5.3918095 0.12204707 0.046568904
9743 4.3126645 -1.0371203 0.18763463 1.7256398 -6.2410197 -0.36635903 -1.1843044 -3.331345 -1.0536076 1.5436562 -0.5216024 -4.1836786 7.4014626 -2.269633 3.3812788 -1.1143607
4048 6.3418713 -5.260938 1.0442694 -0.71504164 -5.3742027 -4.3620768 -4.0997057 0.3807026 2.375719 -3.896593 2.3456533 -5.3149676 -0.7737632 -2.5840733 -1.9633778 -1.8470236
3589 2.645259 -2.222264 1.9258693 -3.5850892 -5.0914702 4.751954 2.514373 6.3680954 1.3278338 -0.48087445 -8.023525 -0.109029576 0.34444147 -0.47409737 0.5505914 -3.4511924
657 -0.6656847 2.9224434 -1.4693489 1.6749622 -1.127818 -1.519894 -0.3799656 -3.4936507 -2.5031884 0.26832345 -2.2091653 2.6281254 -3.8353145 -0.3613268 -3.0178401 -0.003091184
5406 4.647989 -1.4820267 -5.254483 -4.272176 -5.97492 5.565867 0.4437808 -1.1361207 2.1301491 2.0130558 -0.7318891 4.9564934 -3.736895 -1.1241661 -5.676452 1.0936576
9817 -2.3101697 -0.47640803 -0.9855879 3.3333077 -3.8863924 0.8148277 -4.704794 0.97581875 4.7425246 -2.7859159 -1.2474341 0.033106428 2.8609834 -7.137387 0.68439597 -4.0350933
10586 -0.7777502 -2.0493283 -2.1795838 4.435363 0.8669371 4.372131 -4.81299 -7.4240575 2.8460455 -3.2954407 -3.9230976 2.5666792 0.98903114 -3.8631783 1.473517 -1.6532345
11834 7.043245 -2.3692026 -4.7991047 0.721443 -0.21997489 6.1177406 -0.6568984 -0.63125414 2.46048 -5.637394 -10.831459 -1.4844757 -0.81265545 -5.0229707 -3.0964303 -1.7863843
12268 -1.4609208 -1.517484 -1.7419947 2.485135 1.54157 3.2424734 -0.07888063 -1.0322137 -2.3182817 3.374504 -3.2524211 3.1161249 2.2756693 -4.3273907 -4.471589 0.49563363
3642 8.4606 1.357484 -2.770337 -1.532278 -1.8404565 2.1776319 4.957112 1.3860077 3.5652857 -0.14339258 4.792509 3.50972 2.8362286 1.0195966 -7.2297044 -0.841116
9011 -2.9656515 0.061615076 1.7143408 1.5077243 -1.8565439 8.154816 0.90167564 -2.0022473 1.4011407 -3.101642 -9.005675 1.7154213 -1.4630842 -1.2754331 -7.078148 -3.8957303
6121 2.521548 -1.9304385 1.2213546 -3.8690033 -5.529536 2.3758547 2.0046206 5.850775 2.300393 -0.22276334 -7.084652 -0.31855014 1.3013875 0.043254588 1.8675667 -2.4412494
9783 -5.1412687 -0.58860534 0.2327028 4.899174 -5.402661 2.8294082 -4.467206 -0.24066575 0.25492796 -2.1444283 -0.6022865 1.2978637 2.6498826 -6.7232 2.4724617 -3.154583
10573 2.8511891 -4.4172525 -2.6254654 2.913062 4.5975924 4.746062 -4.8090024 3.960031 2.9734247 -4.670811 -5.30469 1.3251672 -2.749292 -2.3370936 -3.0553968 -4.374716
11916 3.2680852 -0.35062551 -0.5601158 6.2110453 -1.0926542 4.7323675 -0.728384 -0.11611147 -2.1732304 -4.4912224 5.5778656 -1.1526285 -3.9054604 -3.3717873 -2.818703 -0.94938314
8341 4.3692055 -6.733242 0.33339542 2.7149224 -1.3015902 6.305723 -4.540885 -5.019787 0.05208397 -4.1077847 -2.9418523 -0.8412952 0.49744087 -2.780463 1.3251762 -4.8045297
7484 -3.3217149 -2.6306899 -0.08225985 5.4814086 -0.11465955 5.1041856 -5.535924 -7.238921 0.68390447 -3.1157877 -3.7459326 2.027627 0.35878435 0.0629834 0.2680282 -1.4814038
12132 -2.1698773 0.7539112 -3.6061285 5.0787487 3.0402253 3.8208892 -4.863853 -3.5448115 0.7197953 -1.8846626 -6.343562 3.2521029 -1.511465 0.14979269 1.1104482 -2.286879
3353 3.2830465 0.4021802 0.55318624 -2.4082913 -3.130561 0.67118144 0.8164028 6.3686438 3.0685725 1.7307339 -5.9967146 -2.51264 1.5644923 2.3202477 3.3361073 -1.4891578
8961 5.450858 0.8961582 -3.443687 3.0415392 4.8675046 5.8746037 -6.792691 -1.2694656 1.0394585 0.5148261 -2.0046983 2.4738357 3.1001372 1.0309795 -0.8261141 -0.9376606
4517 -3.5340714 -2.4685202 -2.1214104 4.722856 -2.2889833 -0.38015673 -5.903287 -1.1915305 5.45013 -2.188852 1.3098571 1.8110623 0.8522002 -8.068385 1.8988171 0.9071788
12895 -1.6033838 -0.9281222 -0.28065762 2.8318357 1.4857283 1.7907852 1.5985228 -1.2127995 -2.3819492 4.2865906 -3.6885378 3.2519531 2.4101799 -4.526969 -4.195262 2.2166243
4141 -1.2247773 0.64660466 0.984804 -1.5795753 -2.5899627 -5.422995 -4.2719383 1.8035996 7.279213 -5.193376 -2.4474587 0.81674844 -0.90480703 -7.648718 -0.5491669 -5.3298044
1610 -2.9711807 -1.6975949 0.5131882 3.02473 -3.2926629 3.6292934 -9.03488 3.6625082 1.2423363 -2.0487852 1.575312 1.5944458 1.4520831 -6.047059 -2.2249615 0.5114067
4735 -0.83343714 -1.3457003 -0.8581389 5.974244 1.9781388 3.968577 -4.844656 -5.3708243 3.4431791 -4.254654 -3.6620183 -0.13710622 -2.3832746 -3.1426678 0.40137815 -1.5855482
5210 2.342877 1.0815369 0.35597536 -2.0476263 -4.6555142 2.3887625 1.6885927 5.5143595 2.1898818 1.2451482 -6.1789203 -1.0623952 0.9507532 2.6295323 3.1032639 -1.0785474
7168 5.4714637 2.4189987 -0.16204983 -2.1684396 -3.3764553 -1.6985395 0.56337696 7.801126 4.939824 2.8727713 -7.1906023 -4.132211 2.847854 2.664956 5.337808 -1.6445063
5993 3.5473273 -3.8347325 -2.2922647 3.1815405 -1.1726356 1.4837309 -4.495434 -5.641185 7.9726734 -3.13578 -3.4679 -2.527641 -5.853214 -0.20848319 -2.869415 -3.395172
398 -3.7619255 -1.1578535 2.0260603 4.7367983 -0.34168255 6.1636066 -3.848491 -1.3161696 5.326198 -5.4357243 -5.2333302 1.3966041 1.1238438 -0.78819996 0.7837563 -3.1008303
433 2.1521292 -3.733871 -0.6809302 4.3619075 7.2336287 3.8374472 -3.83058 0.08682887 0.4495558 -1.0684875 -3.59397 -0.75377923 -1.7978739 -3.6481187 -0.2757931 -1.6044744
4592 -1.64954 0.94814456 0.8120105 0.21370584 2.086801 1.7425482 -0.34098834 4.4015527 -1.9568275 2.6729338 -2.135983 5.0051203 -0.11902035 -0.6669405 0.462058 -1.0304885
9630 4.014706 2.9687579 -0.32521197 -2.9704325 -1.9476488 -2.6584678 -1.4625537 10.64073 -1.8530638 -3.180811 1.020604 1.7246697 -2.7618308 4.0876803 3.6754162 2.2744606
7450 0.5333875 0.8037035 -0.77016246 1.2218825 -2.871234 2.0809207 3.7398777 -1.2285093 -5.960478 6.0782223 8.5032015 7.2469997 1.2208778 1.6716145 -4.066601 -2.087251
4112 5.6844873 -4.350522 -6.603614 -1.9846665 -3.5739887 -2.834304 -3.7033935 3.6978116 3.3171525 -0.42557967 -0.8004713 1.4691908 0.40666535 -1.833308 8.064473 4.423123
8612 -0.26431957 -2.3288014 1.1299369 6.281682 5.4874206 7.1780305 -2.7350183 -2.5111287 2.337876 -4.357693 -4.281899 1.8129842 0.29721782 0.40138495 1.5492635 -1.7846136
11526 3.4950747 1.980302 1.1163199 -2.9085011 -1.4467901 -3.5395901 -6.6484847 -4.736251 -3.1136758 -3.1419854 -1.3695759 2.1966374 3.9250402 -3.0709393 3.4086256 -3.9383466
10186 -1.5158281 -6.852642 1.0483582 2.7088974 1.2431129 8.758326 1.4225991 -1.5835683 2.7403007 -1.1559757 -5.224228 3.3132622 1.0163743 -0.79078627 -2.9520729 -3.1119347
10982 3.6679559 4.215158 -3.3503532 0.79097337 -0.9398913 -3.1833954 -6.6508436 -2.5832257 2.9669049 -0.88849705 2.8412042 1.4474726 -2.032585 -3.1966453 2.4572833 -2.47424
4037 0.3050532 1.8042821 -0.32260716 0.43912596 -0.42417336 11.433525 -2.045701 -2.7884924 0.40676957 -0.93797463 -4.560787 6.454724 2.9854198 -0.8885945 1.2608659 -4.676363
10908 -0.8319962 4.2315187 0.64451796 3.7935972 -3.3361156 -0.8722682 -5.3111625 8.338914 -1.4706116 -1.9664714 -0.5742919 -0.33064127 -1.7964425 7.670998 -0.68124187 -4.550835
305 3.6013596 0.2430349 -1.7766346 1.859503 -7.4850564 -2.6074364 -0.3759916 -2.4193242 -0.12676452 -0.17376785 4.1166954 -3.5039103 -4.2613897 -3.8573234 0.23781878 -1.3678886
6978 -1.6687318 -1.7821324 -1.8780124 3.2825792 3.636818 7.8447394 4.5199842 -3.770546 1.4543059 3.1545267 -2.0873823 5.694024 -5.8706617 0.2189264 0.010962945 -2.8730485
12102 -2.4449348 -0.9645364 2.5801017 2.78109 -0.80320585 5.592249 -4.2963862 -2.8173127 3.050449 -5.4551845 -4.191427 1.1458998 6.318425 -1.8208435 -1.6209416 0.6777279
101 -4.8366294 -2.246401 -1.2948769 2.8081446 -3.4048066 0.40723184 -8.436149 0.44234022 -1.4148691 3.5044997 1.7599217 4.710668 -0.20512477 6.2038045 0.42462698 1.1220611
8860 -0.79401106 -5.7490163 0.713993 4.961412 0.53853446 6.0649595 -5.0632076 -2.605247 2.5319705 -1.991759 -4.111811 0.33485314 1.2307001 0.5474007 -1.1076566 -3.070936
11523 1.1345894 1.1053188 3.1726754 -3.5562677 -0.7345947 -6.0042357 -9.190613 -3.1019425 -1.7850335 -1.0623863 2.3892763 3.1465394 3.0489314 -1.2512134 1.6333632 -0.31174138
995 2.180127 -0.21053456 -5.0097966 -0.8691456 1.8500361 1.4182917 -0.4572385 -2.6451514 7.4720097 5.868207 0.16221651 5.270167 1.5259063 -2.9014063 -5.9256477 3.9009054
11930 1.7173367 -4.7825 0.26526535 3.0166044 4.030417 5.214096 -3.6342337 -5.5460877 2.8745034 -1.1591494 -4.450101 0.96033525 0.4542663 -0.6576647 -0.8376506 -1.0925734
12246 1.5694243 6.3607426 6.305808 -0.24413148 1.0155035 0.92666936 -2.4147453 6.155509 -3.707807 -3.3767223 1.1003654 1.4227138 1.0343387 3.0628798 -0.87024844 -1.3211455
5221 0.48096597 -2.6996768 -0.308861 0.97990805 1.0993074 9.411482 -4.080792 -1.9439045 -2.0495994 1.0490813 -4.688868 4.2441454 1.2105923 -1.3035243 2.1288023 -4.5791707
11525 4.201413 4.6152806 -3.5753398 -2.0792775 -3.8640797 -1.6975993 -6.32094 -2.384383 -0.46959144 -0.53656745 -1.544585 2.0571005 0.1622105 -2.5711017 4.451667 -4.374364
11832 0.87245464 -2.8131883 -1.3143791 4.9701495 -4.86729 6.771775 -3.7513683 -5.2240033 5.039989 -5.248668 -2.420443 -0.8030665 -0.5495385 2.493865 -0.03001474 -2.415634
12243 3.142854 5.1079636 8.548429 -0.6849737 -3.506329 3.2883575 -2.4212697 0.20135948 -0.085821666 -6.612312 -0.09031074 -0.78217924 -1.5217159 3.5768933 1.4802297 0.9089617
10338 5.283508 -4.3682218 -0.16283236 0.11989553 -6.5022035 0.75359625 -0.033125274 5.9700947 1.9117622 5.121469 4.776973 -3.6297896 -1.4334282 1.5882982 2.3750908 -1.877521
12663 0.36017546 3.2355282 0.31484148 1.7908593 -3.497047 -1.2501153 1.3649981 9.797857 -3.0321746 -2.150943 1.9476136 0.44347146 -4.572841 5.639444 1.4193734 -0.83169293
8006 1.5747387 -1.6331588 -1.877645 6.9595656 6.4661236 8.333203 -2.3082798 -3.8707075 3.4651127 -2.6931446 -2.3076792 2.4906845 -3.8682942 -4.684075 -0.69123834 -2.936173
520 3.108675 -0.7608061 -3.6948583 0.35207486 -6.322064 6.910358 -1.4041622 -2.9806652 1.8565761 -1.5913898 -3.762876 0.18404019 -4.785491 -2.0330591 -2.2199469 1.0175661
11830 -0.15773675 -2.4762022 -0.1985832 1.5974542 2.368523 5.2392464 -0.029207502 -3.6001563 4.2032824 -2.0635784 -7.3934526 1.8945385 -1.4765964 -5.9855046 -0.22633852 -0.57417595
7856 3.5993717 -1.9392405 -1.9422472 -0.9808337 -5.4598536 7.3104243 -3.688487 -2.2312071 1.0632972 0.88372934 -2.2774396 -0.37280345 -6.2435904 -2.489211 0.40646097 4.4204226
1873 -3.344918 -2.6558492 0.4656564 4.478102 -0.73220974 6.14157 -2.1974726 -5.267347 4.541367 -0.18346728 -4.129595 1.2555686 3.4474702 -2.3163528 -4.850578 -1.7224928
8369 -2.0509634 -2.5142155 0.7381482 3.6861022 -3.9746845 2.8175304 -1.1383134 2.344869 6.4559956 3.360565 0.717486 -2.542535 -1.5130233 -8.269028 -1.9154047 6.17018
8893 1.4525043 0.89392155 -3.4928966 2.0734744 -0.46746343 -2.0449712 -3.0508652 -3.2688177 -1.2771952 1.3379444 -0.43278107 4.0375023 -1.6375164 2.9545772 2.3288715 5.839749
9915 1.265261 -5.283053 0.8328706 4.2037053 5.462348 4.5627127 -4.2935553 0.37998426 0.8361168 1.2946244 -3.7636104 -1.8938949 3.6193054 -3.785984 -1.0422739 0.17842871
11533 3.6856265 -1.4153799 3.344593 -3.002806 1.4357935 -2.8510125 -10.181107 -1.7845086 1.3416886 0.975566 0.7287221 1.2960848 2.462993 -1.484473 6.831123 -1.47118
10131 -1.1175838 4.0800366 -6.176568 6.980579 -0.78909916 1.7224575 -3.5009935 0.4551996 6.4120026 3.3168073 -4.7795258 -3.0771196 -2.436713 0.45462343 5.498031 -1.8169615
8516 -1.2096052 -5.283714 0.25863105 6.0471864 1.4415365 5.5335846 -3.2377858 -1.3281244 2.315289 -0.4800656 -3.7849574 -0.9515965 -1.8924935 -0.5059288 2.713145 -1.0453255
10906 0.9260439 -0.45669952 2.342691 6.9680014 2.3998594 0.61161506 0.44615775 -3.5351336 -2.3095264 -0.11019147 1.9157171 1.241332 -0.7545511 2.9306698 4.4836044 -2.664505
356 3.963501 3.3785603 0.08180335 5.218577 0.41130677 4.6571627 -0.64840275 0.29364806 -2.2537155 -3.404572 3.0864263 -1.0749977 -4.004959 3.45134 -3.6049383 -0.75662965
11918 -2.1821377 -2.4868004 -0.9365214 1.690098 -0.25489995 3.7908082 -3.7253513 -3.4719715 3.9992518 -0.08467764 -7.3797374 1.1474913 5.383429 -0.680512 1.297696 0.35109213
4187 -1.4324428 -2.7592993 0.05086682 5.1903663 2.4165199 4.9449096 -2.3665812 -1.7448169 0.6467528 -3.803053 -7.1475573 0.7054329 1.5738249 -0.57860273 0.9520477 -2.3400722
11517 0.47230285 7.3115125 2.9314103 2.379134 2.372169 1.1461531 -6.5709276 -1.3068296 -0.43133196 -0.9117797 1.9229724 1.0132301 -0.8403938 -5.683735 2.6975107 -1.8741434
5599 5.6528177 -0.81963176 -3.6570542 -2.2706761 -0.27474105 0.84309775 -0.6201573 -0.77092564 3.6000316 -0.48350543 6.3658075 6.24379 -3.9672968 -4.6383514 -2.3132448 1.600336
11515 3.2805707 1.8158017 -0.8612075 -1.2340435 0.7571857 -1.2529418 -8.525878 -0.66464543 -1.747115 0.593073 -0.19196315 1.5343839 -1.0834655 -5.00628 5.467889 -0.1933348
534 0.59347713 -0.5863004 -1.4491892 -1.7591902 -7.4925284 9.247886 -1.2611532 -1.835233 0.8171125 -0.6048364 -3.1944592 2.993116 -2.426843 -1.5186033 -2.978073 1.7178428
7184 -2.9220104 0.89093196 1.6874189 -1.6580318 -1.6500791 1.5550699 -5.961764 -0.83236307 0.79653794 0.88106096 1.2157025 6.254006 1.2859626 -7.230261 1.0923666 -3.9944112
2969 1.6549634 -1.6031516 2.043369 -2.6273327 -3.8720596 2.1194096 4.5846176 2.1408641 4.1999006 -1.6249598 -0.5298293 3.9761653 -0.7655269 -1.4926112 -1.7959 0.8841562
11101 -0.03913171 -7.3695703 1.4408381 2.3281088 3.8951268 3.247148 -1.2312943 -4.298089 -1.0804658 3.8220751 4.1872597 4.471287 -3.1750374 -0.2562344 -1.5779173 1.4466444
4099 -3.4798505 -1.5406101 2.9425046 1.2680674 -2.8766208 1.3685015 -1.520632 -2.059885 1.5068226 -2.717509 -1.4129978 0.4383115 0.8756464 -9.794148 -0.9179622 3.3829696
5366 -3.1967132 -3.024576 6.3246098 0.4972121 0.6027309 4.297413 0.0018080733 -1.5665139 -1.4496222 -0.17175654 2.2555413 5.850799 -0.08507828 -1.9962693 0.8142473 5.6587834
8483 1.8374386 -2.7809079 -3.4747458 0.7502745 -6.9531846 8.759865 -2.932205 -4.316679 1.8741561 -0.6297252 -2.6968641 1.8450111 -2.560186 0.58612263 0.021976668 2.156714
8416 -0.0054709446 -5.492868 -0.48300254 3.9777596 1.9355414 2.0335426 -4.3959427 -4.37987 4.984689 -4.792434 -3.197008 0.06642013 1.3833858 -5.219405 -3.072957 -1.520875
478 0.5390889 -2.8561106 0.34747374 2.4199455 2.5911975 3.472883 -5.068968 -0.32664883 5.279776 -3.0528579 -4.5996547 0.12695538 -1.7760551 0.39884004 -1.9130985 -4.1466618
10084 -4.77608 -3.3717484 -1.9160256 3.2272632 -3.5806475 -0.8706208 -6.5376883 -0.14348322 1.1188251 4.7671266 1.0579114 2.7279766 0.9781083 3.4972103 -1.2793449 2.0122473
7773 -0.004141146 -0.5037965 4.2897434 2.2969723 0.30736747 2.2106 -4.3783035 -5.524039 -4.8518 -0.008455783 -1.3383255 2.4200044 -2.6403902 2.7493453 -1.6723067 -1.7620438
6025 0.4753614 1.4696664 -2.1307175 3.8548563 0.60216486 2.0690987 -1.9912901 -3.4514074 2.9796097 -4.425348 -9.0352745 -1.3516966 0.88470644 -3.7313092 -0.68732846 -4.683005
11906 -0.88752085 -3.0418813 0.11331449 4.2811093 0.3902597 7.967263 -2.4627728 -1.6669726 1.7846639 -2.9575949 -5.4602466 0.9573364 0.85907334 -2.0503812 0.06836708 -1.5182261
8196 0.5590049 4.475791 -5.0031905 3.8280895 -3.3010159 -3.8655918 -1.4896262 3.491402 2.9339952 4.3442283 -1.76216 -2.0886114 -3.223205 2.3684647 4.260314 2.5362449
5648 0.17948006 -8.438017 4.1848617 0.6199324 2.1339867 5.1660414 -3.8112216 -2.2781086 -1.4973297 0.13441107 1.7076033 2.9190753 1.4228278 -3.7582436 0.062315702 0.241446
4316 0.48892832 1.0428085 2.669814 0.08769989 -0.5555144 4.8940873 -0.30648664 -2.0488696 -3.0368598 -0.970392 -3.9122064 4.3012857 1.8152207 -0.104771934 1.8484172 -2.3945568
8463 -1.8900464 -1.3950298 3.2454042 1.2700145 -0.4408861 3.5850558 1.8917384 -1.9807825 2.6012297 -2.5233052 -4.969613 2.04809 -1.3798159 -0.6459325 -5.3837776 -3.6551683
8076 2.4955134 0.24734496 -1.5949023 -1.7469571 0.1786249 6.965751 -0.49871424 -1.57159 4.4547133 -0.46760598 1.4062564 6.853395 1.7596564 -4.2301745 -2.7291875 -3.7478316
10426 1.6587389 -6.844632 0.21251011 -4.013501 -6.060808 -2.5911317 0.85717165 4.4201736 -0.028823178 2.2550647 -3.086496 -0.5291699 3.0443282 -4.6530366 2.6635108 1.227877
7814 2.6229043 2.575049 -1.863136 0.642316 0.6843292 2.7039216 0.7652797 0.5538092 5.063116 4.5891457 5.874707 4.612113 -3.0099564 0.9641395 -4.0491343 3.5254223
5999 -2.6848154 0.9069325 0.42304662 5.3123 6.895627 2.5070667 1.2355627 -2.3254418 3.8406923 0.954645 -3.9425375 2.656744 2.3545604 -0.28977898 3.299408 -4.3245635
8229 3.681226 -3.4911418 -1.1352448 3.502819 2.207234 5.8417087 -3.97436 -1.1730301 3.6425745 -2.7049727 -5.2643943 -1.4088633 1.5632972 -1.4027898 -0.75078976 -2.246703
8375 1.1953622 2.9295638 -2.6845362 0.15347254 -4.9063344 9.3438835 -1.6727277 0.17632541 -0.20681882 -0.78561175 -4.7022276 4.630936 4.4155445 -1.8000925 1.1386406 -1.422871
12302 2.0477223 5.2614264 -1.8183142 -0.3817199 -0.5565202 -2.8417711 -10.03259 1.9745952 2.9265437 -4.145114 1.7210206 2.6801429 1.0302433 -2.0035014 0.48254693 1.6252725
6260 0.6806137 -1.3221574 0.12533565 -2.33601 -6.673567 4.301841 -1.1565588 -1.4317735 2.2441998 0.97411245 0.4793402 3.5343776 -4.2614303 -0.085661374 0.9141252 0.9574218
956 4.7129774 3.3217266 -1.3274703 -1.0562819 -1.5851301 -0.8505136 -9.164183 -1.2084339 0.81759155 1.5648167 0.39148295 -0.25069553 0.11413654 -4.4323487 -3.0758483 -2.5790184
647 -3.893472 1.1134216 -1.8286005 2.6385245 -1.6506265 1.327468 -4.544594 2.307537 5.0405087 -1.3914175 2.7621553 4.8736157 0.87742424 -7.1231403 -0.6902071 0.7730007
12291 -1.8660625 -6.192813 0.21445134 5.082086 1.1312338 4.945153 -1.2282523 -0.76789063 3.3590465 1.3073629 -5.166691 0.005609913 3.1182804 -0.038105816 1.5139878 -3.2846339
2055 0.31381077 5.4024553 -2.5769897 4.316077 -3.3699872 -2.8533125 -1.4286832 3.0891259 3.0218635 4.442304 -2.7984488 -3.0414703 -2.365246 2.9654062 4.574749 0.053699534
12576 1.6815722 3.0616376 2.1192412 0.55873984 -2.3491442 -3.0597415 -0.00723323 -1.3806435 -4.203073 -3.0776954 -2.7762973 3.1273193 -8.232329 0.35164708 6.7868705 -3.3479295
9677 0.8995534 4.030304 6.9533596 2.604918 -2.2463684 -0.4979669 6.7657666 -3.692512 2.4713025 -0.05943805 -5.2270513 -4.415636 -3.1532092 -2.1306024 2.7516813 4.0021553
1975 0.98638546 -6.51801 3.7852175 4.130459 3.584018 3.518356 -4.2538605 -2.2747157 1.4056196 4.981103 7.3462276 1.660432 -3.7220583 -0.9640541 -5.437495 -1.1913925
12290 -1.4801043 -3.7854283 -2.5143692 0.92702365 1.0421344 5.7651486 -5.1005945 -1.4895444 2.9291122 -1.4755917 -5.6678214 4.888979 1.4405775 -1.4029281 0.49161476 -1.0698512
13153 4.748278 1.2117623 -2.362308 -5.153634 -4.1461062 -4.4644833 -1.2101665 3.429709 -5.9700766 -1.3975962 -4.216111 1.8782556 2.665008 5.317276 -4.317304 -2.8848894
7062 2.775909 3.2635667 3.9492598 -3.0358086 -2.4486856 0.9801695 -0.23874785 3.601642 -3.0633347 -4.790411 -0.011472141 3.1057944 -5.4449205 3.5970604 -0.027967516 -3.1359193
2046 -3.4127715 2.4114432 1.5952353 6.153265 2.2605224 5.471883 -4.7581363 0.038055327 0.33986217 -3.2694218 -7.701785 -0.2528918 1.2432443 -1.4217758 -1.1857591 -6.0151563
10897 -6.719258 0.95900196 0.7208421 5.560798 -3.6910253 1.9877073 -5.279608 0.5080084 2.918512 0.79988736 0.9967812 1.5036048 1.9118093 -5.6382766 0.38015804 -1.0997227
5213 2.6240385 -6.725274 4.7241807 3.0857022 4.930564 4.329157 -3.7141802 -2.8840888 1.1903702 4.5590014 6.8602386 1.9067512 -2.1937687 -1.1680201 -4.2622995 -0.19702964
6806 -0.7766694 0.12111707 0.5149173 4.2131224 2.2399232 7.404462 -2.8839934 -1.7235719 0.6892592 -0.38173133 -4.1733294 1.751873 1.545356 -0.067607485 -0.8682075 -2.3704653
12131 -0.3423936 -3.139475 -0.64095813 3.0677834 1.9629906 4.7674704 -1.3663858 -2.3902104 1.5078348 -3.2366474 -5.7881994 1.7805091 1.3942858 1.0809896 -0.04297108 -3.1136386
7688 4.682034 6.306207 0.6786885 -0.64657164 -1.6159939 -0.9336322 6.153667 2.2260425 2.988173 -0.6795821 -3.0272474 1.072891 2.570262 -1.4396586 -4.7204323 0.14504138
675 0.77171445 3.4758635 1.6624982 -4.0388393 -6.703683 -4.0013633 -1.8678033 3.768272 -4.8273654 -5.7059455 -0.54768944 2.6154962 -1.4763072 4.659727 0.6210965 2.3144085
13059 -2.631518 -2.4048433 -1.2709796 3.7140567 1.1153051 3.6461494 -3.1432571 -2.2674732 0.13201463 0.0619623 -4.986248 1.8784562 -2.1318288 0.58089113 -0.9151046 -3.962556
9230 -2.5773065 6.0585027 -0.042268306 2.4283075 -2.5695715 0.8892961 -5.1055303 2.6486964 -1.1808285 0.35716945 -1.3600768 0.06484582 -0.1134014 -6.1957946 2.599594 2.0056064
8560 0.10109105 -3.277529 0.52361685 -0.7950064 3.0779011 3.8340554 -5.16428 1.6210295 2.8608181 -1.5482033 -8.155569 2.1931303 1.3122561 -1.4104048 0.37740228 -0.83200306
1167 1.3009436 -3.6909518 1.0342913 3.5173368 3.767011 7.3240166 -0.63396037 -1.9935911 3.4714925 0.96386117 -4.0338497 -0.16924594 -1.374549 -3.6543133 -2.0235016 -5.0100355
7812 -3.0656903 2.3658056 -4.551598 3.0777962 -2.9342682 -0.8279085 -5.8896956 2.2076328 1.280874 -1.9980955 1.4443069 4.5391707 0.16633399 -6.7834845 1.461358 1.2370318
9183 3.3474352 0.96941745 2.1140594 0.23927817 3.6898088 0.54788077 5.7117167 -3.2854486 0.61113554 1.9173329 -1.7119848 0.90495354 -1.7335374 0.74544084 -1.7976462 4.9024
7681 1.0646516 2.1792212 -4.5766816 4.4178 2.9569201 -0.20392883 3.8621125 -5.422146 -4.236889 0.18837221 5.5245037 7.799841 0.9958924 -3.012305 -4.5668664 2.3364143
10598 -1.5233926 -3.4784358 0.85987973 4.974899 4.571141 3.7253275 -3.212219 -2.8327377 2.684968 0.24883002 -4.9323835 0.86355567 2.910746 -0.9886504 0.8215592 -2.3377764
12233 4.373961 -0.47147152 0.36202466 0.031052021 -4.3630457 -0.8186008 0.3153145 5.129171 -2.0658212 6.016631 4.708414 -1.3030065 -0.11514763 5.9854894 0.9323028 -6.350459
3980 -0.061362825 -2.2097237 -8.1884365 6.44211 1.5250965 -1.3335394 1.9064755 -1.4379339 -1.1979052 -3.5374346 -0.7642113 4.807479 0.58167964 2.454855 -3.8161957 2.9799027
9577 -2.9341307 -1.2089907 1.4901142 2.3129253 2.1589627 2.7069657 -3.6954262 -4.604944 2.5913706 -2.7048104 -5.0521755 3.0515616 -4.68087 0.50024825 2.3106878 -1.3713084
576 -0.6090286 3.024967 5.7748766 -0.70839465 1.1565677 -4.939984 -0.29565516 1.8530232 -0.17354384 -1.7621795 4.583841 5.166284 3.3549087 10.03892 1.570777 -0.8227205
6374 -1.1807427 1.8860502 -1.7640649 2.6387253 1.937637 2.7651749 -2.224939 -7.126532 6.6693254 5.668596 0.5143035 4.2666006 3.830184 -1.0988362 -2.3691308 -1.4475869
10020 8.415204 2.0420141 -5.41411 0.168997 1.0936804 1.0463885 3.4867337 -1.3199986 4.6334257 2.3553195 3.7959723 3.1115904 -3.102576 -0.8755362 -0.63690054 -1.0549026
13125 1.5648657 -2.3921382 -0.77971405 2.2958622 2.8194702 4.45709 -3.3184133 -4.2209992 4.514533 -2.6888375 -4.746598 1.34903 0.62354976 -1.0239118 -0.8575997 -1.2293837
10422 1.5203434 -3.8312972 1.9674869 -4.0924788 -3.7755716 -7.8009224 8.349293 -2.0774114 -1.9103011 4.6565237 1.5253788 0.56331146 0.56535476 -4.065058 1.8454787 -0.7068418
980 -3.118162 0.9477498 0.011103605 3.0031805 4.617738 2.7925317 -5.9587092 -6.437377 2.3961973 0.96681213 -3.583117 5.021028 -1.6407461 0.43021995 1.6859413 -0.594634
5739 -4.244374 0.62768424 -1.0969074 6.2548585 -3.896883 1.8114228 -3.692118 2.3632774 4.20379 -1.9291902 2.656873 0.28758475 -5.203995 -5.6436415 2.5831466 -0.55361396
624 4.3278556 0.9998216 1.135839 -2.1988037 -1.7778913 -0.8471052 -0.8986137 -5.609965 -1.7895051 4.2308507 1.183314 3.6917114 0.091816016 3.372416 -0.3754973 2.2055569
12303 -1.5242423 -3.0782058 -1.2021825 1.1359131 2.6065636 1.2506232 -2.708469 -4.365783 -0.5867513 -0.7864763 -6.291473 2.9393637 -0.36638898 -0.95780057 0.2583271 -2.0482557
13045 -2.3389719 -2.8826475 1.0594095 3.9865923 0.41542578 2.7432346 -2.4230363 -4.6279883 3.210627 -3.3433292 -3.2340934 1.2195064 -4.2422748 -0.4959633 1.7365296 -2.438282
3966 3.000503 -1.0920535 -4.47408 -0.07480194 2.1026585 1.7074968 2.863293 0.7413112 6.158618 1.0987988 3.4802213 6.757423 -1.1591152 -3.585041 -4.4984007 -1.4483072
4185 2.8286598 -3.0625865 -1.0681857 1.2396358 5.5797415 4.0136876 -3.5540874 -3.0642176 1.9271535 -1.2221724 -6.722585 1.3857298 1.6973566 -0.60151374 0.7137415 -0.53579974
2513 -4.6670203 1.5929688 1.9469972 5.416431 -0.7829244 1.4186529 -2.359814 2.9248617 -1.6070695 -4.6248794 -0.24028401 1.2436755 1.3963058 -9.079476 0.4320938 -0.85791874
4949 4.1558213 1.5631529 -0.18419088 1.0794669 2.6744256 -1.185605 5.772844 -0.84970343 0.9610121 -3.1704307 -0.47606835 3.2538233 -0.4863614 -0.8543678 2.2397141 -0.81773984
6264 -1.5853058 -3.849072 5.2696357 -0.06896233 0.67089885 5.3136497 -0.44102937 -0.93867993 -0.87710804 0.2554432 1.2635167 5.537921 1.9696226 -1.2122883 1.6446612 4.9157615
5609 -1.4821246 0.2432711 0.9759632 3.623316 1.4555295 4.470772 -3.7114792 -4.1781864 2.5154924 -2.0111208 -4.1843925 0.9462267 3.2272282 -1.4607376 -0.2761981 -2.76341
3997 0.8916967 2.239373 6.962513 -0.6759985 -1.5070904 1.1354697 -1.2836133 3.0706072 -1.6603729 -4.114415 3.7154057 2.9759376 -1.2330874 6.0966964 -2.424464 -0.25292647
12289 -1.520191 -4.5534425 -1.7229639 4.774489 2.2527597 3.3089151 -2.3628566 -2.89841 1.423903 0.15959746 -6.1562433 0.46653005 2.302309 -2.0415695 0.42376754 -2.0553193
3334 4.3520346 2.2099023 4.3269143 -3.9190936 -1.5425706 1.5287205 0.30821654 5.728471 -2.0464356 -3.2941499 0.9621956 2.2904913 -2.1721153 3.4885864 2.5319407 -0.45319834
5958 2.0267506 3.2276907 6.6021986 -1.055213 -0.4891622 0.26214796 -0.61850965 3.6793394 -2.9473903 -3.388842 4.311881 2.5992675 0.3418489 5.870368 -0.10569764 0.5188651
7765 3.4947155 -2.6699846 -0.68036205 6.1143336 -5.713333 0.98635507 -4.365881 -4.1490283 -4.3848395 -2.7349322 3.7437599 -3.9835277 -0.33650184 -0.74687606 0.88572145 0.93132937
4188 -1.1640754 -0.8149595 -1.4660724 4.517897 2.3062127 4.215283 -1.5908412 0.069566764 1.6900237 -2.1715684 -8.528594 -0.97259086 -1.0659916 -0.9424198 1.0253197 -2.032699
8168 3.1951015 3.619249 5.936253 1.0725899 5.54915 -4.859542 6.232063 1.8393825 -2.8693452 5.4964166 2.773811 0.31890428 4.651086 -3.286918 -5.5174885 2.4493778
8840 -0.55737466 -4.7772207 -2.4917514 3.2554018 2.480662 0.7623804 0.1876147 -4.3903465 -2.2885952 3.052894 1.8281636 4.5179844 -2.2671013 -2.2980497 -2.098369 0.980318
8754 2.355777 -1.9510083 2.3124225 0.6949145 0.59909284 5.311924 -2.470509 -4.6319737 1.4051768 -4.5380845 -7.0841928 0.98681873 4.904861 2.397074 -0.60184103 -2.179675
12313 0.8678052 -5.0277114 -1.2259341 3.167242 4.4756684 2.6489117 -2.6327279 -0.9795172 3.893984 -1.0858419 -6.0846076 0.3119538 -0.40298346 -0.35226357 0.7958544 -3.2922888
4175 -0.68636864 -2.069811 6.516549 3.3276472 2.591378 5.063702 -3.4934242 -7.8940616 0.98734593 -0.5709336 -3.5386288 -0.2566583 4.072853 2.2168493 -5.6330924 -4.249858
8186 -1.1423749 3.4694684 6.9118037 0.43325832 -1.8746011 -4.1002374 0.8719393 5.3837214 -2.1383152 -1.5793577 5.4818306 1.3743881 0.32921675 7.11097 2.389525 2.3331504
7835 -1.7459589 -3.8400183 2.0446362 3.2284982 5.0709944 1.1139162 -4.4471235 -4.1583605 2.6090224 0.23848405 -4.8216705 0.17352946 5.035979 -5.5577455 2.1118073 0.14357515
897 -1.0708025 -2.6153033 -3.4352753 4.9165277 1.2723638 2.3016188 -1.9636444 -2.0969918 -0.37364492 0.3407726 -7.590583 -0.2327818 3.2475598 1.9117277 -0.71844304 -4.154052
7673 6.315683 1.4329934 -0.4917637 -4.9950995 4.044329 -2.000635 4.138303 1.1538575 3.5543242 0.38241488 -4.0416446 2.4334013 -2.5622466 -1.6097332 -7.0479026 -2.917572
6368 1.4359418 3.957826 6.809915 -1.5904663 0.50804967 0.9094989 -0.67256254 2.3155768 -2.1094382 -5.937924 -0.063118435 2.4223118 -2.0920072 4.4226484 -1.4755341 1.1630616
790 -2.529564 -1.5356177 8.37788 3.9027455 1.3892691 -1.0253294 -2.640589 -6.5612035 0.22851023 2.5433362 -2.0055757 -1.3267639 2.8851967 -0.41704887 0.06166084 -0.97438073
12100 1.202055 5.2292213 0.4478338 -1.2363516 1.0937551 -1.8509718 -7.8301306 -1.1129284 0.302959 0.3623554 -1.3464576 2.0589788 0.92569804 -5.775243 2.999429 -1.4452171
4140 -1.0117716 -0.0011269182 3.5294948 0.85624903 -1.6119983 2.682115 1.5906919 -1.8384695 2.427624 -2.30279 -4.535354 0.53046083 -0.3500797 0.015334302 -5.302209 -1.8920555
12707 5.62315 -0.15839672 -2.5752141 2.2458658 -8.375514 -1.7324114 4.0514073 4.512339 0.097955875 -2.2691088 0.8651854 -5.7647943 -2.1011384 -2.7845685 1.1177487 -0.6475744
11910 -0.949777 1.2974846 2.3197792 3.4997602 0.45238805 8.777343 -1.2402973 -3.5202208 -0.95966583 0.63685936 -4.3775234 2.0997276 1.3676169 -1.1794959 -1.5349255 -3.5798612
12998 -1.214892 0.6733255 0.22994225 5.817403 1.0060022 -3.474659 3.6631145 0.6449326 0.95326793 -1.0207992 -2.141826 -1.0022494 -1.960357 -2.5676587 2.6068645 -2.1390357
11035 2.3017821 -1.3737826 -1.9914817 -5.2029305 -3.7168067 -4.146956 1.8596561 4.4900627 -4.1687303 6.701521 -3.6712554 2.6292112 1.8594952 -5.2829823 7.3490696 4.1556077
11085 -0.6991845 -1.9414563 1.8517567 1.069456 1.6309592 8.510899 -2.461178 3.0279021 5.214851 1.0750134 -6.392196 1.6433909 -3.9170215 -2.2920897 -1.1027802 2.4900198
12335 0.5064432 -1.8674878 0.3077867 3.6281774 4.0621533 4.793842 -1.9926767 -2.0691826 3.65142 -1.7059639 -5.4135675 0.7366121 1.4481587 -1.4140595 -0.1581269 -2.6718087
2427 4.5966206 2.776715 6.4699116 -3.4503343 0.496003 -0.4775573 0.14404136 3.667368 -3.8232858 -4.4155893 0.7489903 1.9530411 -0.62953776 5.2088957 -1.6993371 -1.3147585
10151 2.2414587 0.906228 -4.012259 -4.1580505 -1.4312252 -3.5560372 0.69287723 3.257174 1.1676868 3.6919568 -0.75642806 3.0134196 -0.29633984 -1.8853505 -2.4465907 -4.30555
1992 2.8438191 -1.9555427 4.978366 -1.8922213 -2.4291632 -2.9787838 -2.5185974 -2.8407998 4.5812745 -4.8521075 -3.33566 -2.2643397 -4.9822817 -2.9843771 -0.490818 0.18525855
1536 -2.0805497 1.8402691 1.5260051 3.13954 -5.174995 0.54291743 0.5927631 0.87445843 4.7623215 -0.59903234 1.847629 -2.3188596 0.9450136 -7.159384 -1.2383345 4.4525757
10617 -1.7326745 -0.59475046 8.844655 3.64867 0.7022107 -1.7156366 -1.7035015 -5.806641 -0.034123506 2.935715 -1.3653225 -1.1090107 2.7862115 0.022904964 0.12192949 -0.032099385
5358 4.5005646 -2.412481 -5.3617344 2.3605602 -0.881429 3.8778672 -0.84649926 -0.79215676 2.4630795 -2.0843499 1.0149959 4.0270324 4.6409893 1.5704612 6.4807286 1.8263602
1142 5.7375 6.300255 1.1324095 -1.3270383 -4.1052303 -1.978711 -0.75913274 7.576698 6.5565367 -3.7790432 0.1682217 -2.8521233 0.71427137 3.9398606 3.8237822 1.6290582
849 -0.6306156 -5.3927975 -2.0232096 2.48811 -8.737309 -5.7932487 1.5779387 -2.141356 -1.2137426 -1.3390679 2.4273434 -0.7349379 -1.7520717 1.1347088 2.2919538 -1.2168683
6319 5.9345827 3.6196988 -3.917739 0.14090365 -7.7928805 0.6139256 4.0129294 -2.734192 -1.8609171 4.4393773 0.721317 -0.11320352 4.2892094 4.0431414 -0.527785 -2.9105968
9669 -2.2071142 -1.4018 0.6234485 1.7753272 2.670995 2.8547428 -2.156517 -3.7873359 1.8247806 -2.2578611 -5.4887443 2.90778 -3.3131921 -0.6387886 -1.9847105 -3.758911
12349 -1.9626374 -0.32320398 4.2025743 1.5379261 -0.7651319 0.75610405 3.744575 -1.8591084 0.6854322 -8.742281 -3.5278797 2.8759456 1.487686 -2.4055955 0.8593505 2.8865752
2808 -1.8136438 -1.6275877 1.682935 3.8184767 0.7118968 3.8871155 -2.2217422 -5.635733 2.931649 -3.9364343 -3.0333219 1.8607596 -0.8280246 0.21223205 -0.2831219 -2.6438353
8392 3.5887966 0.077193715 -4.4251766 1.0360916 -2.7908673 3.7168295 -5.048173 4.8636875 0.9887391 4.702051 -0.35699654 -0.45594138 -0.2294377 -7.678962 1.8016812 -1.7860737
658 1.4003882 -2.9199648 1.3494388 6.5937967 2.8717895 5.348373 -3.6339433 -2.2966807 1.1965173 0.18638894 -1.7098961 -3.6628952 0.7819462 -2.422508 2.6704183 2.7022238
11681 0.3642882 -4.0876174 -0.23936905 2.9998534 1.7629557 5.157874 -0.8961749 -2.9369197 0.96565706 -0.33734992 -5.050373 0.89500254 0.24299182 -0.6728828 -1.2809675 -4.2277236
7901 3.3670573 -2.4628286 -7.301328 4.0812035 2.2894409 3.5090213 1.6244351 1.1355425 5.4410157 -0.91547143 -5.17866 1.0988487 -2.3817456 -5.0049276 3.1839821 -4.1410394
4696 0.77682537 -2.2601147 0.9238461 3.7639692 3.5372903 7.6266527 0.83576447 -1.1027137 3.790879 -0.6595451 -5.6880355 -1.0361972 -4.3196163 -5.5682487 -2.7854018 -2.26551
2759 3.5865817 -1.4531004 2.0547686 -3.4027917 1.3154815 -3.0926063 1.3697623 -0.54840994 3.0778458 0.7133006 -4.3280373 1.5989673 2.7223265 2.1036417 -0.32922265 -0.269498
2416 3.4344237 4.2487116 5.688551 -1.0193505 -0.91947424 0.1957927 -3.9689195 2.0211217 -1.4259219 -4.654995 -1.0975384 -0.79293984 -0.6758078 5.06587 0.46242842 -2.2364254
4031 3.13696 1.706502 -3.3733552 -1.8996724 -0.08631867 0.23554927 2.475572 -0.3651942 3.4144037 3.9486315 2.0151968 4.8471093 -3.599556 1.3438935 -5.1422014 2.936512
5320 -2.154695 2.8637295 -3.1737819 1.0697352 -6.3176236 -5.949545 0.78839093 4.1140237 -0.084268875 5.2525697 -0.47227058 -0.81164616 -3.2905862 0.14068662 1.7610452 1.5386335
5948 -2.2760673 0.78270835 6.1373987 2.106667 -5.4133353 -0.8129287 -3.755253 2.2234554 -0.48507962 -1.6465963 3.381157 1.1834505 2.5845468 7.2979794 4.906739 3.572329
1971 -1.3741766 0.07589182 7.477034 -1.5910369 -1.0757256 -3.6098084 2.3211548 2.2377946 3.0453331 2.907783 0.37156922 0.54353124 -2.6871297 0.7705202 -1.1479928 0.98812515
12314 -0.10666476 -2.5702326 0.3720793 2.6514294 3.8611927 3.625883 -4.2662325 -2.7847264 1.9711189 0.8767147 -5.150559 0.9002904 -0.0056560943 -0.050221127 0.48902187 -2.7977662
8040 5.4194617 1.1859573 -4.8292994 -1.4081647 1.8994254 1.6029332 4.4055853 0.02838824 3.0331686 -0.8644323 2.6345975 6.6913886 -2.2604768 -0.48250565 -0.74506754 3.9343424
7094 -0.59740895 0.3559721 4.4171076 0.45543554 2.6978965 -5.7923837 -6.423288 -0.2047455 -3.6166363 -5.470316 0.24104773 -0.10866328 1.6754161 -6.310552 -2.00844 1.7169408
10034 -2.2825453 -0.47133332 -1.909847 4.501628 3.7515428 2.03049 -2.7879686 -4.327671 3.480114 -1.8815103 -3.5681844 3.0330148 -0.7721792 0.29444122 0.3189176 -0.7810497
8768 0.05100214 1.1607734 3.6647153 -7.627595 -2.5325527 -4.277851 0.4799635 1.9903053 -2.4581172 3.975714 -2.5580525 2.5399423 3.6570454 -6.0384283 -1.6718718 5.0050383
7338 -1.6610821 4.7300715 1.2624018 -2.8835492 -5.47141 -3.2029002 -6.1284127 -2.714431 5.454069 -5.3306394 -0.49076384 4.2001653 2.8138385 0.89576304 4.2968764 1.3063666
2162 1.8161207 1.5987408 4.4735274 3.118801 4.741521 -3.486116 5.117471 3.2560468 -1.4817234 3.190723 2.7623265 -0.3413549 4.5969777 -2.754994 -5.013856 2.208731
9010 0.54053247 -1.6017975 -2.9214976 3.57429 3.247136 2.397366 1.7467779 -1.6732597 -4.3132095 2.431583 4.150063 7.637995 0.3100925 0.028126813 -1.7706964 1.504612
10833 -3.070027 -0.24588981 3.6863434 1.2991635 -1.231031 -2.6525972 -5.642894 5.931844 0.3106391 -5.3791003 -1.8032774 -1.1190941 -0.28709656 -3.422593 1.3681105 -1.5736556
9574 3.6871166 -5.702568 -1.9128332 0.17819794 1.726683 -5.895363 1.019641 -1.2284247 3.9669914 6.431371 4.1008654 0.45538723 2.553488 -2.3651354 -4.117916 -1.8532931
7339 -1.2645633 1.7271327 0.6200315 -0.0460447 -5.817804 -2.7611861 -7.61019 0.74154687 -0.0453671 -2.5111012 3.41229 2.7061656 0.63871 4.8657556 1.6794966 2.004544
11499 -1.0105524 3.851158 0.82758003 -1.041293 -5.016226 1.2654226 -1.6019087 1.7803513 -1.4886835 1.2862178 2.0378606 2.62689 3.303909 -3.6003776 -5.9788756 5.4642353
3523 2.1634643 1.8470334 3.1140718 1.2703716 5.0620327 -7.6301246 -1.8439146 1.3783405 -0.16524619 -2.0192032 -3.7342942 -0.49971744 -1.7677794 2.0001755 5.7078347 2.282221
10739 2.0546198 2.5316179 5.0539045 0.0048222025 0.56450796 0.26281744 -2.2205212 1.9682262 -3.1160192 1.1306187 1.4542384 -0.8420743 -9.976403 -6.2967443 -0.008494051 -2.5984058
8086 1.6862631 -0.7505117 2.417864 2.4647644 -2.1936657 -2.5686393 -1.2902099 5.986628 0.31598422 -2.8253288 3.4948661 -1.3586764 0.6524887 7.0564694 0.2277739 3.8170233
1928 -0.5497638 -0.2992847 2.6309059 0.77289975 1.154009 7.0980206 -2.2021947 2.1079996 3.8530855 -0.009826212 -4.8412104 1.8722773 -2.4996655 -2.3544006 0.18500742 1.951835
12362 -3.078844 -1.1782568 1.5342468 -0.9984222 -2.5220234 -0.3974396 -5.134196 2.6460023 -0.37490952 0.9660613 -0.04710174 3.2325268 4.431214 -6.722997 2.1013112 -0.2597664
7480 2.1335425 1.116666 6.2591667 1.6197494 4.442265 -6.011683 4.33404 1.8362101 -1.9007576 2.5890167 3.5785522 -0.31923467 3.9096518 -2.364935 -4.3525987 3.0519292
1119 2.4631453 2.8259585 1.0932059 1.3290095 -3.385848 -1.5200641 2.505724 4.128597 -4.685687 -2.4660192 -0.19436096 -0.44501618 0.9795024 8.172484 0.9683676 1.7308426
2843 -0.5378038 -2.096385 0.10309369 4.1531744 3.247932 4.4244237 -4.0443 -3.2143846 1.2433355 -0.07459051 -2.7967062 0.42431197 1.7815424 -2.6766336 0.39626932 -3.5719466
13048 -1.0540028 -2.339309 -0.9558177 2.1730225 3.7479858 1.5646743 -4.2073693 -1.3660368 1.9112053 -1.3481712 -4.819362 1.5419272 -3.724098 0.664758 0.49629533 -0.8008621
1816 -1.9501588 -3.9312682 -3.3357434 0.58723706 -2.6329033 0.71147794 -2.3450534 -2.2175004 0.27782607 -0.22506054 1.2415215 7.3968005 0.43656373 1.8241007 -1.0317745 0.5307911
11534 1.989626 1.7520175 2.101103 -3.9174364 -1.1550049 -3.4962888 -8.038907 2.2329688 -0.95917135 3.1642387 -0.25629714 0.398391 1.5150286 -3.9825852 3.3785434 -1.2036403
11530 2.184257 4.510067 3.0565488 -1.7250148 1.6005907 -0.35185876 -5.840472 -0.1955399 0.63029224 0.26322716 -0.3241113 0.9460022 -2.6264985 -6.2411666 4.0077705 -2.80987
531 -0.5540792 -2.6076772 0.0033961681 5.5406175 -0.20585988 6.620913 -4.095946 -2.325729 1.9889615 -3.168856 -1.8098238 0.550885 -1.7738017 0.673987 -0.54907954 -2.2602532
10488 0.11485843 -1.6114198 -3.0238564 1.1888498 -7.530398 -6.928363 6.637704 -3.6162088 0.7802148 1.0216337 -5.023922 -2.0206995 3.0669982 -0.11910889 -2.6364536 -1.4378012
10763 2.2257414 1.3489126 3.259789 1.642619 4.6910415 -7.250591 -1.5495266 0.98927516 0.03884243 -1.3626392 -3.6147556 -0.3369884 -1.8676498 1.5119466 5.344989 2.15356
4611 2.2309232 2.2025073 5.1995955 1.5624385 0.94172215 1.3044847 0.46867594 2.758082 -3.8120198 -5.3315754 3.3775854 1.750608 -1.0850317 4.3650055 -0.3281342 -2.2949789
852 3.336928 6.139695 6.0537663 -4.5098143 -2.2519433 -1.6432397 -0.6697967 2.984366 -3.262804 -2.0743477 3.0539563 2.80752 -1.3546665 3.254101 0.9430895 -1.3874003
4033 2.0974877 -2.6533697 0.7192662 0.106146544 2.6752992 9.22304 -0.37685007 -2.3490896 2.4946082 1.0633405 -6.635027 1.3131417 -0.89180434 -4.172475 -4.390772 0.72298133
828 -0.80994684 -0.76907146 0.41922137 4.1147227 6.2454276 3.9756212 -2.9441416 -2.0460324 4.4416633 -2.6180856 -3.5243042 2.6663527 -0.8554983 -1.1034538 -2.413395 -2.9254174
7782 0.03352758 -1.9756458 -2.6231148 2.5805218 -5.96738 -3.9536984 -2.588725 -1.8562833 0.6552637 -4.4679985 5.8881874 2.4213693 2.1246684 -3.403549 -0.6735833 -1.1876462
6268 2.6011887 1.7196778 0.15364595 1.1159443 1.0742505 -1.2167493 -5.619293 0.86156464 -1.7095045 4.3090553 2.9094024 -0.33570784 -2.057059 -5.462119 2.1877668 -4.10528
6895 1.5735565 3.3861792 0.14351489 1.7262254 -2.2275252 0.12949589 -1.7853069 -1.1482569 1.5032923 0.72757316 1.401117 0.9130756 -1.9076359 -6.1969686 5.187344 -8.367946
9792 -1.7910876 -1.736335 0.10127896 1.7205751 0.83792454 2.740977 -1.8694997 -3.6900337 -0.27573752 1.6389828 -4.96961 1.2019824 -2.641259 -1.6119156 -1.9320985 -4.2198415
8190 -1.4889928 1.4322838 -0.6117823 2.9508142 2.003646 5.1041307 -3.5363748 -2.306452 3.3575516 -1.9255811 -5.2977843 2.6012583 0.49565133 -1.4480534 2.4798186 -3.8055353
9890 0.059665106 -4.365915 -0.08436282 2.2930064 2.8061786 5.5228796 0.49831447 -2.7710798 5.9073844 -0.43670443 -5.237514 1.2537557 1.3079867 -3.1458418 -2.8788018 0.002093336
7884 1.0502385 -3.1458888 -4.679654 3.2679203 1.9083073 -2.7863197 2.6287124 -5.4233994 0.60337114 -2.0439477 2.4342911 5.416895 -0.28424153 -0.2806092 -0.0024657277 2.9211798
1289 -1.5651748 1.2567753 -2.033963 3.7348049 1.6260157 2.9205291 -3.290461 -3.9008758 0.1673731 -1.822754 -3.3375924 3.2084656 -2.04526 0.46133128 1.5714465 -1.2744
11868 1.044468 -3.2309434 1.5936853 1.8972756 1.2128446 9.237077 -0.664153 -1.1095086 2.7289624 0.8266495 -1.8319595 1.5987359 -5.0817184 -4.1039805 0.14552003 2.2522745
632 -0.49462146 -3.8520832 -0.17346492 0.472729 0.7759965 2.580987 -4.6416206 -4.6658955 2.5119293 0.7332463 -5.5129976 2.139614 0.7969891 1.323774 -2.0056748 -2.2451339
7817 5.908244 -1.0849084 -2.757225 2.2100542 3.4304562 0.011348368 0.57859856 0.55537933 -0.7960542 1.7633183 1.2257379 2.9743001 -5.205142 -0.20797454 3.030716 -2.3511255
7051 3.3090193 -0.8065354 -4.6036997 -0.6875862 0.71756583 -0.97196203 -0.022001948 -1.8540313 6.271878 4.8093715 2.2668881 5.6849833 -1.5434684 -0.5872089 -1.4165703 -4.032691
5205 1.8368851 -0.80967814 6.5404363 -5.078523 -3.8574111 -4.0655966 -2.4084766 1.9438941 -4.3514247 1.7889743 -6.823228 -1.4794904 -2.1208622 -0.34150237 3.0369935 -3.4015257
7710 -1.0270188 -1.116131 3.7794983 1.1420138 -0.25710317 0.7997662 2.9779031 -1.2014754 -0.784332 -6.2355366 -1.3969407 3.587754 1.9297388 -1.087292 -0.83489996 3.0407119
9088 3.518238 4.714166 6.0815315 -1.1084867 2.4356382 0.60705864 -0.21954133 4.5012884 0.8324201 -4.245833 -0.5627074 -0.0542637 -3.6782513 2.9508128 0.39780566 -0.73975325
4148 -2.4809535 -2.8656738 -1.7540032 -1.0724155 3.518857 -0.45258453 1.403453 0.47240987 0.8147396 -2.1535203 -2.2566638 8.261118 -2.5951574 -0.31622988 -2.7966578 6.8611617
5407 1.7228527 2.9960468 6.9184036 0.6711545 1.0947205 0.8447468 0.27203774 4.354933 -1.3189703 -4.505611 2.5732632 0.81388295 -0.8762302 5.1675625 -1.0551661 1.7434154
10294 1.6828086 -0.7235035 -2.3529036 4.2869563 -3.1643045 -3.9243135 -6.6686735 -2.272545 -1.5508527 1.6947012 -0.8411001 -3.150406 7.1327634 -2.3602433 -0.89799464 -0.09642986
12776 1.4973192 5.9730415 -0.5097826 3.2129855 0.579984 -0.97179526 -7.203672 1.1597239 1.9890549 -0.4593994 -1.011307 -1.9186404 1.1392138 -5.0480456 3.6958642 -1.4259169
7508 -1.990634 0.12809421 5.968249 2.0136163 1.9559227 -3.126301 -0.60689884 4.772776 -3.54088 -3.3941872 2.01608 2.39207 -2.8173752 7.6724033 0.8861976 2.2029808
10515 5.511139 1.2461982 -2.1878467 5.831227 3.4904673 -0.6859769 1.9665622 -3.705513 -3.1666536 6.87257 -2.3944063 -1.6159897 1.491745 4.3310266 -6.7112384 0.4548987
8087 -0.49362627 -2.1550908 -0.88688457 2.7207842 3.7927191 3.352821 -2.494299 -1.196948 0.8952188 0.37263778 -7.505371 0.4526768 0.343591 -4.4410915 -0.08755373 -1.5768114
5345 -1.8062289 -3.4048688 -1.0984923 3.0044076 2.7144384 4.507764 -0.2651497 -2.1604142 4.051977 0.5660068 -5.5438232 2.390709 0.63691795 -1.9235528 -0.82513976 -2.7334514
1411 1.1640836 -0.7299665 1.0880038 0.19532058 2.106437 -0.58706784 3.6303718 -1.4326161 0.74032867 3.036776 -1.7485983 0.85244656 -3.2996297 0.7705007 -1.5497366 5.4088225
2635 0.9800672 1.5460014 -0.7532642 -0.4311646 3.1276405 -3.347517 -4.8500123 -1.160505 -1.4801112 1.1412834 -5.4898043 3.1852076 0.4647291 3.5581443 0.898664 3.0679858
11624 3.7343476 -1.9400579 1.3235657 -2.3266993 -2.4461374 -1.282839 -1.4834936 0.44255996 -4.7567277 -3.1312513 -1.3203183 1.8988361 -2.6136708 9.045661 -2.3719893 4.081863
5673 2.541058 -0.6856707 -0.61409575 -1.1345632 -2.101667 -3.1960003 -5.4154315 0.9372668 -0.961889 0.11348756 -0.96515363 -0.52828103 4.433875 -4.925419 2.7587225 -2.1818595
6066 -2.0738864 -3.8864791 -4.686221 1.1236094 1.1869243 -0.47956 1.5547084 -1.1443137 -1.4102992 2.4665377 -1.5273025 6.50096 -1.1390401 -1.6774014 -4.284239 -2.9757721
10035 -2.2193353 -3.4138653 1.0546135 4.084354 2.3735666 3.620436 -3.460544 -0.62500674 3.188294 -0.25803116 -5.9645743 -0.110394634 1.5002168 1.512289 1.4893492 -0.40853575
4875 -1.0160804 -3.8249528 0.028629279 4.2321153 1.0816097 6.22321 -0.94650716 -5.030587 0.39794448 1.3664657 -3.997715 1.7434129 -2.7136438 -0.86657965 -0.42962715 -4.7628236
10814 1.7707969 -5.247869 -2.3908858 3.856722 6.5636735 1.8569142 -0.25169003 -0.029544713 4.540736 -4.061223 -2.9207962 1.6771623 -1.8782018 -3.2113917 -5.441275 0.45685887
277 2.4367785 3.8438842 7.150638 -1.8665514 -0.08207083 1.1386904 -0.6045069 3.535078 -2.5773926 -2.8632045 0.45531115 1.3903613 -0.17374887 4.443412 -0.4232965 -0.99390054
2071 1.6660503 1.9975588 -0.64939517 -0.31557485 3.5279987 -3.6002474 -4.3907695 -1.3609413 -1.6705303 2.211236 -5.897101 3.5379093 -0.023693161 3.282474 1.2452599 3.2388446
3921 2.864718 2.8165784 6.6732955 1.4597613 5.6736484 -4.9526277 4.0616674 0.3876426 -0.91551435 1.792205 3.049266 0.5087839 4.4149294 -2.7803473 -4.6919293 3.0047512
9645 0.07329609 -0.0127920415 -2.872512 -1.1251249 3.6561382 -2.8815794 -0.49409294 -1.4471031 0.44579035 1.0019774 -2.2990308 5.0053606 -3.5501134 -3.2933183 -3.7610486 0.49429357
9570 -0.85256404 -1.953476 3.4645414 1.5888983 2.5371907 -4.3369436 -4.305156 3.032066 -6.2254853 -4.0839105 -1.164516 -1.1620973 0.6519867 -4.7521095 -0.39778095 2.5703135
7692 0.47992164 -3.5218115 -0.9194052 -0.49770924 0.7085106 -2.5983186 0.5571243 -4.140624 3.4542522 -6.69314 -0.21974605 5.8388014 -2.7225213 2.3884358 0.8621234 6.3164988
10955 2.5139215 5.752244 -6.0799446 -3.874813 1.4747522 -6.5887685 0.33823964 4.2288184 0.37677363 -0.14174591 -3.2980542 5.2378225 -0.83291245 1.0588976 3.9838371 2.3079717
5003 1.4496877 2.9060833 0.051684033 2.4355288 2.0964758 -1.6801473 2.9655662 -1.6110215 1.8500239 -2.0619957 1.824398 3.3280337 -3.4743984 -3.0547035 1.6167568 3.1786268
645 -3.669103 1.5589856 -1.7428044 2.7715232 -3.4027061 0.82369554 -3.2712584 0.79549116 2.8142426 -1.7866403 2.2641041 3.6122324 0.8967611 -6.1375947 1.683294 3.489751
7689 -0.04925402 0.09364471 -2.2846549 1.8249718 1.8583301 0.34156117 -2.6481042 -2.2914994 -1.598029 3.685379 4.6923056 5.9972258 -1.574138 5.828963 -0.9763696 1.6011573
12049 0.15044715 1.8116908 0.05670461 3.2937043 -1.4898481 5.771665 1.7670975 -8.086151 2.410585 -0.7450859 -5.4454536 -0.39229786 -0.5490053 -6.859391 -0.4310687 -1.5132898
8230 -2.248536 -4.405401 2.3152077 1.248782 1.0662081 4.887341 -2.4305077 -1.9922919 0.22509284 -0.61716825 -3.6399925 2.6171896 -0.46933678 -1.3494048 -0.10436276 -2.532646
8101 3.264656 2.2285304 -4.2353115 0.893937 -0.1425217 -2.7239394 1.6164439 -4.0998454 3.91479 3.2987943 2.838001 1.0594532 2.9197366 -1.4599837 -1.1341398 0.94929254
11548 3.0565884 6.3075676 -0.78192705 1.9957947 2.3492718 -1.3486706 -4.6105413 -3.4215107 1.7200239 0.47081688 1.6832749 0.7240831 -0.9770724 -6.0598903 2.1685464 -1.7247999
7821 3.8826654 -3.9045115 -0.521676 -4.852979 0.37127373 -1.3404846 4.7844405 2.6218877 4.286227 2.0767436 1.3923438 5.1730947 -4.763961 0.17372607 -2.8465812 -0.7792838
7914 2.2038867 -3.2935324 -0.5550182 -0.38917357 3.393834 3.6817439 -6.7160373 0.27442202 2.6271574 -0.5285526 -5.339849 2.2917833 -0.89132804 1.5593461 -0.4513756 -3.5406737
6566 -0.05285002 -2.4515646 0.112453446 3.260979 3.3085783 5.662559 -2.2054598 -2.9545228 1.6992956 1.0368541 -5.751429 0.83755517 0.15078263 -1.48256 -1.3925265 -2.4679954
2682 -0.013499999 -0.10167982 -6.0536103 2.613558 2.0408602 -0.8904416 1.635923 -0.97851205 -3.1426847 0.11454358 2.0873523 7.557226 0.413143 -2.4270284 0.91547394 -1.0275459
756 -0.937285 3.4846568 4.0609 -3.9947572 -1.4866922 -3.1582985 -6.708588 -0.6624613 -0.21708688 3.0298615 -2.6513016 1.449962 4.163773 -4.3143597 0.9459935 -2.450031
7405 0.009202481 0.68755627 -0.0118263075 2.886478 -6.0367117 -1.145939 -2.5243986 2.6724534 -1.1263096 -6.2173185 1.7177675 -1.1462578 -1.8796121 -3.8746376 1.5130165 -3.941782
1095 1.9784538 3.700879 1.673877 -0.28318405 -5.227215 -3.8209786 -0.742827 1.083482 -0.26624134 -2.1796184 0.5394013 -0.7667372 1.4499186 7.6494536 1.30597 4.721742
8091 3.9484594 -0.6627992 -1.4481227 1.4879229 2.0402653 2.2974586 -2.3327737 3.0420072 1.5357629 -6.5380516 -5.565554 -0.94868547 -1.0588989 -4.7543902 -1.4840045 -1.211726
1076 3.5151215 1.0348668 0.044123046 -0.55473125 2.650416 -2.1411676 2.9683692 2.6751401 -1.2501181 4.2629766 -2.8365579 2.9513175 0.8237425 1.750799 6.8895254 -1.2685591
6919 -4.805993 0.8433863 1.2440643 2.7486663 -5.8156595 -0.67964095 -0.51040035 5.034106 1.9207067 -0.1123814 3.2688253 0.6965211 -0.07287662 -3.7646437 -2.665918 0.38662186
1368 2.2112374 -3.4921658 -4.1641636 1.3508707 -3.886815 8.144764 -1.2870054 -1.9442774 0.7338499 -2.1334836 -6.7541127 1.478567 -3.5698006 -1.2200736 -1.1551579 -2.9291246
1805 5.052364 0.9037337 -4.5059733 0.12562534 3.060857 0.86348015 3.4387264 0.37430772 2.5966325 3.1919498 1.7626581 3.9125266 -3.5736866 0.8174433 -3.6222432 1.3558098
10889 -1.652202 -5.432601 -2.6320338 3.2135627 3.2329566 2.969971 -1.0788647 -1.6485304 0.47350526 -0.38715073 -4.2212567 3.5684447 2.3406081 -1.1260397 -0.83915925 -2.181768
5135 -0.3908121 4.7407007 -1.0075247 2.0116417 -5.8609223 -5.4069533 2.844727 -0.8994516 -4.213261 4.309401 5.670626 1.113642 2.1990297 3.5579748 4.4257116 0.3516362
7588 0.8999613 -0.8353496 -4.44227 5.2404547 3.6676168 -1.3634421 -0.10564613 -0.04458149 -6.7959456 4.1952443 1.031413 2.490118 -3.6208682 -1.3971534 -0.3583116 -2.1010282
7766 -4.821346 -1.0826524 0.036464572 3.4590607 -7.656954 1.0496013 -2.779694 3.092717 -3.4116535 -0.65415406 2.6134343 1.8678 -3.13866 -6.063285 -0.7827505 0.8198893
7175 0.24803223 2.5995846 0.9478739 3.061924 -1.5657961 2.5940087 3.3256497 4.085613 3.3740094 5.0917797 2.3888447 2.709595 5.46277 2.6269002 -1.563001 -3.1400826
6726 2.7768567 2.704071 -1.324033 -1.2496755 -1.9824246 -4.152269 -6.053349 0.68002486 -1.4746636 0.9757058 0.4299239 0.43394455 2.2800741 -4.801892 1.9061253 -2.7453606
5732 3.2309053 -1.2937044 4.7196417 -2.2250743 -2.1925256 -2.7655077 -1.9969434 -3.1190615 3.7341354 -3.7400377 -2.359754 -2.046271 -3.974697 -1.9215394 0.006151591 0.3093974
8407 -2.9259531 -3.2211695 2.2007036 3.2168198 -0.063410155 2.2527761 -0.96760917 -3.957846 3.1125607 5.079985 -0.023460954 0.7705813 -5.183658 3.415321 -0.10183198 -1.995236
1114 1.2775667 -0.16111207 2.4830651 2.5151346 4.540218 2.7059624 0.3950736 1.0115613 -1.0664694 3.408214 0.630708 1.9829549 2.5347059 -1.4737207 3.1968665 1.632194
1876 3.0816557 0.0402444 -4.2601585 -1.1777946 1.7851996 0.044614974 2.6255033 1.0813625 3.9622896 2.7465892 0.5159137 5.4691863 -4.0815773 -0.058658425 -4.0648565 -2.2633822
1138 0.5804331 6.5293427 2.5320735 0.15919003 -1.6675552 -7.3030787 1.0548922 -1.1023883 -2.7546644 -4.0956173 -0.22559206 0.8249551 1.1221755 6.2573676 6.559149 3.0956066
8614 0.5277715 -2.616029 -0.27778447 3.0227911 0.3868159 -0.49239618 1.0914423 4.2581444 -1.0482749 5.7707214 3.3375833 1.5533587 3.7984688 1.448747 -2.8439476 1.5902464
5681 0.25786766 -3.4676638 -0.69583243 3.127367 1.8702255 3.8287926 -1.1271669 -2.9282808 1.1708707 0.46936864 -6.1295457 0.4756534 1.2533623 -0.07021203 -0.25452545 -2.9287329
6987 1.8803041 5.215972 -2.2485056 -2.3448524 -2.9262843 -6.120625 -3.5504286 5.3795705 2.5077786 -0.68750066 4.8266335 5.0563045 -4.2070527 3.4419165 2.4545782 3.6810858
8999 0.30398116 0.2562036 -4.536564 0.5438418 1.3408339 0.9977849 -0.9420885 -2.9661195 -3.2006106 -0.022558393 -0.8661723 7.2536955 0.7602919 0.8420575 -4.9778414 -0.57324153
1227 2.138416 2.4474885 -0.05107879 0.83690953 -3.1086988 -3.0523138 -1.3773469 3.3190868 -4.6734734 -0.9387067 0.6220358 0.19901317 -0.379334 7.393487 -3.3308535 3.9364917
2813 -5.4312997 -1.0097665 0.36699358 1.3254611 -4.0777893 -4.3006907 -0.8345908 0.56136 1.0409901 0.7806381 -1.9895631 0.9634898 4.086132 -4.3879347 0.4835482 -1.6510077
9168 -3.4533448 0.9067485 0.43717206 2.444828 3.5351365 1.2704619 -5.7170844 -5.7504096 2.6518505 1.5519081 -1.7985516 4.71234 0.17732027 -1.4545912 0.83188426 1.6150534
5200 4.3318434 1.6872591 -3.1033542 2.9614718 4.3866267 -1.2872782 1.6146597 -3.5568483 -1.7028615 4.069542 -3.0869393 2.7213979 5.1232023 5.1680355 -4.984051 -1.1627048
4463 -1.6753937 1.3144417 6.452385 6.4220123 5.7807775 -1.7827488 0.37482703 -7.492429 -1.358433 -4.007613 0.2543213 1.6000975 0.75469095 1.098701 -4.5293427 8.639248
9035 0.8072294 0.8304072 2.7102652 1.9059759 3.2691596 0.017725194 -1.1643332 -1.8891257 -4.493681 -1.3052293 -8.700369 -1.85833 -3.7986984 1.2815015 2.537645 0.8268712
3315 2.7037332 -4.622524 3.642891 -3.844957 -1.9540403 -1.9782912 2.0442755 2.9450688 -5.181844 0.23869824 -5.9590836 0.5185368 -4.1135864 0.28416687 0.29160514 -1.3120987
12304 0.63837934 -4.809139 0.46634397 3.232141 4.284605 2.789511 -1.4300112 0.4622291 1.3112876 -2.539959 -3.543033 1.1129935 1.0885813 -0.16096139 -0.8347205 -3.052918
4377 1.0372604 -2.5144567 3.9905221 -3.3227487 -3.4117126 -0.7130981 -1.0471842 2.7918472 -2.3052099 -0.7034828 -3.8864076 0.3866737 0.50216746 -1.3453397 2.0157108 -3.7309265
10644 -1.2087215 -3.3625069 0.47537705 3.364942 1.7913861 0.84946215 0.9620995 3.101944 -2.4838326 3.555903 4.122668 2.5304532 4.5024486 -0.9545388 1.8968649 4.074557
10626 -1.116272 -0.079562634 2.1388109 3.5891473 -0.0055613364 -1.651719 -3.2407222 7.9602885 -1.5721235 -1.7674307 -0.5437634 -2.73072 2.237842 -4.6768847 -1.1981534 -0.47527185
4346 2.7578595 1.0343887 -0.7704179 -0.46632516 -0.95746684 0.9693482 -6.4093485 -2.0276833 0.95307213 1.6103122 0.88862264 1.6600512 -1.321093 -6.467472 3.1143453 -3.2788157
11300 2.9859898 0.33152047 2.4805589 0.4833411 -0.07311664 1.0451124 -3.634119 0.5656812 -1.9127936 1.7855572 5.4737525 4.314863 1.6736193 9.668374 2.6867497 3.4277375
4541 1.0792962 6.833923 2.87197 -1.8858954 -3.7666903 -6.736475 0.69010353 1.5520499 -1.2666268 -0.47908673 0.33297598 0.10146961 1.8486013 6.792199 3.5581539 4.7285
11992 1.793495 0.58535635 3.2367983 1.3742299 3.7987196 1.2204647 0.37234765 1.5731595 -1.1063073 3.7595809 0.33521143 2.179014 2.6369128 -2.1671848 3.7151306 1.5817794
7784 2.024884 6.90807 1.6384722 -0.45112717 -2.7904465 -5.73813 2.2694085 2.7799907 -3.17512 -1.6678864 -1.5177534 -0.57614 3.4925406 6.9660397 4.4641247 4.694832
8774 -0.33572593 1.9122033 0.5843926 0.4613974 -7.967926 0.7919687 -3.8767903 2.0641541 1.522905 -1.3168262 3.7248616 0.33411908 2.7598794 -1.7232895 -3.4631164 2.8819885
5753 1.7758498 -3.2357693 -3.7906394 -0.6985498 -0.7062991 -4.929 2.8650198 -0.1833786 3.6206129 0.0042623533 1.1735688 2.0777233 -4.5722575 -3.474718 -4.4493766 -3.1200628
2716 2.5189862 7.7834616 0.10401533 0.40250856 -1.3092109 -5.2416396 0.1458537 -0.83001393 -3.3365173 -0.45430526 -1.9087998 0.69072396 0.43806705 9.053807 4.5862784 4.1446342
10582 2.4065194 0.03199953 -0.22667824 1.0333543 0.80012935 6.0564723 -0.5956058 -3.8633475 0.6007603 -3.056274 -5.500901 1.4017949 0.53675 -0.9933732 -0.17800681 -0.6512363
8212 -4.610188 -0.19113253 3.1207721 3.2963402 -2.5859628 -1.8983063 -5.7077036 4.2289257 1.7548816 1.7870663 2.4379714 0.33522707 3.4796755 -4.704329 0.8965715 -3.3061748
4483 0.65870523 2.7240705 1.3262012 1.3590193 0.63791025 -1.9706393 -7.3230333 -1.3988705 0.35748354 -1.0150473 -0.5557214 0.11601708 1.7521428 -3.1120193 4.0185785 -3.4776845
4255 0.4551251 0.37831238 1.7778202 -2.3193266 -0.7009644 -2.692953 -6.080891 2.592252 1.0685469 -0.9783695 -2.1811132 2.3198712 2.8403864 -2.8817499 6.6222076 -5.5480914
9005 -2.1799986 -4.1406226 -0.110132486 3.2051284 0.49706048 4.1954403 -3.9357116 -5.3107867 1.6467125 -3.5363488 -3.3417413 2.492786 -2.0557497 -3.7278807 0.5687869 -0.43864933
11675 1.774311 0.6913979 3.5191505 -1.4340464 2.6291304 -1.8851253 2.8446026 5.179928 1.9454054 -1.0363343 -2.5757303 2.418542 2.4746025 -3.009284 3.46162 -1.0908772
12831 -5.080122 0.5024921 -0.33167443 4.5756526 3.566688 -7.234287 -0.24528071 -2.2046742 0.31447747 -0.4650858 0.45910782 2.8100193 -0.90967697 3.2562685 -4.1975513 0.8130995
11532 -0.42209095 4.496916 2.5862625 4.3780346 1.4388552 -2.2817347 -7.0846243 0.17443366 2.8353553 0.8250946 2.086857 -2.3317084 1.786534 -2.6383884 3.203744 0.1928866
10494 1.0526739 4.905338 -2.4969282 0.007960376 -3.0028446 -8.337421 -1.2165066 -0.5383646 -3.4764245 0.9166643 -0.39981017 -1.6996223 -0.11460792 1.4662887 -1.7427809 3.2290034
12597 2.2995512 -1.9611651 1.0569338 -2.907681 -7.5659056 3.959495 -1.7886434 0.011721949 2.9133606 1.8077976 2.394846 2.894158 -6.6807823 0.92690206 1.8737801 0.09589911
2457 0.23519291 -0.1329498 1.9816567 2.5661783 -4.197141 -5.4655976 -6.0191402 0.7685337 -1.457958 -1.4429525 5.5699162 -1.635843 0.019476704 3.8504174 1.7700919 0.0670954
9094 -0.818397 -0.66159135 2.418523 2.3638494 1.5178093 -3.0333233 -3.9239287 5.9839926 -2.2167292 -4.6606636 -0.0027417655 -2.0131378 2.2193344 -3.3545933 -3.2437465 5.1366124
3923 1.3718101 2.4743161 7.188335 1.4963713 5.1339836 -5.889824 2.8490694 0.40501082 -2.0686524 1.955253 2.6685617 0.03434884 5.0378633 -1.7713125 -3.5929284 2.8493626
11486 -0.617349 1.8547958 1.390723 2.2587605 -3.5932472 -3.178787 -3.6962667 4.399791 -4.344325 -0.8046677 -1.9058965 -1.2402291 0.6040588 6.8393764 -5.371383 -2.7790337
786 -2.46092 -1.2096318 -1.5947913 4.417153 -2.4397788 -0.33834687 -5.442229 0.80005264 -0.41342404 -0.75643975 1.4237329 1.0741509 2.3343577 -4.7139254 3.373664 -2.1041772
8471 0.5790903 -1.3787133 1.1860855 -0.37597063 -0.673962 4.4949694 -1.1402321 0.6879245 2.1286938 -6.526803 -4.4470744 1.9442077 2.368455 -4.146657 3.0232408 2.7974212
3636 4.3238277 2.5595663 -1.7369999 3.168885 6.3212876 -2.1347804 1.4195151 -3.100179 -2.336759 4.869263 -3.0358946 2.5553527 4.7371697 6.128441 -6.361964 0.8322933
13077 0.12980624 -0.33005124 -2.6216905 1.995222 1.3865321 0.5441206 -2.2414505 -3.0043848 0.21225385 5.2558966 0.35018712 1.3991407 4.2972803 -0.06589502 -1.6449909 4.721493
5156 0.052115954 -0.16624355 0.17686535 -0.61370325 -1.1980593 6.6821475 -1.5554731 -0.30634406 0.18842891 -0.6551339 -4.76685 4.611202 -1.4786984 -0.62622994 2.5176754 -4.393835
9425 3.556359 -1.1838335 -0.2850036 -0.6044989 -2.0631402 2.9011307 -1.5604873 2.3037963 -1.5075651 1.6645075 -0.373306 0.3757909 -1.3251611 -0.597801 -2.2418973 0.9320248
368 2.400083 3.8117514 -0.65024996 1.356247 -2.359491 -4.3397202 -3.0232913 -0.9681781 -2.4301844 2.5718873 -0.9043706 -3.8430727 3.5115464 -4.148711 0.1496842 2.355386
9504 1.9577191 2.265648 0.6598765 0.847045 -2.0078244 -2.727825 -1.7870082 -5.8618145 1.0683774 -2.3994632 1.242138 0.73662984 5.3360043 -5.2438717 0.63990206 -2.0910919
6006 2.8780127 -3.6939542 -2.6431606 2.7618186 0.7377018 4.1114745 -1.183076 -3.514818 2.622811 -3.4836195 -4.1974573 -0.023379669 0.39369902 -3.0188963 0.06687244 0.29785395
5091 4.413234 -3.2397356 -3.490601 0.41878867 -1.1573818 1.9673401 -2.472866 1.6421798 1.3231112 0.31300154 -0.8395662 1.1080538 1.3641059 -0.5243254 5.742441 4.0449
7627 2.4760509 -1.7452527 -1.4477571 -3.3596694 -4.2594323 -2.358436 2.1127517 4.299095 -1.927701 3.2697895 -4.2722797 -2.019604 -1.2955502 -5.2192326 1.1876295 3.371786
2271 -0.056808602 0.6352044 -3.6914988 5.738128 -0.9721516 3.7199514 -1.2811276 0.74052274 -0.36644167 0.863376 -8.357677 -1.7714998 1.7771696 2.7602394 -1.3029106 -2.7191546
7590 -0.439095 0.029771518 -2.6722677 2.693409 2.8027983 -1.7853769 1.6311134 -2.2360616 -4.8805165 1.623425 3.1868293 6.557206 -0.425305 1.6308788 -0.74565244 0.59758323
7081 1.1160531 -2.128342 -0.25450248 -4.7106223 -3.7255614 -0.90351987 -5.348132 2.8418162 -2.299049 3.2901025 -0.29171562 2.8399253 0.9567758 -1.8150241 3.9754882 -0.32197306
8798 2.587703 -0.11939003 2.4822223 2.7663412 1.2491691 8.24124 -0.17079623 -0.18511568 1.0350085 -4.0640855 -4.5574346 -1.2304901 0.66366875 -3.3340461 2.364278 1.3925048
3884 -0.28251293 -2.2567797 -1.195518 6.17534 2.4479218 1.0866358 2.996354 -1.9510925 -6.806194 1.066791 2.4635503 3.55328 -0.3341916 1.7907528 2.9777906 1.2185736
11940 -1.9517994 -3.5712054 0.3152609 2.6280797 3.3122244 3.0765893 -2.9361389 -2.3455951 1.8302695 1.8113047 -3.4199176 2.4508288 0.49585438 -0.44410187 0.20444386 -2.2593691
1412 3.0365372 -0.20152909 2.3953753 -0.113357 -5.7374396 -2.4791799 0.09002778 1.5046484 -2.8730562 -2.5533597 4.784876 -1.4956334 -0.41781548 0.07263411 2.7632844 -3.9070728
2087 -2.0328455 -1.3442141 1.8040367 0.53183997 0.10093641 5.867615 -1.5440629 3.3393636 2.6767852 -2.73428 -6.2401114 0.5320341 -2.2730346 -1.8147029 -1.0411887 3.4688218
4861 -0.6794132 -2.1115963 4.0842085 0.23508564 0.054398376 3.7339387 -0.9882084 -1.0439038 -0.93848616 0.080051266 1.3016673 3.0554826 1.0365362 -1.1514678 0.56278694 3.847484
6331 -2.3885276 0.13895547 2.0732565 4.5810533 0.08750899 0.7709243 -4.6067224 2.6194108 -1.393587 -3.8070917 -5.187318 -2.7886875 3.5837953 -2.756155 0.47212726 -0.8181633
2774 -2.4417856 0.43958104 -0.833471 2.5147278 2.175099 -0.6813639 -1.6858559 -2.5593624 1.9502313 -1.1657413 -3.2040575 2.5137367 -2.1624677 1.5499234 0.40708286 -2.3869963
8569 -1.5238773 -0.8773743 0.78116107 3.0417714 4.4256134 1.3350012 -4.020167 -5.228131 1.727227 -1.2298365 -4.0735784 2.4197953 -1.6347687 -0.61465186 -0.7920355 -2.2669437
4808 1.1687622 -4.3825736 -1.7365084 2.6014543 -1.3891162 -2.048059 -4.9451895 -0.79413074 0.36349925 -0.43944934 2.1429973 0.49415296 3.5815637 -8.038287 0.18366393 -2.8363068
6985 2.6288347 2.2528205 5.8526745 1.673181 4.998524 -4.679654 3.8702352 1.0808787 -1.9840344 1.705331 3.1471722 0.55384463 4.2161217 -1.7109141 -4.2294464 3.073966
12355 -3.2040725 -3.025367 -1.5388211 -1.1047126 -5.187952 -0.3923523 -4.1841283 1.651441 -0.3276289 6.841612 -2.2934194 3.7464905 0.91260844 -0.4135168 3.9621732 -0.3499612
9670 3.1804214 2.1803498 1.168432 -1.148165 -3.0689793 -5.490357 -0.5447652 -0.8452802 -1.7075684 -3.591288 0.70776933 -0.58350515 0.46768132 5.718983 2.9468067 6.1798816
2720 2.5197244 -2.806171 1.4541276 0.76692635 0.3808814 2.2220273 4.879776 1.8281999 0.5001363 -2.1243572 0.7142425 4.785042 0.35161838 0.73831993 -1.3088175 -5.0945716
8372 1.4382411 4.6177306 5.479915 -0.40225205 0.6612609 0.06819252 -1.480546 3.0596375 -2.8492572 -3.0319438 0.6130697 0.9511379 -0.17175603 3.4131885 -1.4020836 -1.1652191
4338 0.5925007 -0.36967152 1.161417 1.3125865 -1.7290058 -4.3152337 -3.8341649 -2.466185 -1.0632085 0.006671703 3.1112008 0.6260408 3.2969813 -2.4379547 2.5901778 -5.057755
1027 1.8095586 -0.14254177 0.9689695 -4.2885723 -1.0324128 -3.7804248 4.34356 0.11517964 -1.7826427 -5.0031433 2.7668414 4.351079 -1.8960365 -2.2533836 1.909639 2.846572
11350 1.5898918 0.578209 5.962122 -3.167052 -0.24731049 -4.880127 -2.787109 0.88610893 -2.3509445 -2.51094 0.37394598 2.07348 0.4444184 8.2952175 2.8984656 0.1455874
585 0.6573145 0.4077627 4.819971 0.94371015 1.464425 -3.485136 4.3901873 3.8440413 -1.5819099 -3.6839612 1.0839205 1.3960215 0.23963553 2.0581293 4.6641207 2.2323523
10939 1.5477237 -3.1352007 -3.3190167 -1.3569922 -3.220395 2.8922617 0.12017326 3.48225 1.6856502 3.3636413 0.80084544 5.567516 0.52363676 -1.3928163 -3.12382 0.6152448
864 -1.2347351 -0.44585332 -0.7582728 3.0119815 3.4804811 3.665154 -0.01923539 -2.778027 1.152469 -0.24538463 -4.3189764 2.3665552 2.1650198 1.4592276 1.3076259 0.35711324
2076 -1.9369733 -1.1007589 -0.4138513 3.0064683 -0.2229864 -0.20260936 -5.2749586 1.1675806 4.430835 -1.7510858 0.2593161 1.0205214 4.2337203 -5.203513 0.37393075 0.22743525
9520 -2.6934419 -0.048372347 2.0895677 3.468324 2.385365 2.6973028 -4.45153 -4.1178794 0.8862773 1.704386 -1.2888906 2.7517283 0.030552855 2.3299282 0.35906777 -2.4677582
9015 4.517819 0.98030823 -2.571582 -0.019232852 3.650717 0.5886244 3.5257874 -1.3879085 0.45715177 2.8913763 0.52318704 3.1409717 -4.2220426 0.31363294 -0.3956298 4.9044237
7981 2.8744698 3.0423613 5.4804993 2.2014222 5.5232677 -3.9084594 4.263347 1.128694 -1.4693319 2.199938 2.9432273 0.07228807 3.5706344 -2.3174293 -3.8267417 3.0492244
10225 3.4431906 -0.72543174 -3.3078659 3.244561 -0.8195786 3.070238 -1.3177092 -3.2127879 2.6792388 -3.2267056 1.3578802 3.5381994 5.495442 0.7187319 6.3400497 0.73286086
369 2.008114 -0.17818318 6.195983 -0.78701395 -4.6552505 -3.8282702 2.4586883 -4.167138 -2.4099195 -0.17711632 1.8475003 -1.9217991 3.6769693 0.83223987 -2.048779 1.0749105
11385 -0.9788269 1.2559278 2.2405164 3.6723425 -1.3688433 -2.930386 -4.5802855 1.7467806 -5.919116 -2.0431478 -0.17570597 -1.5475959 1.6303674 4.2527432 -0.30226243 0.28498283
12476 1.2189335 3.7143915 6.74068 -1.8028718 0.4116435 -0.374865 -1.2470577 3.2419295 -1.2151139 -1.8650836 1.6399283 1.9841974 -1.9072027 3.429911 0.035031814 -2.8320012
5071 -3.236742 -0.23327039 1.7307214 3.347025 2.030298 -1.0979779 -4.0605965 3.7135272 -1.8230643 -2.454934 -5.699582 -2.1228848 0.04950832 -4.7925243 -1.4262336 -0.50686896
931 -1.2785548 -0.9417192 1.4847727 3.1808167 1.6607672 3.3565726 -2.1592114 -0.58309895 3.2688518 -3.316571 -5.3762608 0.3324316 0.4254741 0.38888794 3.0405068 -2.2372158
11527 -0.22542447 6.3823743 1.7116562 -0.6745654 -1.6978428 -3.965188 -7.652382 3.0156596 0.1660386 -0.41387993 4.102687 3.208978 0.56112677 3.1498547 4.4130783 2.5553625
4912 2.9867222 -0.09160167 1.208523 0.38751853 -2.2613912 -3.290445 -0.41794926 -2.0228095 -3.844893 -2.037508 4.684312 1.2816191 2.6048517 -5.864465 0.22966342 -5.114005
3758 3.014565 7.479669 1.3083718 0.43725115 -2.4416754 -4.5086327 0.4821674 0.5966357 -5.446835 -2.2703907 2.4383986 -0.36691543 3.466492 4.6132107 1.7987391 2.655229
2723 -2.121425 1.0143453 -0.2481007 3.4700217 -1.5621775 -4.68476 -2.6934202 0.3673757 -2.0091674 -0.29134157 5.5598035 3.160775 0.8973753 -0.11663654 -3.1247382 -5.1367083
3415 0.95422256 -0.58275497 -1.7747456 -2.1655936 -6.7484884 -3.9544802 1.541402 1.2613357 -2.6308737 5.2026267 -3.2003493 -1.54809 1.4076645 -3.7624888 -0.9040324 2.8109815
3535 2.2901757 2.4666035 6.6398473 -1.5947678 -0.03754678 -1.3292338 0.68664926 2.6738338 -1.274786 -3.5291185 2.677092 1.337698 1.0091333 4.2914867 -0.21604846 -1.4325454
12171 2.3643312 -1.9690636 0.76683533 -0.6672898 1.4452705 -1.6944568 -1.7789115 0.5274137 1.7068661 1.0586245 -1.7100403 0.96548414 0.16326752 4.067484 2.7167752 -1.8697797
10292 3.485146 -4.042806 -1.7307994 -0.24829066 -0.33301196 1.3382448 -5.325544 1.7514876 3.7082872 1.426556 -2.520803 0.24610883 -0.8366479 -1.7680501 3.171627 3.867652
8242 2.1807241 -0.23826766 0.6105522 0.36957854 3.0993063 0.0045067705 2.728245 -2.3944573 0.8590446 1.8076893 -2.936336 0.7306626 -3.533957 0.97027904 1.0362985 4.373628
1751 5.111354 -0.14529347 2.6290486 0.91015124 -2.3564765 1.1047285 -0.4591494 1.8638055 -1.7136632 -3.0602841 0.8342821 -2.5595248 -4.880222 -5.249904 -2.0455844 8.233708
9447 1.853816 2.4599533 2.8751214 -0.1777772 -2.4504735 -1.6014615 -3.2851732 -3.9337358 0.49061576 -0.8020943 4.0260315 0.7825907 -0.6924137 -2.8658352 1.3888961 -4.3422885
4883 1.8748499 -2.4246905 3.1853094 -4.092349 -5.008117 -1.6038806 -3.3915496 -4.311119 0.6528063 0.27929637 1.9721433 3.1506586 2.6033194 -3.4516141 1.1617687 -4.4161754
8990 -2.014887 1.0422386 2.3117085 3.56357 1.0429398 -1.0410271 -3.1234288 4.420399 -3.002347 -2.939103 -1.1482438 -0.6658512 0.14419878 -4.535138 0.74851 0.22032407
7987 0.9936427 -1.3243634 -3.5830042 4.803899 -6.015198 -1.7599252 -1.0273758 -1.8477005 1.211876 -3.8433962 0.9206648 -2.269313 0.46669954 -4.6502995 -3.4358048 -0.84257466
4142 3.463654 1.7911676 -1.1817405 3.4251885 -2.0037966 -2.096224 2.0821495 3.1890433 -4.7970743 -6.6475105 -2.3636084 -1.9018406 1.8844029 4.794379 -1.7885147 1.7236873
6956 1.0427544 2.3713074 4.038331 1.3816637 -1.1015434 -0.9598774 3.7571628 -1.6033394 0.94740117 0.13578059 -2.8923798 -1.7754886 -1.3578873 -0.928226 1.472264 2.2204976
4436 1.9968982 0.538358 -1.1074598 2.9203293 3.0403142 4.551656 -0.8932815 -2.1369145 1.7675755 -3.3747838 -5.610249 0.63864565 -0.1944138 -3.8074462 -0.12416401 -1.8728828
10075 2.2450297 1.7444031 -3.0625932 -0.5974918 -6.0360246 -0.19019051 -0.547907 -2.7684827 2.8871374 -1.798521 -2.1398797 0.0659384 -0.5845473 -3.675877 3.1421835 -2.3417668
4468 0.68007016 5.5706162 0.7320387 -0.8427128 1.0892179 -3.1022701 -6.6356063 1.8424197 3.6108608 -1.7062005 -0.4599212 1.3781341 1.1639305 -0.61467564 0.90671057 -1.5021245
3922 2.1594524 1.8258435 5.5681467 1.6546395 5.202077 -5.58433 3.2205973 0.9809101 -1.5932838 1.4413913 2.282842 0.13375801 3.6378648 -1.6014904 -3.882385 2.90781
4250 -2.6905775 -3.4929333 2.3694463 -0.9194747 -1.9523952 3.2176774 -2.38454 2.2895355 -0.4346841 0.50680184 -1.7136068 3.1626127 1.5129225 -7.5520434 2.8388386 -3.762273
4332 1.0532709 0.21417111 4.5403185 1.5103135 1.5335023 -3.4482586 4.5623527 3.7232742 -1.4708213 -3.199387 0.58259684 1.517013 0.31024903 1.814078 4.2642455 2.2323918
5646 4.1204557 4.128213 5.6471863 -0.6161414 -4.193637 2.3796852 1.2049601 1.8645931 0.70894307 -2.851134 0.36314917 -4.002618 -0.15062821 1.4804332 -0.054704305 1.5649041
3162 6.5262117 0.7252156 -2.6522446 0.9046243 3.3421586 3.0460684 -5.958504 3.09875 -0.78562397 1.2078848 -2.765265 -1.263092 1.3780702 -3.2922223 -1.4546161 -2.080896
7552 2.071863 -1.279626 0.44328094 -0.26184636 -5.024712 -0.57465196 -1.7322097 -2.0971248 -2.14016 -1.5806198 3.155828 0.38759297 0.93358266 -0.7359206 1.1932198 -2.7404397
2552 5.9572206 1.722127 -1.0662962 -0.6073047 4.18145 -2.0194154 0.90978205 3.8681371 1.2823076 3.1971037 4.7585893 1.683308 -3.6707683 -4.1907496 -2.554938 -1.070129
3408 0.69410527 4.702652 -0.026680691 -0.21437725 -3.368672 0.13426986 -2.6212432 -2.190656 3.0272722 1.0036016 -1.0533696 0.33227977 1.9819726 -3.3262656 3.749484 -2.4044585
2248 0.14653392 3.5864727 3.251772 -1.3773011 -2.7924678 -5.1626406 -1.3172501 1.6974336 -4.537123 1.2860774 -0.62331223 0.10759956 1.3362263 6.9741936 0.8407669 4.270346
8748 0.5853159 -1.2059762 -3.7276146 1.87321 -1.7084626 1.0457661 1.4289913 -3.0414565 -6.928624 1.048555 -0.19479258 3.5689836 0.36821008 -1.1209391 -0.6606061 -1.0678723
6535 2.4332294 2.2933214 5.006488 1.7503268 5.014025 -4.7175574 3.730426 0.856941 -1.3156602 2.7185616 3.0013075 0.41587484 4.317967 -2.3201199 -3.2388515 2.0464416
9107 -0.78531766 0.37263328 -1.5839854 4.4073267 3.0072443 0.58860767 1.5761733 -1.3679271 -6.4006248 1.6541184 1.8493224 4.7792697 2.0657282 1.3367307 -2.9177995 1.2112664
6781 0.8997561 0.07455309 -4.582757 2.021584 -0.8075357 -3.181651 0.30482554 0.45447186 2.7427938 -1.6467289 0.6151323 3.5624878 -1.134645 0.6709694 2.248766 -4.7603464
5751 -0.68984747 -0.48230365 0.35500628 1.9087018 2.9850016 2.6773887 -0.99420846 -2.2031617 1.0836283 -1.3987036 -5.2291036 2.3367689 -0.9969913 -1.2583587 -0.8539032 -1.8046863
4183 2.1977088 0.07029391 -2.006028 -1.6970253 0.6966663 -0.32782826 4.559067 0.31649274 2.0076828 4.2282376 0.80113035 3.4038274 -4.082021 -0.53084165 -5.5408874 2.4674063
7229 3.5156841 2.5597408 2.621899 -3.431793 0.2329512 -0.43545803 2.450081 -1.1175255 -2.184164 1.5006039 -3.4040842 3.240134 -3.4245884 0.35921836 -3.081437 -3.40278
8183 -1.4993395 -1.0497289 -3.368109 3.955726 2.8080604 -0.3410936 1.4078683 -3.356703 -3.4783146 1.6272345 1.2772079 6.1473675 -1.2165498 -0.45447376 0.64712036 -0.67530674
5946 -0.6106832 -0.23762628 1.7892238 1.0760487 -2.6952274 -1.6203868 -3.4582064 1.377088 -4.1396384 0.93685615 2.7976892 2.054081 1.7324753 6.6400533 2.6127343 2.1389515
6164 -2.0765274 1.8452172 -1.2029033 6.067331 -2.9964519 3.418397 -1.4812882 1.2265157 2.2710016 1.0791909 -1.3315616 -1.651653 1.4588726 -6.9274244 3.1636808 0.6241722
9753 1.519368 -0.47493225 1.6566708 0.12534377 0.9726279 -2.5999231 -2.7100759 -4.274874 -0.28781596 -1.670132 2.9732893 3.2101376 6.833165 -2.6826525 3.9734201 0.59239984
4448 2.8771396 1.8794713 5.7386723 0.59127766 3.3882842 -4.2837944 4.4383535 0.12803543 -1.6374704 2.39988 3.1157095 -0.39733452 4.5213556 -0.7842413 -4.2959523 2.330447
7347 -0.93900067 1.4091827 2.4772983 2.5405514 -1.0020055 -0.37556353 -4.3218493 5.2769356 0.33541825 -4.8585114 -2.8905056 -2.2510045 -0.52213335 -5.001873 0.06257631 -1.2813824
10760 -1.7475606 -2.3828855 5.449699 0.502096 -0.1124736 1.2404604 4.008654 -1.350243 -1.476265 -5.8199816 -0.68597734 4.0961127 2.5790615 -1.3604487 -0.021483626 4.862582
8753 1.9096009 2.2192693 4.023984 -1.1443659 0.21904013 1.1419841 -1.9204972 3.0734806 -0.1911271 -4.615316 0.89174426 3.4605098 0.90031993 3.6820023 -1.0538192 -0.8246891
5352 1.6117853 2.5826201 1.9240296 -4.182949 -4.1140084 -1.5974263 -1.3050294 1.9821682 1.0543528 -3.695441 -1.952412 1.5159357 -1.0863699 5.350883 0.6267355 5.4278216
6213 2.061003 -1.1726354 -1.9574518 -1.9599061 1.4538164 -2.0311577 1.5536233 1.3182555 3.9570231 -1.468522 0.1524721 4.191892 2.967868 2.4955115 -4.1159344 -0.21112174
1430 0.4613406 2.3118289 7.5373206 -2.2084565 -1.3387539 -4.316329 -4.031657 -1.1956892 1.7259898 -5.8551893 -3.1976135 -2.286731 -0.82488453 2.2351754 2.7165627 -0.7713882
1243 4.0980697 -4.0288506 -0.6399411 4.112332 0.39199585 5.9842353 -1.0121284 -2.5932353 3.0751956 -4.47769 -3.684597 -1.4643673 -0.61951506 0.10376525 -0.3654756 -0.5202208
12294 -1.2140918 -3.7377512 1.0609797 4.2339964 1.9996856 4.171534 -0.14917226 -2.471989 0.105852835 1.2434274 -5.984219 -1.3862002 0.2362393 -0.9314779 -0.38624772 -1.5012279
4896 2.9045827 -1.4247092 -1.9971265 2.262694 0.33723608 1.5326141 -4.8203707 -0.7147804 -2.090198 2.7173567 -1.0017295 -1.2454125 3.8137045 -0.8830633 -1.1481386 -4.048917
1596 4.1017156 1.1918963 -0.3455838 0.00021160392 -0.36711982 -0.32907683 -1.3714573 0.17617893 2.1982307 3.7045226 3.982827 0.6582684 0.5027416 2.969246 -5.539303 5.2661843
9468 -1.1793315 -4.3517804 2.2223542 1.2084821 3.7770164 1.0275328 -3.0763433 -5.012939 0.66092455 0.0653003 -5.121165 1.4677858 0.113830216 -2.0527341 1.8438609 -1.7095509
2233 0.15640472 3.6534612 0.102422245 4.7024875 2.3289475 6.526495 -1.7555679 -3.1450083 1.2980522 -0.9316245 -4.79838 1.6364228 0.33810273 -0.02083879 1.6243848 -5.125763
3264 -1.5455487 -0.34943917 -3.5408976 6.1221185 -1.4445593 -4.215686 1.1883799 1.7262496 0.10064147 -3.4028714 0.2764861 -1.169229 -3.7133882 -2.8498774 1.168523 -2.6454997
13069 4.2886553 2.7187884 -1.804175 3.083763 0.3383826 -2.3913674 3.3503025 -3.4906657 -2.6719635 -1.2918273 4.4257736 3.2115095 1.9420445 -1.1349841 -3.0382905 1.2696415
5326 1.6352772 0.77377206 4.1658688 -1.6012733 -4.051818 -3.552802 -0.12448116 3.7342455 -2.9550416 -0.835181 3.4817536 0.8404816 -1.4729533 7.797746 0.70170975 0.6288895
12077 4.707794 3.0414405 -1.7434987 2.9807491 0.26549113 -2.196942 3.8628993 -3.4944289 -3.0611713 -2.1381872 4.163902 3.706833 4.209602 -0.7837213 -5.6283584 2.6345832
782 -1.8504151 -2.8852737 2.7109766 -3.439582 0.69080573 0.6871591 -4.6135693 -2.3754845 -5.662595 2.3274257 -1.2081549 5.7853975 -0.09267438 -3.5104191 0.6763027 1.822658
7409 3.1829808 3.8641655 7.2600026 -2.157973 2.2151518 0.60835004 -0.7710812 2.1307163 -3.4247775 -3.766496 0.048292756 2.0810628 -1.8008877 3.219115 -0.1999062 -1.9906389
8378 -1.1527321 -0.77049035 1.5500127 2.7144701 0.4614454 4.6193194 -1.6407763 -2.9780664 1.9030015 -4.3396497 -3.8981597 2.1234932 -0.42647567 -0.7765502 1.728698 -3.0219529
11059 0.8478264 0.5414687 -0.5947112 -1.7324183 -1.2526846 0.3338946 3.2650707 -0.22391625 2.2773588 5.2918363 2.078312 4.50876 -1.0450532 -0.15864198 -5.5760994 -0.90121096
3048 2.1854634 1.8731413 5.907658 1.8937613 5.246673 -4.9026237 3.950032 0.40176308 -1.9218593 2.446379 2.5692873 0.74459857 4.0760546 -2.5249095 -3.3483834 1.8550797
9518 -1.1353971 -0.06908364 -0.96645206 3.7951076 2.9787962 0.42027247 -2.3031292 -3.357408 2.3015032 -1.165857 -4.3381724 0.9459481 -1.1422387 0.6334799 1.4434241 0.8128828
10592 -0.91868144 -3.7226043 2.3850555 -0.2308597 -0.24500325 4.950613 -3.5353205 2.2910817 3.618802 1.7917832 -2.5209107 0.8471376 -4.0225997 -0.70731515 1.3774765 0.8929471
8951 -1.3976955 2.6438766 2.5279896 -0.45263556 1.4202498 -2.9874313 1.3259653 -3.4875665 0.86983097 0.04692691 -5.1417685 3.368164 -1.0335776 0.8291222 -3.3953865 -0.7941349
12266 0.5168674 0.0010983715 -2.3264847 -2.198316 0.61064297 -0.42545882 -0.08707309 0.15397386 0.51959926 -0.47409773 -0.8967988 5.163145 1.4591739 0.21122742 -5.531019 -1.6352531
7979 4.0247254 -0.33305562 -5.718306 1.341412 1.3989884 -1.4106815 2.3114488 1.3005567 1.9162838 7.7446327 3.3690333 2.3875003 -2.0538955 -0.7103865 0.8282491 -0.15039982
129 2.2074988 -2.4431229 1.599538 -2.0394254 -1.3727307 3.3223765 -2.803035 0.58675224 3.733838 3.7198012 -0.6993431 2.245577 -0.118486665 -1.2250572 -4.6014056 1.2833338
5233 0.49562258 -3.088563 1.7077816 0.3381755 0.8771158 7.5030427 -0.9547263 0.64163494 3.570518 1.484143 -2.2704663 2.3935633 -3.4375362 -1.7959061 -0.056689803 1.9681957
7086 -1.4115629 2.3792913 2.396064 -0.75013685 1.5929474 -1.8120793 0.9936836 -4.060807 1.4267837 -0.19181962 -5.7223196 3.0810335 -1.0256902 0.55792373 -3.5797548 -1.3076801
10077 2.7775717 0.6776205 5.8167434 -3.7159986 -2.5183504 -3.7229707 -4.4695563 0.69686145 -3.7998965 1.3273467 -3.5314085 -2.8256454 -1.4960872 1.5017751 1.9377621 -2.2671044
410 0.17096892 3.2472813 2.43483 -1.9815106 -2.9714205 -2.4707408 -0.8086669 2.4399805 0.33829218 -2.9895465 -1.0962236 0.9666594 -0.5986507 6.179722 -0.011922721 2.666102
5159 0.93609583 2.4131415 4.2390804 1.703278 -1.3364648 -0.99856365 4.018269 -1.7059362 1.3409175 -0.28117484 -2.3918197 -1.3491861 -1.3975842 -1.277348 1.2545059 1.9220746
8752 -0.41290823 2.0055904 0.7263666 1.0873755 -5.8767676 0.7897567 -4.0467353 3.7235093 -3.4461825 1.3244659 2.0094185 -1.0039546 -1.5244381 -6.428394 -0.9262456 2.161524
7660 -3.9345517 0.9046622 -1.3593681 2.984813 2.525842 -5.2822747 -0.11300118 -1.4549001 -2.569677 1.2397023 -0.75432736 2.85986 -2.2817445 1.199655 -1.8917801 0.86069214
4555 2.5699189 -3.839779 0.41685718 0.17343727 -3.3147168 -0.6613105 -4.235466 -1.0024669 6.184023 -0.13791737 2.697051 -1.4070526 2.900296 -3.0615754 -0.79624075 3.601465
4500 3.4263377 1.7083298 0.6016484 1.2942221 5.1042547 -2.5792882 1.0227821 -2.2191772 -2.8902938 4.0328813 -2.4215872 2.5780392 5.31006 4.525517 -2.9534824 -1.6389918
8695 -1.7659798 0.46850243 -1.0306988 2.4574168 3.0256515 5.8832374 -0.4534953 -2.1655338 0.031448867 -0.45055228 -5.0784883 3.7376034 0.5796778 -3.3247612 1.1692941 -0.45063195
6871 3.683179 -3.1063704 1.3818276 -0.78559685 -0.123556525 7.200304 -2.3348024 -0.9868657 2.4013908 -0.8376233 -3.7255976 0.39924034 -1.5234593 -0.06567151 0.9791277 -4.2974844
5799 4.631721 -5.9104095 -0.56902933 0.52938044 -1.9306606 -0.44704062 0.44757366 -0.54941154 -2.474316 -2.679898 -1.9634722 -2.2382762 0.60343605 -1.5805875 1.0175941 -2.9007537
1420 -4.5664644 3.191774 -0.3860853 2.9955618 -3.8264542 -2.9049041 -0.26200914 -2.1054025 0.95848364 -1.7676159 0.31169286 1.3778797 0.10041213 -5.28641 0.11897332 -0.5878941
11521 5.506259 3.479219 3.3362892 -0.5193667 2.6575265 -1.1570114 -6.4037476 -1.7329159 -1.2686173 -0.71219665 -2.751917 -3.196556 0.47994235 -2.091666 3.88616 -3.0271184
9981 4.654116 -0.6207581 -2.64455 -1.9123033 -4.816957 -1.6195638 1.2826849 -2.6674006 -2.2318811 0.8718165 2.830226 2.2684734 -0.025866192 -5.3326516 3.6695197 -1.4259342
13044 -0.3348852 0.6172125 -0.59622145 4.25221 0.3914108 4.467815 -3.9968035 -1.6987135 3.6231089 -2.9250982 -3.064377 1.3487898 -3.6081784 2.2251704 2.2467601 -4.96585
8734 0.8358499 3.923823 5.442262 1.3962564 3.5089133 0.16083725 -3.4332902 -2.0041816 0.37908036 -2.3229468 0.4870929 0.8188475 -0.6190421 4.2828217 -1.695383 -2.1988764
9819 1.0618016 -4.253872 -0.7571767 0.35900941 1.6411045 1.0504009 -0.75134623 -2.7697504 4.5303254 -1.0161387 -4.789516 -0.2519598 0.30646393 -1.8971467 -2.8416977 -0.848571
11442 -0.4461968 -4.849046 7.031573 -2.5356226 -0.31737643 -0.2397114 -0.20184973 3.5877354 -2.7392445 0.46967953 -5.1274295 -0.041469008 0.061481707 -1.738658 1.3179237 -2.1860778
4756 0.4012041 1.8286549 -0.17885606 -1.2324126 -4.7720075 -3.041722 -4.097386 -2.9798772 -0.69235295 0.48287335 0.15449563 1.3641748 1.4565184 -2.9572282 2.0984833 -2.7965539
2331 -3.4524784 1.4252125 0.4084224 0.59239286 -3.312724 -2.4882643 -1.721983 0.24164222 2.8658953 4.7124963 -0.5517267 0.83993214 5.328038 -6.0234423 0.21304084 -0.46494073
8082 1.2937747 5.614261 1.8994724 1.4442058 -2.6182284 -6.572818 5.813925 -1.6371491 1.3964124 1.8479447 -0.9544287 -0.4692618 2.7502136 1.2288268 -0.62211 -4.017938
5892 5.5148225 -0.094660826 4.5320706 -3.585837 1.3848035 -3.542955 -4.3569894 -3.2068336 0.74520344 1.1656003 4.241926 1.0661378 -1.8676432 -0.06762438 3.574193 -3.0828028
1211 -0.123049036 2.8923435 2.0997086 2.8850207 0.11383259 -0.31199443 5.801539 -2.1096277 -0.51645803 -3.758221 1.6137061 0.26389444 2.2613437 1.0097251 -2.9471486 1.0966313
1792 -0.45893258 -1.6931651 -0.78620636 3.4647267 3.365596 2.2294552 -0.8202631 -2.1356356 -0.5048884 -1.4819605 -5.0225825 0.9638963 -1.7405156 -2.7774444 -0.46486476 -1.8419018
7441 0.38462052 -4.5886526 -1.0629587 1.8335818 1.0117476 9.671599 2.5281794 3.21893 0.6028918 -0.83571684 -3.4749572 3.9096663 -3.7847476 -2.1450841 -3.1912842 -0.9098399
9514 0.6730588 -1.4252843 0.2697132 5.637003 -2.2054005 -1.5749135 -2.3250134 -3.1323102 -0.90057606 2.1630313 2.2788322 -3.1974506 2.9497309 -2.4740753 2.7313893 -4.021131
827 0.5022579 -0.22317407 -0.49261403 3.785914 4.416845 0.689196 -2.7042587 -2.683508 2.1507769 -0.013995641 -3.2747838 -0.14528719 0.014905851 -0.20160621 0.34887788 -2.894823
1453 1.9892223 -1.6403301 -0.9040504 2.205842 2.4254632 1.6917982 -2.6698675 -3.0982928 4.268692 -0.38114646 -3.6306255 0.36063683 2.6320686 0.97158146 -0.27488458 -1.6570739
8355 2.1169486 -1.651357 0.093012236 2.519001 -3.9457047 1.3853487 -1.2371716 3.525583 0.3351011 -3.2218535 -2.2019973 -2.5297384 3.1045444 5.194884 -3.0663397 2.3363156
8503 3.0326598 2.2304819 4.227424 0.82096595 -0.45822576 3.0259247 0.0013489607 1.6917546 -3.544151 -3.6462703 3.0538323 0.89318055 -2.641604 1.5378215 -1.2106019 -1.2191616
9717 1.644653 1.5274509 -1.5019131 -1.5265055 -5.0077825 -1.9588741 -0.17151728 -3.4197237 -1.0000271 -1.8362296 -2.1055553 2.1381445 2.8625417 -3.349933 4.278991 -3.5529919
952 -0.35629413 -2.4639134 -0.719282 2.564243 1.0015752 -0.54378974 2.068665 -2.976269 -3.38078 1.13495 0.7248301 3.466499 -1.0030183 0.39417553 1.1113942 -0.84926295
10176 -0.14785907 -0.70481634 -1.1316301 -2.0619435 -6.0352626 -1.2733994 -3.1627963 2.9568565 1.2485648 1.6515027 -1.1066484 0.7135459 -0.97843784 -5.8464074 5.0010147 1.3120522
11077 0.22599147 3.8307648 1.2500919 4.859739 1.6769359 0.8446052 -3.2500117 -5.251119 2.4725437 1.1515203 -0.6916195 -0.4016465 5.3687196 0.6720468 -2.2101889 1.2887062
10506 -1.4926716 -3.6590543 3.3061364 -1.3944328 -5.0596147 -3.116387 3.5501058 0.6039136 -4.220996 0.000687008 -0.7059003 -0.5369473 -0.15770662 -1.8394245 1.1055031 3.4310846
6661 4.109494 2.3941145 -0.84147495 -1.5408715 0.23262493 1.3069385 5.395524 0.120691575 0.0638088 5.7379947 -0.8307089 0.2188764 -2.3738883 -3.82466 -4.860649 2.0859852
958 1.4581567 2.6775835 -0.6397764 7.8778024 2.9314094 0.9277384 1.0053906 3.9305677 -3.50388 -0.6695582 3.1474993 1.1557714 3.2765632 1.3959244 1.1053475 1.5955822
4241 4.1802616 -2.0487838 4.7649145 1.3644497 0.82639694 -0.16996871 5.778964 -0.56118315 -4.007043 1.3251129 -2.7846894 -1.1017259 1.3828411 -0.18679906 -0.35618353 -3.3921642
10671 -3.6236532 -0.4926881 2.3911917 0.77133536 4.288442 -0.7386703 2.0132892 -1.5070043 -0.50826997 -4.7264867 -1.9007028 6.174511 -1.107856 0.8049029 -4.584504 3.1729012
11638 2.6010587 0.37155932 0.8703401 -2.3703387 -3.5717866 -2.4199412 0.5373954 -3.2387135 -1.8866395 1.2671256 4.631049 2.7507555 1.8285596 -3.82604 1.8444076 -0.9373052
7646 3.594873 2.2490764 -0.8626821 0.6277736 -1.9406108 -1.0470132 -3.4230435 -1.4970268 1.939987 -0.7187403 5.242981 1.7818748 3.05681 -2.8360345 1.8738508 -0.7772442
8279 3.6920092 -0.01657345 1.1319195 0.14914899 -3.8554573 -1.1687325 0.13556294 0.97215515 -4.124486 -4.61968 1.9136488 -0.20956041 -1.6455326 5.9174485 -0.019394454 2.5776536
991 1.1843476 -0.5124133 -0.2039234 -1.4677451 3.5724723 -2.3383534 0.945401 -2.5905628 0.25429252 1.2521966 -2.32126 2.9656615 -2.398429 -1.7625676 -2.1957853 2.2798302
1584 -4.3598695 -2.343012 -1.2574202 -0.3713847 -3.413411 -2.1901855 -1.2458409 1.8114371 1.1601275 5.0944166 -2.6304808 3.4323874 -1.0108125 0.83813924 2.0393395 1.0292509
766 2.1623163 -1.583883 1.433652 -3.1794245 -1.6721828 -3.1580348 1.584168 3.603257 -0.27310374 3.4304047 1.8370341 0.50688195 0.4524883 0.20277782 -5.8364043 -2.142485
7838 -0.48098803 3.8964674 5.594006 1.5640976 0.080072545 -0.6417072 0.20430519 2.6755984 -5.231395 0.33998993 1.0769831 1.3565165 4.9498267 7.3588834 0.7500776 0.9755983
7526 0.49953166 -3.2027485 0.1200106 2.7301295 3.0913305 4.9028172 -0.032684974 -2.2932622 2.855889 -1.6730443 -2.9502006 1.5377506 -0.49419618 -0.94000494 -1.997696 -0.12295744
386 1.7501585 0.68424904 -3.072725 0.15538104 -5.397613 -1.791134 -1.0602428 -3.44015 -1.3085824 -0.14096773 2.107027 1.7383448 0.6120718 -2.8950953 1.5793642 -0.29177633
5370 0.711472 -3.8974109 1.0202221 3.8990152 1.941244 6.3629255 -0.8761837 0.41746137 1.5203778 -3.940882 0.07057275 1.1900002 -0.7315554 -1.9384797 0.31982335 -1.7846265
3148 1.8113945 4.864751 1.6896576 -0.013482312 -2.8707476 -3.090443 -3.2662258 1.7662683 3.2781153 -3.396969 3.2863111 0.76210177 1.202051 4.4807863 2.4243937 1.4575202
2717 1.9947726 5.0966887 5.0682244 -1.2110883 1.6246519 -0.10484091 -1.065024 1.51689 0.6221732 -4.0584774 -0.4790833 1.820312 -2.0997229 3.1133912 0.00097273086 -3.1982434
5608 -2.7737021 -1.7150093 -1.6540713 1.8043634 -0.55829877 -1.729897 -0.9126433 -2.7040274 -4.252597 -0.15584825 3.1742208 4.573038 0.1562454 -2.2451708 -0.3928248 2.0713987
7340 1.5625625 2.073073 -3.563338 1.465384 -1.7081952 -7.5039926 -0.5950391 -3.4106503 1.5369672 -0.76990837 1.2046763 1.3804601 0.48698273 2.2871492 3.94749 -3.495685
4079 -0.77744 -0.42414862 0.70297956 1.9528606 0.07436891 4.442488 0.087111734 -4.3388553 2.7981634 1.0007877 -4.217467 0.54630595 2.36178 -4.9030313 -3.245294 -0.6144166
9979 2.9320471 -1.1269749 -2.6553729 -3.7863703 -6.0696898 -4.6702785 5.0205226 1.9670087 -1.9539198 2.342063 -0.16598725 2.37272 2.1957457 -1.362548 5.029116 0.09839855
5434 -0.029756343 3.9246547 1.2120949 2.8636844 -2.2684693 -6.9348555 -2.8556235 -0.51134753 0.59646076 -4.519938 1.4215299 -3.637331 0.31179404 -0.88550115 -2.7832022 1.5866761
11291 -1.7579745 2.4811985 2.5468986 -1.1607735 1.6538477 0.42983666 -5.502573 -1.2957618 -0.3308373 1.8014063 -0.1438818 4.0773 3.9391713 -5.538648 0.4495615 1.8437667
9985 -0.16156133 -0.030990893 -0.18653767 0.26595503 -3.7692287 -4.2943583 1.1145886 0.42617252 -2.6324625 3.6648273 -0.31344473 -0.58486694 3.9192932 -4.53883 6.5279117 -1.1728262
12849 1.0570481 0.77132195 1.1719755 -2.4199226 -0.20557097 -1.6155952 1.2790494 -4.3375397 2.897475 -0.5703079 0.0043819947 4.0951214 -1.2446996 -1.4043571 -2.6535878 1.128334
3712 -0.49870163 -2.5044763 -1.0780084 3.4156516 2.4802701 3.744048 -2.033775 -2.069297 2.884503 0.5533568 -5.240372 1.472324 2.3275325 1.1866765 1.6572958 -0.671931
7514 1.0125085 1.0667742 -0.3490718 -3.6983898 -4.704503 -5.5661964 1.185541 2.1622283 -1.907234 6.5769434 -0.9010156 -0.6216956 0.9596756 -3.3609977 1.4174451 3.2890584
8411 3.8184557 -0.5736414 4.0996976 -3.1381252 -1.9893024 -1.0619185 5.001361 3.7381074 -0.44333026 0.49335435 -5.214583 -0.9509244 0.50265956 -0.7547717 1.5449214 0.48375812
5 -2.2596805 2.0760095 3.2006392 0.70344347 3.101335 -6.111383 -0.38929552 -2.5808809 1.9135429 2.664657 -2.6354537 2.0282412 -1.7118948 -0.2849188 -0.43713975 1.0670478
9096 0.09439541 -2.6856112 -1.4071035 4.4915214 1.4776595 3.88027 -2.6557178 -3.4094627 2.5780573 1.4065644 -2.2312505 -0.5991966 0.4760574 -4.00109 -1.3252294 -2.8005252
8541 0.78595966 -2.7209282 2.911224 -0.6853217 -2.1228974 5.837405 -5.1606884 -0.28608575 -1.3328624 3.1947024 2.1095092 1.611484 0.5475967 -2.299062 -5.537438 3.6187515
12358 3.486393 1.1320596 4.490863 0.2031831 -0.5973017 0.25010413 0.17368244 -4.29794 -1.6954713 -2.023764 5.556903 1.5979443 1.290064 -4.4150996 0.7756975 -2.1589782
5595 2.539445 -2.3565173 3.9702244 -1.1945794 -1.5959954 -4.0057497 -0.65241164 -1.5463495 2.3297584 -1.6928792 -0.5605563 -3.2286317 -2.8200119 -1.109327 0.7724737 0.4543671
1469 -1.3561999 -0.87884307 -1.9158204 3.0451458 1.9374248 0.29432893 0.72591156 -2.519592 -3.0848908 0.9657418 1.8701181 5.9421396 -0.31451008 -0.92434174 -0.79538643 -0.6669379
13162 1.7560077 2.2070622 5.711278 0.4031716 -0.34260562 -0.99659806 2.0454292 5.2164645 -1.1229967 -1.6553715 2.056216 -0.041362435 2.349899 7.3160696 0.12991795 0.8979082
1871 -0.8869019 2.1570947 3.337517 -1.990709 -4.148773 -6.949928 -0.023384329 0.8579134 -2.1909444 -2.721888 -1.5666581 0.49088636 -0.7504457 6.6486607 3.8702807 2.7075584
3816 2.7300007 2.8260357 8.392991 -2.8453264 0.44606346 1.0923694 -1.0156754 2.0688596 -3.133914 -2.6607976 -0.21933568 1.0019264 -1.1781399 2.838224 0.00117242 -0.5677099
2956 1.616231 2.241618 -3.7555442 1.0440993 -2.6766014 -0.68685955 -0.68898964 1.7446753 4.3973207 2.1356945 -1.35242 -0.28964466 -1.02397 -1.1741585 3.4087281 4.116106
11809 1.9372847 2.6875682 -1.7696052 -0.800856 -7.4524665 -3.2656367 3.0326216 -0.42388457 -2.5292056 1.3205938 0.7622165 0.13245085 3.1412404 -2.7608514 3.9663904 -0.21493769
3254 4.87428 3.9987476 4.965401 -3.074828 0.6311003 -4.2163982 1.2713346 0.45044312 -3.6113114 -4.4775286 -1.0396748 0.07077274 0.56114644 0.18869463 2.6967516 6.2290535
