14951 16
10734 -0.8729393 3.7947333 1.9875606 -1.7520462 -1.0163976 2.1102092 -3.6076243 -0.4637806 0.5877937 -2.3587456 -4.3430066 -2.5862505 2.506975 0.40013358 2.9471776 0.58866674
10505 -0.70609367 -0.49449745 3.589387 -0.28185654 -0.24594884 1.8764322 -2.1412714 -0.045175202 -1.7451445 0.8778913 -2.8938572 -1.3542087 2.6342201 -3.1771026 -1.4395239 -1.882552
10504 1.4914958 -0.8747893 0.8868619 0.12965046 0.8962773 1.9475518 -3.0365527 -1.3467909 -2.234836 0.057802014 -0.67876303 1.1291833 0.3462897 -2.0484843 -2.6685991 -2.748117
10883 -3.9703004 4.0157743 2.470197 -2.3038669 -5.6720304 3.0946953 -1.5917206 3.9638896 3.1490426 -0.15220097 -2.913343 -0.45368397 -4.5055594 5.128749 7.659492 -0.21389617
8949 2.4077516 -0.44858277 2.119666 1.0501858 -3.5302596 -3.7249053 10.537267 -2.1744657 2.6296449 -3.2791474 1.3257989 -0.88818544 -3.5568488 -3.2994087 -1.421672 4.5614214
4483 -0.91719913 -0.43854716 -0.62955296 2.5025697 -4.734337 1.7772111 1.046464 4.99082 5.0571594 1.0261331 -3.192112 -0.214379 -3.7545774 6.2231536 5.172792 1.2796525
8095 1.524333 -0.5085958 -0.567542 0.26838514 3.5238435 0.04378596 4.1271343 -1.8726236 -1.5364547 -1.6073086 -0.13392742 1.639226 1.5367752 -2.4545832 -1.377154 5.117978
10112 -0.3135854 -2.035989 3.216102 -6.4596376 0.56722414 0.3925289 1.5748814 4.3105125 1.4117565 3.6023378 3.3958182 -7.4976926 2.2482963 4.945949 2.1844025 1.2913258
4527 3.3844538 -1.3152188 0.66499215 1.949075 5.600042 -0.3089751 4.656281 -0.5713204 -1.8237166 -1.6962149 -0.7305702 3.4349854 1.5431049 -2.1798682 0.79058427 5.7071104
4833 -2.0323796 1.3697654 -3.2747564 -4.4778986 -0.40449777 -4.330728 5.6944013 3.3724315 -2.1048782 3.0911186 6.0822096 0.0989049 -4.500032 6.3308377 -2.1859066 -8.597821
5204 -2.0163198 1.8884029 -3.2738109 -3.8805563 -0.41241848 -4.046702 6.2121277 3.8543773 -1.6003191 3.3165748 5.6524096 -0.27355242 -4.908667 6.701569 -2.0823603 -8.746913
13352 -4.3055954 5.5380487 5.0411015 -2.1376672 -6.6018314 1.8067188 2.6235929 -3.0003936 1.6397657 -5.3769064 -3.348673 -7.5106015 -0.7634712 -6.2294855 4.3614855 0.6822497
4105 -2.7876964 1.5109798 -3.4937603 -4.2258816 -0.6529401 -4.6289105 5.790514 3.5986 -1.3872515 2.8708544 6.284012 -0.050420772 -4.9456716 6.1421638 -2.0751002 -8.833672
7827 -0.043140844 4.0169845 -4.1899605 -5.7337413 -3.4788165 1.6908387 -7.3192897 11.166655 0.55260855 -1.6389052 -2.4305074 1.1425796 -3.240258 6.9539585 -0.60623944 1.3818043
12059 -2.0914824 1.8584546 -3.2671049 -4.5685883 -0.6037173 -4.3545265 5.2491536 3.66903 -1.4404745 3.437289 6.3247876 -0.27897072 -4.216739 6.016297 -2.0147598 -8.864221
8972 -1.9339173 3.4281018 0.83846956 -2.799055 -6.5124893 2.3058155 -4.6671176 5.6717353 5.9408684 1.600245 -7.955755 -1.7263268 -3.0490298 7.03557 3.263788 -0.17273097
4591 2.5262957 -2.9984593 2.4815469 -3.5661037 1.0899699 3.037253 3.0295148 2.5905573 -1.7898139 3.048787 0.86754435 -6.7512345 -0.8318746 -0.00066989457 0.16059491 0.7007591
11867 -1.9101828 0.564379 2.6539657 -3.5056643 0.19135629 -1.1689069 -3.705733 5.7894807 -2.8872452 2.3648353 0.5974657 -0.2354465 11.162215 5.27556 -0.6139829 -1.7477509
12370 -5.6173363 5.592828 5.9383183 -5.6250978 -1.1769518 -2.8122451 2.0967987 6.1879992 5.7106023 -0.10311167 5.2477107 -3.244001 4.795135 4.117514 0.24889936 0.546834
4500 -6.1048894 0.5833509 1.7675173 -2.143516 0.84584606 3.7305174 -3.3523355 -1.7644804 -3.8293142 -4.664842 -6.369493 -4.307957 2.2918658 0.42141578 4.116027 -1.0489979
5334 -2.031688 3.9170623 -1.0949439 -5.795246 -1.5522617 -3.536415 4.3901796 4.492525 -0.717039 5.6912355 4.338589 -1.595958 0.030032797 9.161364 -0.54557806 -5.8365383
5802 -0.3403555 4.2076044 5.016637 -3.7753112 -1.4802719 -0.67859876 0.05665756 5.890637 7.022313 4.8030353 2.7786615 -1.010204 4.746053 4.174284 -2.7809882 -1.2450948
4048 0.7207648 -0.96179754 4.718621 -0.19049966 2.325407 1.335954 0.01250915 -0.6129142 8.558839 1.5656512 1.8703419 -0.51634693 1.3741473 4.3628445 5.9697 -0.04076662
9503 -4.5452747 3.6448143 0.9718322 -5.7116985 -3.9664152 -1.315851 1.4226793 6.0155063 1.6543788 2.2112136 -1.1750368 1.208891 -4.144403 9.870863 5.3084893 0.114645086
5599 5.376956 -2.3945904 0.4383931 -3.8449025 3.6047788 2.5084136 1.5951707 -0.58669275 0.761173 -0.51579255 -5.1179867 5.0121593 -8.454657 -0.29800886 7.0045905 9.771782
10094 0.54447484 -0.5082664 -2.6656492 1.6917269 1.3676782 0.40296188 -0.6837164 -0.33072385 6.758834 3.888932 1.9792075 -3.0142472 0.6173743 4.67572 5.1984453 -4.68959
11678 -1.7363352 3.6435945 4.044473 -2.8022196 -1.1559331 -2.461137 1.5755963 8.019299 0.2029767 3.2614186 2.9267232 -2.4333446 9.383355 4.851391 0.72614807 -0.6433712
12234 0.87899554 -3.4309096 -4.5093966 0.9624297 2.3225348 -1.8927413 4.3834505 -3.3730073 -1.904002 -2.22993 -0.8319582 4.431325 4.87345 -1.8496206 -0.19819582 6.445668
4079 1.7090617 -3.855158 -0.7347497 1.6730559 2.1183643 0.82092935 -1.7461683 -3.539865 3.7351546 -5.426765 -4.0563126 2.76696 -4.6840663 -1.4446634 2.8083525 4.146509
1408 1.5246068 -3.9060354 -2.255171 2.2948177 3.8793051 -1.9548975 2.6550708 -2.2164943 -2.2480547 -4.056537 1.3366446 4.463479 5.689687 -2.937134 -1.7425246 4.494842
6744 -0.47542313 1.3642255 4.294821 -2.5588717 2.3419092 -1.2667714 -2.4145896 6.356013 4.184714 2.3862462 4.0843077 1.3068634 4.6626067 6.388532 -5.103895 -3.4991841
400 1.787465 -0.72290546 -0.51281255 3.2696905 -0.90634733 4.713862 -2.17749 4.3267975 3.3262188 1.6422058 -7.6763535 -1.7170434 1.1948576 1.6855797 0.17588915 1.2317046
13631 -4.499134 3.8778462 1.2478307 -5.0450845 -3.730202 -1.0357141 1.2556486 6.0613694 1.3795073 2.2484055 -1.7627357 1.935247 -3.6277235 9.8194895 4.8422713 -0.021402417
11444 -4.9966483 3.3333695 0.1394398 -5.6343575 -4.4122715 -0.68861103 0.23483098 6.8581986 3.2561893 2.2348692 -1.8888509 1.420307 -4.620834 9.773135 6.5474863 0.7335629
6745 3.1745093 -3.7192287 4.7610445 -5.522296 -1.41827 -5.4382024 0.7408501 8.691644 -1.9484993 0.76711893 -1.302648 2.3083029 2.142215 3.5824513 -2.3882139 3.8094006
6024 -2.1716127 -0.74794513 8.392595 -4.714565 -2.3857377 -3.7647755 2.2655518 1.8617775 1.7274933 2.2984443 0.16435422 -1.4694784 6.18141 6.388634 -1.327151 -0.5579796
10319 -1.4648006 2.324655 -2.9045458 0.4151778 -1.6871572 2.497118 -0.046662416 0.9295216 1.1101588 4.8074007 -4.170004 -3.932272 0.14162683 2.578385 -0.3193023 -6.10659
8337 -1.554025 2.6840212 2.963677 -3.2601173 0.29869056 0.8829984 -3.0478091 4.705425 1.1683515 1.3519144 4.0926356 -2.590786 6.356924 9.341013 -1.3150793 -4.8950896
5639 2.0528536 3.057517 -0.8097996 1.7440315 2.0189998 3.103261 1.5600041 -4.5763354 1.747507 1.0572159 2.7590244 6.972096 -0.30188397 -0.8374964 3.3092012 -0.13695918
9606 -4.944636 3.3749433 0.1682211 -5.5105495 -3.0357237 -0.8994086 0.26124245 6.4063 2.6658213 2.5250418 -1.8469435 1.7674602 -4.3714514 9.553229 6.2179403 0.55034363
8805 -4.0320854 6.9383435 -3.7634687 -0.4321779 1.8648047 3.8679893 -3.4272542 3.3398678 1.333123 -2.8451557 -2.2984557 0.06924162 -1.5004144 0.046248473 -0.5803681 -2.4542851
4557 -5.0039253 2.754027 -0.5109979 -4.6383777 -5.3400617 -0.44656536 -0.9458285 7.195001 3.1902285 1.7650917 -1.9631149 2.73487 -5.836482 9.475292 5.2966156 -0.7382891
10123 -5.858438 3.4575887 -0.83827305 -5.046467 -5.4080667 -0.5142107 0.071558185 7.02663 4.011703 1.6762415 -2.1963103 2.163453 -4.4800324 9.50099 5.839282 0.96437436
10853 0.92231196 -0.3428935 4.374551 1.6009258 7.697266 1.0714703 4.567427 -1.2326494 -1.135691 0.4328426 -3.1029289 3.4743142 0.49688002 -3.7122476 -1.0235465 3.4317732
4485 2.0965533 0.13078374 0.014313871 1.312061 -1.4789646 4.806529 -3.6996372 4.7064013 2.240195 2.1495767 -7.855422 -1.4889466 0.5239753 1.4094118 0.0017837563 -0.14446138
13289 -3.9931345 2.090639 0.49286363 -4.605169 -3.184475 -1.9703581 0.029011566 6.2430534 3.2464726 1.4797814 -0.75750786 1.1732187 -2.680819 9.159406 5.617899 -0.37934926
5300 -5.496423 2.8599174 -0.6618509 -5.0330048 -5.4699316 -0.5870949 -0.11243652 6.6245866 3.5861366 1.9543649 -1.8188424 1.768848 -5.3124795 8.8988285 6.138015 0.11806532
5792 -2.3660526 -2.2797034 2.4891884 0.30054063 7.0595884 2.523945 1.3532215 -1.8664099 -2.3605068 0.41464323 -3.317743 0.9222791 -2.3966384 -5.2725863 -2.6323152 -1.5548266
1125 1.8392879 0.19563964 -0.6757372 1.7786311 -1.4845448 4.6055 -3.3598003 3.8601797 3.5182743 2.0158925 -7.6464105 -0.9908601 1.5878078 1.7674043 -0.13339235 0.58868283
4573 1.74497 -4.487545 -3.7681594 1.1902715 3.8030565 -1.9818171 2.7353432 -2.6407545 -1.9391795 -3.2303314 2.0031428 4.9937887 6.6242304 -1.7315891 -2.447704 5.229349
2179 0.24897146 7.7671924 1.9156655 1.596444 -3.3871603 7.2946224 -2.125623 -1.6161388 3.9832745 -1.6846017 -1.8143783 1.8823402 3.273467 -3.9753544 0.6589907 -0.4380939
10832 -1.5208006 -1.7786285 3.3618574 1.1081617 8.119298 0.24212587 4.7661657 -2.776959 -1.1294347 0.05676356 -2.9104524 1.8163542 0.6971007 -5.127197 -1.6942853 2.579406
6323 0.79152256 -2.1391282 -2.836893 2.9789438 1.3645124 -2.2219365 4.971874 -2.8988357 -2.6705863 -2.5057445 -2.0460331 3.2607143 4.2145324 -1.5232822 2.88726 4.0865006
11866 2.9122553 -0.58280724 4.4105363 -8.627449 -5.860766 -4.3074484 -1.714996 4.9685974 -0.102089 1.2586788 2.3651164 1.1965791 4.6679006 6.1222034 0.6204784 1.078654
11677 -1.9720345 -2.2571163 2.7999754 0.6741113 2.76662 0.6586129 -1.8219191 2.2446885 6.1027946 0.69182765 2.4424806 -0.321463 1.1510513 3.0745282 7.386305 -2.1677687
11808 -1.8880885 2.0917099 4.2950034 -3.0525897 -1.3456844 -1.9873381 1.6294013 5.76592 -0.26745856 2.0782385 2.719804 -3.083775 8.500256 6.1812444 1.3227435 -0.5458862
4725 -3.7864347 2.1495848 -0.0014668655 -6.8064933 -1.0330892 -1.1682264 0.705803 4.0203753 0.68029606 3.622813 -1.1850511 1.7601045 -2.5541399 8.767735 3.6378243 0.6934478
11044 -1.9461873 -2.4196956 2.3642445 0.23109649 2.7182205 1.2388319 -2.3876812 2.1050358 5.9554324 0.5877617 2.3018453 -0.56767017 1.3629326 2.9784377 6.762672 -1.6030688
5336 -2.202386 -2.6533287 2.915194 0.32890147 2.7476013 0.6330193 -1.8272521 2.1065567 5.865455 1.4432474 1.8447967 -0.3526705 1.7212555 3.0864582 7.2814107 -1.9731053
8760 -1.2262094 2.4237976 3.7715971 -5.022175 0.17043062 -2.886521 -0.7064366 4.4126363 2.1907992 0.9067832 2.8614118 -2.0774803 6.8460646 6.444742 -1.1353248 -0.8002771
11582 -3.6063626 7.900358 -0.70026964 3.2707448 0.43740436 0.51077354 4.173042 4.5958285 2.1174004 -2.8433766 -0.67126685 2.4167182 0.6510067 1.045218 -0.7638715 1.7442495
9370 -2.1444588 1.4024582 5.88337 -4.639711 -0.12778768 -4.0551295 -0.4040205 5.1082096 2.9365478 -0.5423861 5.7120347 -3.1387134 4.06632 4.9004617 -1.3454218 -2.7801507
11880 -1.1309692 0.5296451 5.4465833 -4.6236596 2.846297 -4.4267573 -0.87800235 3.7421377 2.276588 0.5530823 3.403973 -2.9383485 6.4547057 5.6539793 -2.154682 -2.1975534
6753 -3.1597652 -4.487686 2.0953078 -3.478277 5.2381 -5.051161 -2.2983537 6.639866 -0.30415344 -1.3841697 0.09544447 -4.8676124 3.2599626 7.108168 -2.9809399 -1.8132735
4724 -4.1511617 2.9723825 0.17653215 -6.803417 -1.113946 -1.5307679 -0.2631061 4.2701793 1.998133 3.2103825 -0.8957478 1.2826289 -2.1705132 8.093958 3.5980206 -0.38254616
8344 -3.1098907 -1.8777674 1.471508 0.4945906 -0.037944257 0.92130435 -3.8472567 -0.61245406 1.963257 -6.7160835 -9.11108 -2.2028456 -2.4923718 -1.6072319 1.6644008 2.2928643
5346 -1.5935336 0.17467839 3.6316402 -5.8426223 1.8830283 -4.19781 -2.4586077 2.7381222 1.925542 -0.7330788 2.4468892 -2.6189494 5.9370904 6.337695 -1.290441 -1.0703084
13146 -2.3317683 2.5522256 4.3456783 -5.4323764 1.8282633 -3.6198359 -0.65722615 3.4365578 3.8568945 0.7794741 1.5390022 -1.0021505 4.52915 5.9962063 -4.212751 -0.92412037
454 -0.9677008 1.4954678 4.1704493 -4.2252746 0.25064754 -1.8499585 -0.557572 5.0832496 1.3969917 1.0123458 3.8296907 -2.780265 6.29318 6.9898863 -0.7918639 -1.6758429
5099 -1.4248939 -3.1982024 3.5493014 0.51966166 2.191121 0.5204844 -1.431928 2.0769024 5.597721 1.113536 2.1107342 0.15855594 1.0434588 3.6774538 6.8390326 -2.0716808
9176 -0.4391192 1.3758087 3.3967268 -6.0758505 0.51610565 -4.014102 -0.9700389 4.068175 2.421955 1.666361 0.6181027 -1.2378814 4.8190417 4.3387756 -1.8364671 0.6575095
6032 -4.927811 3.36609 -1.0245681 -5.565611 -3.6433723 -1.6115406 -0.3141337 5.9542675 3.3190658 1.7064905 -1.0124782 2.056327 -4.295825 7.8523774 5.87402 0.2415832
11612 -1.4269158 -2.834464 -5.335094 1.7992024 -1.1523299 3.8580885 4.800663 -3.0526955 0.47005835 -1.7847363 -2.8001013 3.38293 -0.121942334 -3.038341 0.2291985 7.640984
8382 -1.3990213 0.99359953 4.2772584 -4.752479 1.3268002 -2.8010616 -1.6695768 3.8815525 1.589403 1.2454188 1.9546813 -2.5322244 6.564569 5.6453676 -0.843197 -1.7677803
8709 -0.40480694 -1.3739663 1.360169 1.2633276 2.5948818 -3.254016 0.67826426 -1.4174981 5.8080735 1.9586883 -1.1636904 2.1646962 0.62043905 3.618808 8.142407 -1.316973
12148 4.8407183 -4.82148 3.8048937 -0.77863497 -1.3026109 0.69793123 -6.592933 -3.6481917 -6.440964 -5.683848 -0.60321784 0.948916 0.4759626 -0.62556785 -3.1691644 -6.513699
11004 -2.08698 -2.711102 3.3177114 1.0297611 2.3838894 1.1506321 -1.5109589 1.6472839 5.6096225 0.33533922 2.4763906 -0.6734133 1.2665534 2.7232108 7.395475 -2.366253
4722 -3.2967355 3.5485265 0.41424248 -6.760546 -0.8397917 -1.0047812 -0.09183555 2.8999672 0.043339293 3.6296043 -1.765467 2.2032347 -1.4891775 8.343094 3.1960938 -0.47322083
11152 1.3935368 5.1622868 4.6789603 -3.7951066 1.0714988 -3.8817852 -1.0329573 4.6096506 -0.4379898 0.43415412 4.6720843 0.05705382 5.295735 3.804884 1.7262094 -3.0099862
492 1.4312797 4.1912193 3.414871 -3.3761535 1.0416596 -3.6045687 -0.748357 5.1192956 1.0537599 1.6302269 3.0624537 -0.22505806 4.1373987 5.412292 0.13478972 -2.7208529
7696 2.0528564 -5.9008694 1.9447329 -0.8249173 1.4863262 2.466389 3.1852329 2.5924692 -0.188747 -0.062013753 4.9694366 -3.3830822 -3.408462 -1.1176573 0.16322526 1.4242319
8971 -7.7878447 2.4036973 -1.2691494 -5.207168 -4.628562 -0.64476186 2.389815 7.7570996 2.778473 2.1865094 -2.1659644 -0.23155689 -2.8971944 8.6949 4.5701847 2.46046
1325 -3.6273808 2.7702198 -0.58240575 -4.858056 -1.8013095 -1.9703213 0.28744954 5.566384 2.8883529 1.7752621 -0.5263641 1.7017819 -4.123919 8.777798 5.240585 0.24627122
9394 -1.7062018 1.8398149 5.2270617 -5.30877 0.5734631 -1.9413978 -1.2637873 4.121854 2.8522573 1.8199385 1.4589123 -2.6906867 4.6348567 4.5440354 -3.7779639 -1.7736198
13291 1.369826 2.1713836 2.8408573 -2.6051595 -0.50616145 -3.515153 0.77126884 9.590578 1.3541881 3.221891 0.8802073 -0.89988214 4.998984 6.0186596 -1.6548864 -0.3142953
9665 -4.604566 1.8827518 -0.725161 -6.568547 -1.3364767 -1.680511 -1.0460666 4.926017 1.109999 2.0830023 -0.7755574 2.8082836 -2.6410482 7.945948 5.1939106 0.43896925
8777 -2.0214963 -3.148206 1.6143181 -0.25164106 7.2324295 1.1244328 0.9995027 -2.4112628 1.1298684 -0.48831478 -2.9781468 1.2193588 -2.5948064 -4.324748 -5.423345 -0.067730956
4397 2.0228136 8.595242 3.0677814 -6.6144123 -2.9658267 -0.42606103 -1.6866596 3.2844872 -4.3004885 -3.0357835 -1.906537 -5.3760657 2.134249 -6.1707754 3.211887 -0.7472109
9186 -1.0776833 -0.99948597 5.289029 -1.0683846 6.238593 3.6973808 2.092367 -1.8835247 -2.7356088 0.25714788 -1.2614292 1.8116186 -2.179454 -5.1790314 -3.2490227 -1.3313951
2057 -5.767092 7.474808 -1.0298784 0.52009964 0.8770611 -0.7147218 2.5413897 5.968408 0.9813868 -2.999616 -3.2248895 -1.025188 -1.7431735 0.65564317 -1.4245019 0.66129065
9049 -2.2424002 1.382805 -0.48663476 0.9777224 -4.2349143 0.1663204 0.86482364 7.911362 9.295862 1.7097001 -0.95537925 -0.86740655 -3.1375606 5.956528 2.3853533 1.146449
8601 1.1062348 0.58710766 1.5853928 -0.69927365 -1.262758 5.6606283 -3.6612642 6.6051755 0.7161599 5.529429 -7.1947107 -2.1968715 2.8776822 0.8605139 0.120723106 -0.8331341
4562 -6.169294 -1.0629014 -0.94720745 -4.28706 -1.0334873 2.3444192 -3.978278 7.108439 5.1125946 1.2442838 -0.18783559 -0.27207536 -1.0925725 8.294553 -1.3284659 -0.23086593
4712 -6.9199038 5.11571 2.527726 -2.5444512 -1.2169136 3.6890564 -2.5282764 5.545073 5.6849756 1.4750987 3.375506 3.0858424 -0.0608506 5.861569 -4.876988 -5.7590995
13595 1.1458337 0.97874486 4.3539953 -3.8880546 1.1129775 -2.7634304 -0.7023193 4.154208 2.0488174 0.013538933 3.5964835 -3.1813486 5.915313 6.901493 -1.212986 -0.88571995
4132 2.7398124 -0.06729689 -1.3227305 1.0415375 -0.028200807 5.990283 -3.5979695 4.135595 2.999333 2.8496797 -6.368523 -0.6161169 1.8121369 2.962748 -2.2771318 0.6436564
5882 -0.6742054 1.3176862 3.2621953 -3.8436186 1.6458527 -3.841812 -1.3355548 5.4173765 2.1784394 0.99518514 2.6707382 -1.6607115 5.329765 4.96336 -1.3374975 -1.6382228
8130 -2.4564764 -4.0940404 2.24341 0.49968815 6.588353 1.907064 0.5123351 -1.7844194 -1.3861384 -0.33871043 -2.2734292 1.2326035 -3.1111293 -4.9798136 -3.6412714 -2.747808
13376 -3.2614841 2.292441 0.8330704 -5.590398 -0.47431403 -2.0734715 0.6108999 4.3419714 0.6389393 2.948023 -0.6301594 2.2981355 -0.8235545 7.784418 3.6490233 0.16950841
4684 0.24423547 7.6185536 5.2721596 -0.42387348 -3.5585716 6.374509 -1.499354 -0.98326826 1.7541265 -0.7485039 -0.18911412 1.0640627 5.795813 -2.9914122 1.3164608 -2.1233866
718 3.336 -1.219374 -0.5575646 1.9639822 -0.7511189 4.560694 -3.886269 4.142366 2.0714946 1.5257678 -6.8078966 -0.9855702 0.718939 1.4728101 -1.3880945 -0.5204012
13628 -2.0068743 2.6979663 0.82757765 -5.97071 -0.9234672 -2.0417461 0.30790892 4.0322247 0.6655945 3.3059871 -0.6503691 1.5549412 -0.82445526 7.1473703 3.028783 -0.41425633
346 2.162065 -0.5448672 0.4688996 3.282542 4.5584555 0.8786837 5.5003357 -0.5664225 1.2523544 -1.150635 0.76306564 1.307045 3.2329586 0.3874394 0.75939465 4.700611
13390 3.5516932 2.8449278 5.1213045 -4.2425194 1.3289132 -4.89418 -0.89188844 5.257182 2.8078167 1.8060358 3.2334886 -2.4019132 4.1676607 4.784458 -1.1347471 -2.6204324
6322 -1.5161568 1.0929148 5.1302047 -5.3308744 2.182969 -4.167248 -1.1229169 3.5437987 2.690746 -1.0234318 3.0973463 -2.5134315 4.9878106 5.4835014 -1.209899 -0.5353096
14233 -0.33403778 -2.3242123 4.4101043 0.63104624 6.5221286 0.22991261 3.57372 -1.9905633 -0.7960321 -1.8602916 -3.849785 1.6780432 -1.0916547 -5.005933 -3.979396 2.5000584
12932 0.96536803 -0.35166258 -5.512955 -1.3135912 3.333172 -1.6358058 -1.1278733 -2.6084878 5.180958 -3.680088 4.0732822 0.4193176 2.1724317 1.4146556 0.13374425 1.20674
13404 -1.9126877 2.5208862 0.28579226 -5.882628 -0.46793914 -1.9221722 0.40665188 4.1674385 0.07333371 3.0471456 -0.18059535 1.8264402 -0.87892437 7.29616 2.897338 -0.18563178
1597 -0.19051485 0.2396277 -2.2702975 0.4159513 -2.3172984 1.7981344 -0.67570066 2.6630397 -0.076465994 4.1651464 -3.5593712 -1.7406052 -0.34815454 2.601126 -1.2281938 -4.9003153
1004 -3.1516957 -4.4164157 1.4675224 0.81501263 6.1732016 2.5235612 0.4635816 -2.8522408 -2.2269557 0.04355065 -2.726065 0.99306786 -2.9198067 -4.7954245 -2.9128764 -3.4499485
7447 -3.3794587 3.569601 1.3506058 1.7700297 0.2867486 2.7511086 -5.067793 3.6899416 0.82335377 -2.3053286 0.33958665 -2.6513052 3.3011248 7.218395 -1.74042 -8.145232
10960 0.49495816 1.4594363 -0.5255871 2.4977787 7.1170807 0.525637 2.0141351 4.015192 1.0476714 -2.3875422 2.432858 -0.58443093 1.0430212 0.41918188 4.2648597 1.5225765
8776 -1.6243422 1.088663 4.2567935 -4.3820705 -0.54352844 -5.222228 -0.93569666 5.985741 2.6637557 -1.7319189 4.085507 -3.5094154 4.1088314 4.771843 -0.71660334 -1.789309
1120 -1.8877604 1.4368263 -3.6596835 0.776477 -1.7039199 3.1164336 -0.58756316 0.40746576 1.731283 5.600338 -3.2757673 -3.2261577 0.8396482 2.048286 0.035477404 -6.526416
6097 3.0581417 -0.44507784 -0.7704629 1.5051548 -0.5625467 6.428624 -3.858692 4.4442773 1.587335 2.6805956 -5.8939176 -0.37723005 0.6795485 1.9666934 -1.1350056 -0.7153521
14425 -2.6393163 5.743655 0.64181477 -4.581173 -2.4551742 5.2110333 0.12081982 -2.8236673 -2.7368748 0.781424 2.4635978 -1.4353176 4.044532 -5.362129 2.0401714 -1.1331971
539 -1.8288854 1.1016899 2.7163208 -5.6879168 0.8409255 -3.722637 -1.9265941 3.4401858 0.4324376 -0.7322277 1.9803326 -1.3828461 4.843928 5.8004465 -1.6663094 -1.4720066
10415 -0.67797315 1.4221896 4.6309896 0.036259424 -1.6555841 -2.6816432 -2.3397195 5.161167 0.7878748 -3.5642848 -1.5278417 -7.0250597 1.5195984 4.837944 -1.0552771 -5.360813
2125 -1.3524046 -0.31344128 5.5151987 -3.7203033 1.129707 -4.348862 -1.5198168 4.9348416 4.266832 0.17592327 1.3167487 -1.9008465 5.9015136 5.9978585 -3.2643971 -1.4625305
9452 2.151345 0.529799 4.4452105 -5.262207 -1.275735 -5.9438906 0.240071 2.4375143 0.99250025 0.8001998 2.2812839 -3.040946 5.2016954 6.2033124 0.13634555 -1.8607914
7103 0.08076344 -0.21715868 -3.0457013 1.6359224 4.3898706 1.2300111 3.9915512 -1.1404449 3.2134166 -0.87714237 -2.486966 3.6385164 1.1696931 -2.0360968 0.7907168 7.8862557
11710 2.0408576 -2.1851673 -3.2227693 2.5452147 -0.81582665 -3.779011 5.347942 -3.682105 -2.1074803 -0.33257672 -2.8269446 1.7675374 1.571894 0.20490748 5.240549 0.9835438
6311 1.0678593 -0.3206358 -1.8111888 3.2808967 -0.29231966 3.256287 -2.3925297 4.5094886 7.354752 1.4615337 -4.2620273 -4.4495716 3.0067077 1.3811374 0.46185917 0.7620898
8781 0.6949412 3.0584207 4.8908124 -0.34514824 1.562708 -2.782636 -2.9847088 3.7951508 -1.6655731 -4.111522 -0.541234 -5.067077 3.6956127 5.6955967 -1.183666 -4.973195
13293 -3.2048306 -3.7386098 -1.4385953 -5.3781734 -6.1824155 -1.9916649 -1.6916292 6.5030327 1.3442339 1.1958826 -3.4605336 3.1188858 -0.76187176 9.393689 3.5061834 2.5931897
4632 0.4693304 -3.374978 4.1241665 1.1885203 0.002990738 1.2058158 0.979108 -0.95764875 6.504639 -0.68673414 3.1065855 1.5445039 0.2629333 6.4147363 4.206968 -0.48812777
1827 0.21427813 -2.8556602 2.1124675 1.6299374 0.3740209 1.9503912 -0.20673013 -0.6470159 4.629305 -0.82760054 4.657394 -1.163458 1.4112402 5.995872 4.978384 -3.0233128
9241 -2.8419888 2.6126127 -0.76368445 -5.94214 -0.124950476 -0.8522544 -0.7113277 3.518291 1.4989163 3.0566633 -0.71535796 2.6719644 -2.2443924 7.336534 3.8663392 0.23184879
7368 -3.0976837 3.1864917 0.8078186 -6.00422 -2.50541 -1.3020008 -0.081674345 4.542147 1.9576758 3.0402226 -1.668814 1.4701995 -3.0178227 6.662341 5.1845565 0.3010568
14288 -0.044884413 0.6788302 3.7364779 3.1840198 2.4263535 1.1724421 8.598067 -2.7847755 1.3047401 2.2786725 -1.8806261 4.0989594 4.346535 1.2333732 2.8516202 4.5420575
9061 0.6368057 0.08118711 5.449968 1.185106 6.3002014 1.1297531 2.6093545 0.8044733 -0.72018707 -0.85012 -2.3322191 2.1248677 -2.8409588 -3.3022873 -3.227793 -0.54843754
8772 1.3396318 2.6937935 4.559432 -0.3293376 1.0632559 -3.4910748 -4.1004696 4.095553 0.1751811 -3.8714643 -0.5069145 -5.206608 3.2024972 5.2768774 -0.9131938 -6.071892
4603 1.1247817 3.2908387 5.281722 -0.9191163 1.239574 -3.491831 -3.8186672 3.9301782 0.33898333 -3.8639042 -0.95906657 -5.3902473 3.6062512 5.6902547 -1.3266008 -5.2226996
12944 0.527764 2.9316254 -3.765229 0.90230596 5.9377375 -0.33983535 1.094663 -1.2333305 5.6286864 -4.5586934 3.5649972 -1.1851193 0.13710128 2.0158644 1.7939286 1.3952521
11261 2.5466645 -1.3315858 -1.2866998 2.6295466 -0.9663971 5.2115054 -2.0430343 4.5429263 2.8534467 1.7195228 -6.017313 -1.0584263 0.52720636 1.1248572 -1.4022812 1.1061163
4521 -2.3818843 -3.2890408 1.2608814 0.29894143 5.6133027 3.2183495 -0.5236638 -2.5282016 -2.3817883 0.25828105 -1.7159257 1.6839087 -4.1359844 -4.6123524 -2.338249 -4.4246817
924 -5.248185 1.610549 0.17704861 -6.379564 -1.3864716 -1.072737 -2.3101814 3.2878065 2.523445 3.5486295 -1.7326943 2.737269 -1.2608654 6.0324383 2.9216921 -0.9584743
3229 -0.4880398 0.012572619 4.0281544 -4.9900274 0.837272 -5.931902 -1.5255489 3.6782422 1.6573924 -0.9686843 2.234649 -3.3122406 4.4517674 4.7747326 -1.1271428 -1.9222131
13739 0.6510511 -2.3867338 -2.9692643 2.2170541 0.31004554 4.9040465 4.1092844 -2.4670973 -0.30853477 -1.2823752 -1.7543561 2.7789764 -0.17727016 -4.5778203 -1.6502162 6.337609
8851 3.4191184 -1.636795 2.845894 -5.0169706 -4.1153464 -2.739665 -1.9101696 3.6370149 1.7247454 -1.5264816 -0.9667202 -3.2116213 4.697321 8.19894 1.7623346 2.9840534
9191 -1.7629601 1.24794 3.505183 -5.083494 0.89426327 -4.4246554 -1.0413883 3.4148965 2.4053502 -0.6820069 1.5941589 -2.6407084 4.52093 6.5153975 -2.0450418 -1.2608056
12464 -6.104985 3.2749484 1.3364458 -4.105532 -5.229581 2.2153738 -2.1897597 7.993114 -2.5173213 -3.9630523 -2.902205 0.5072083 0.011697385 2.5250978 0.8564327 2.822153
13802 -2.1001735 2.4659972 0.43300036 -5.697496 -0.11261831 -1.9894696 0.018110726 4.2230606 0.5595912 3.09833 -0.026361369 0.9192435 0.1539558 7.434054 2.852663 -0.5987107
4555 1.5304291 -0.2851526 -1.0587732 1.5010666 -1.6693189 4.0577836 -2.3716624 4.711166 3.6897545 2.1641023 -6.618891 -2.2251575 1.2617589 0.68177825 -0.8535679 0.59102297
10876 -5.838549 1.9496676 0.13285668 -5.635111 -0.67551225 -0.7524732 -1.2299103 3.2891822 2.1014838 3.1932497 -2.0470884 2.5707011 -1.4684643 6.093627 4.074643 -0.079265945
5005 -6.9776816 -2.1998885 -1.3841459 -5.609633 -2.0627172 -1.1025667 -1.4172443 5.3053546 2.3180115 1.6887119 -1.4988719 2.8797958 -3.587552 8.998752 4.0819497 0.72956896
9406 0.2606588 1.4385889 -1.7348844 0.25061402 -1.965811 1.8107407 -2.9784937 6.060454 4.8284426 2.1330671 -0.06538834 2.785592 -3.7833798 7.2511816 3.8609433 -1.8097949
12970 0.55055493 0.31708115 -7.299838 -1.6769404 3.3066492 -1.5187216 -1.0692179 -1.5883693 4.8719172 -2.892514 4.601552 0.35177585 2.7329516 1.7016972 -0.2927344 0.93323374
1598 1.4282153 0.42977756 -0.2881388 2.3651102 5.349781 1.1413908 4.5738482 2.34511 -0.9438901 -0.15179716 1.5998609 2.4850824 0.3578785 -2.1388729 -0.6935147 3.2494974
6400 -2.8234413 2.9326499 -0.848399 -5.885601 -0.09738466 -0.4494548 -0.9062346 3.696199 1.2387962 3.404586 -0.25867337 2.0135858 -1.8593016 7.02069 3.8596687 -0.54902416
9257 0.9149709 -0.6649069 -3.2712858 0.32079712 -3.0890532 -2.5647614 -0.7013654 1.1520618 3.037948 4.31984 0.43189448 -4.4682145 2.1753395 -1.5169104 0.60541385 -6.490373
6782 -1.1361678 -0.55156 2.7930543 -3.1547122 -1.0360833 -8.057074 1.0846428 5.075636 3.7613585 -0.5127651 -0.8702587 -3.7956786 4.8567967 3.416049 -0.9855671 0.87775797
4677 1.4898324 -2.5078597 0.5803008 -0.63905567 3.0050328 -0.7078913 -2.2764509 1.4670992 7.5969586 0.9019464 0.94756037 0.9586558 -0.52730346 2.4114144 4.845845 0.35086516
12331 0.20560339 2.6901784 -3.4461632 0.31460196 5.7174044 0.18835145 0.8357767 -2.0138986 5.5514245 -4.6208863 4.4226084 -2.0360632 1.0717157 0.619705 0.33326522 0.9515123
10117 -1.6018324 -0.0210777 4.1894646 -6.009858 -0.020928921 -5.132415 -1.3483951 3.8964527 2.5849833 -0.37484494 0.2085671 -2.4839482 4.0822716 5.837859 -3.0477748 -0.48762184
4617 1.6180384 2.8467324 5.441222 -0.8803854 1.1651672 -3.5325058 -3.97474 3.8987546 -0.6149825 -4.4909573 -1.1000019 -5.7122407 2.4242795 4.9791055 -0.7813349 -5.6525583
9557 -3.2667732 2.5385063 -0.08531827 -5.5895452 0.29488644 0.22795732 -1.5895605 3.9375813 0.86827046 2.7344792 -0.5178557 2.2445872 -1.2952251 7.6859813 4.761955 -0.24266507
13753 -2.7112844 -4.274262 0.6170831 1.5428996 5.8795633 3.0239227 0.10143204 -2.5070393 -1.3963298 0.5062197 -2.3706942 1.0185086 -3.6762033 -4.749733 -2.986959 -4.397274
13854 -1.9947141 1.7521025 0.15491772 -5.993006 0.08175526 -0.79309726 -1.0244162 4.026053 0.07756201 3.3001153 0.028143894 1.3670901 -0.787857 6.7838783 2.9566247 -0.5423038
6466 2.25761 -2.8289974 3.432327 1.5393562 -0.16051516 0.77527183 2.9758883 -2.5954766 7.0093317 2.1628807 2.3960059 -0.21386409 1.1877868 6.488894 4.711187 -1.046521
2028 -5.097727 2.4010167 -1.6303742 -4.7893815 -2.6791377 -0.48539862 -0.63276213 5.0485854 2.6698787 3.4256048 -1.4156383 3.114351 -3.557227 7.230176 5.095425 -0.25523448
462 3.687572 0.62763655 -1.116919 0.008736857 5.7783012 2.962387 -7.1078534 -2.6301703 -3.9283826 -6.01322 -0.49592122 -2.3321345 6.9660015 -3.111271 -5.2694025 -2.1150842
12246 -0.7305933 -2.2222776 4.6470675 0.5229666 6.4107666 -1.7697077 3.218236 -0.34933388 -1.8117173 -0.8901733 -2.7995543 1.9855568 -1.171527 -3.4684625 -3.6300747 -0.46938592
12952 0.3988012 -1.2185519 -7.369257 -1.3638046 3.762036 -0.39035222 -0.9297337 -2.2292724 5.352367 -1.7249383 2.9239898 -1.2681637 2.4977846 0.86060685 0.7516012 1.6981467
9239 2.5509827 1.2250937 4.078686 -5.9686737 -2.442543 -2.744921 -1.6245053 4.077053 0.4283177 0.27432868 1.5344956 -1.2726672 5.566868 6.5727606 0.9565015 0.4723266
4734 -0.2183779 0.3668926 3.8673635 1.5366331 -1.5087535 -3.2190628 -3.242418 4.9073715 -0.76914316 -5.354268 -1.6694185 -4.853177 5.0221515 5.9961834 -1.1161295 -4.4558973
753 0.2407386 -0.12832463 4.3436303 0.36771756 7.564314 1.2062778 3.635587 -0.16906768 -1.9548696 -0.2700056 -3.238297 1.2213362 -0.48513818 -5.2140846 -2.6118314 1.7777821
1546 -6.299898 2.779979 -1.0734793 -4.856403 -3.499673 -0.5253763 0.008736453 5.976178 2.3755493 1.9370415 -1.28318 2.6143355 -5.0173264 8.465104 6.361101 -0.014272791
12871 0.96660095 -0.40600565 -1.7349657 -1.2618858 6.368602 2.3511717 3.773149 -6.224366 -1.5417881 -3.779875 1.5560993 2.3312912 0.9491897 1.3484682 -3.6930192 4.9343104
8610 -5.835548 1.0480782 -0.27130452 -0.31326684 0.011654803 3.81377 -3.9443715 0.94549596 1.1959763 -5.4901805 -7.5456905 -1.3111974 -0.13652548 0.3014828 2.2939312 2.481626
6310 -3.5631702 3.2110379 0.5217099 -6.1845984 -0.80576664 -1.1128708 -0.9520561 3.291674 1.8891886 2.6151502 -1.0990478 1.8096018 -2.3755805 6.311047 4.52548 -0.4901664
14793 4.071288 0.64815724 1.9744469 1.1882554 4.6032457 -2.4441185 2.3700602 -1.7686372 -3.1262722 -1.842621 -3.951352 4.3732195 -1.8198353 -0.5446913 -0.85411024 0.9362351
6099 -2.96185 -2.9684727 1.8275094 1.6512324 5.34723 3.14585 1.676224 -2.031552 -2.108897 0.5877811 -2.2484891 0.6798446 -2.5184467 -5.684224 -2.1176708 -2.971636
7908 1.8775302 0.5479049 -2.8372633 0.80187577 0.04166468 4.810886 -3.1815596 3.9302304 4.3220983 2.7692425 -5.89212 -2.6151683 0.18076009 1.4254705 -2.2351272 -0.32946053
10195 3.785191 2.2827725 -0.99148387 -3.543088 3.1397455 4.004545 -6.2833853 -1.4736621 -2.8406153 -6.84328 -2.8502703 -1.7634428 5.56226 2.1054904 -3.808649 1.8810395
6364 2.215307 -3.3807938 5.2621536 -5.1858006 -1.428328 -3.7125642 -0.8106091 2.6981134 -1.7980183 -1.3290433 5.881367 1.6902112 4.3259726 5.8135867 1.0879673 -0.100647986
1750 -2.7533567 2.1253457 -0.82051146 -6.3413024 0.3497183 -1.0625666 -1.1080474 3.3746302 0.56376004 3.3417404 -0.1811154 2.7457037 -1.300451 6.872549 3.354228 -0.26012197
13803 -0.26500893 2.5598712 0.8299918 -5.9419312 -0.123224564 -1.8382483 -0.119636215 4.198173 0.15010113 3.50973 0.17604952 0.4250432 0.7698596 6.314527 2.1207454 -0.45707187
948 -0.6518614 -0.79208434 0.20600347 1.9642197 3.6330667 -0.14944421 5.996408 -1.380944 -0.5089812 -0.5080527 -4.514964 3.991281 3.9031787 -2.5732505 4.097548 7.5984306
10286 -1.7477546 3.7539418 -2.032273 -4.1910305 -0.51982635 1.489837 -0.9597462 0.7267977 4.167957 -1.7931198 2.463361 -0.71369416 6.3237224 7.1555037 0.79409444 4.324865
12235 -1.4205573 -3.0663524 2.6409817 0.35786554 1.7461872 1.1003362 -1.4714613 1.0509076 5.4748154 0.40388227 3.063567 -0.09113894 1.0993853 3.888791 6.161435 -1.9680365
1296 0.30969185 -4.0597563 2.5023038 -0.7713781 6.7450585 -0.95774966 3.2479248 -5.131804 3.7486095 0.17961976 -1.4292922 1.8523738 0.95940816 -6.2698183 -5.611781 3.1050298
5502 -2.3687093 2.7027564 0.43692714 -6.1073627 -0.4509595 -1.1162581 0.02842774 3.797825 1.2472304 3.4739003 -0.19980389 1.6401625 -1.5712504 6.4202957 4.205086 -0.07579694
9922 -5.040191 2.666334 -1.1475196 -5.506511 -3.20357 -2.1283588 0.062319573 5.459211 2.4205275 2.0152946 -1.2055384 2.1955814 -3.8871999 6.963321 5.5769362 0.46670648
2314 -3.4577641 1.4064641 3.2534256 -4.1191497 -0.5759342 -4.338228 -0.5479344 3.4205418 2.7898846 -1.351527 2.3161068 -1.4989023 5.029564 7.414522 -2.4600775 -2.1665456
14761 -3.3865738 1.8118062 -1.0380553 -5.8602805 -1.4965334 -1.4730119 -0.21024938 3.8719366 1.2854933 3.3046737 -0.70806503 3.392422 -1.9999713 7.2451854 4.4526815 0.436016
8832 -4.3623614 0.2693378 -1.0416404 -0.83360213 0.24604855 2.241531 -5.9657893 0.40932631 1.2715006 -5.056071 -7.738397 -2.6168284 -0.7745746 0.2255818 2.320795 0.03766475
6047 -1.6130528 2.297133 -3.02935 -0.54842585 2.1811693 1.9513029 0.040019102 2.91465 4.085911 -0.6560597 -3.0728893 5.324743 -0.5778704 -2.0537682 2.4615383 7.481279
10190 -0.22075209 2.4350634 3.7469509 1.1149875 -0.014104244 -1.4104619 -3.1190643 3.8805037 -0.1792395 -5.222595 -1.8797747 -4.942451 3.0655115 5.246131 -0.7917118 -3.9007323
5664 -0.12292957 2.3052087 5.315004 0.74142534 -0.8931535 -4.261833 -1.908567 3.9199972 0.30751824 -5.090117 -2.1381092 -5.938458 3.209548 3.9090312 0.16520801 -4.2294407
9883 0.64969003 -0.1196882 2.0641415 -5.0042233 -1.5545405 -3.9485204 -1.3404446 3.9109 -1.21455 -3.1037776 3.6406364 -0.041116145 4.2465835 8.171846 0.8815743 -0.044067897
9220 -3.8240387 4.2288322 -1.06768 -4.485186 -5.846636 -1.6576962 0.3246588 6.498523 4.400252 1.2717391 -2.335485 1.4805051 -5.72348 7.528768 6.085337 0.3343742
5845 1.158332 2.7811463 5.0525093 1.5088108 0.13679919 -3.305745 -2.4121523 3.8583443 -0.25175396 -4.622705 -2.306455 -5.4641848 4.452627 5.243888 -0.62146777 -4.4871445
12934 2.0286744 1.5733399 -3.7542021 -1.5301149 1.7902858 0.33925772 -0.40432462 -2.8211522 8.785006 -1.788155 4.1352463 -1.2785016 -1.3946042 2.6458383 0.5135616 -0.4648371
6087 -0.21737272 -2.4368432 0.95598143 -6.0225887 -5.135839 1.4063123 -0.5896972 6.9679823 -0.4478252 0.9320566 0.111773044 -7.6291475 -5.5651145 2.6179745 2.8703206 -1.7472942
8843 0.7076716 1.1328901 5.478025 0.44891778 -0.39383593 -4.033094 -2.801458 3.7961893 -0.9609249 -5.0836124 -2.1152186 -6.0196013 4.240344 4.2307916 -1.1560365 -4.34092
632 -1.0497632 1.9302046 3.657017 1.2501359 0.32865718 -0.77967423 -2.9435887 4.342729 -1.5602736 -4.646473 -1.3814378 -4.546881 3.0023699 5.760185 -0.6773878 -4.7445803
13804 -1.4666727 3.3833656 0.26896322 -5.471565 0.5134162 -1.6898385 0.27816796 3.5055256 0.48347643 2.9367118 0.17225312 0.15430376 -0.028909842 6.657998 2.6541874 -0.72720003
12945 4.788717 3.0487993 -4.036596 -1.095103 6.256864 0.9804681 -1.5467714 -0.8004487 4.736927 -2.0783913 2.692589 -0.5296047 -1.7732326 -1.5410385 3.0814812 1.5225143
9062 -4.2331424 2.2949042 -0.59549093 -5.774769 -0.90478176 -0.9843192 -0.18082042 4.203363 1.8016925 3.5120354 -0.61392653 1.4484032 -1.1755078 6.531582 3.9666646 -0.19275057
3182 -1.0694181 -1.9814818 0.9950575 2.39364 2.6758232 -3.7684314 0.19610474 -0.9217836 3.3459392 1.962713 -3.1269531 2.5443492 0.29789484 1.4763284 9.00225 -2.7018242
9948 -3.7935634 2.7732363 -1.923111 -5.1962776 -2.5300846 -1.7772945 -0.4526712 4.008683 2.3394182 2.7939742 -0.18504956 3.4195158 -2.2797494 7.0593886 3.8433137 -0.64477736
2239 -4.080771 -2.5772078 1.1867168 -0.5040526 -3.4796813 4.3534675 0.612066 6.660717 1.0153742 1.6032197 -2.0325086 -5.602359 -3.5619385 2.2326257 0.7660364 -1.3688709
13629 -6.084119 1.1370502 0.14029999 -5.551594 0.03274278 -1.4276551 -0.8234633 3.0958827 2.754665 3.5209663 -2.11874 1.9441772 -0.0697075 5.183211 2.5362363 0.11676923
7049 0.58344537 -2.2988913 -6.6595445 -0.7464872 3.3894398 -0.78468364 -0.45363674 -0.05632852 4.1523137 -1.7282661 4.209882 -0.6765218 3.9893785 2.0178194 -0.027462067 1.9490954
10368 -0.52816504 -2.0657673 1.881714 1.4451036 2.9281154 0.38847515 -0.20872396 -3.831008 4.5443397 -1.7616676 2.905524 0.9584672 -0.17462768 0.77300614 1.410616 -2.1801164
12942 5.1002517 3.0439003 -3.2977297 -2.0352793 5.8419137 -0.47607175 -1.5239923 1.0423805 5.5791616 -1.5201092 3.2362595 0.15130508 -1.9075067 -1.7137384 1.5471567 1.7702911
1008 -7.920831 0.543648 -0.33496606 -2.6522102 -3.1792028 2.963162 0.30513787 7.6640835 0.91079277 1.6401603 -0.9191989 0.8690438 -2.3418167 9.252211 5.3494697 0.097881176
12478 0.2236792 -1.1317816 -3.552545 -4.143598 2.5742247 -4.2400627 -2.889706 5.853268 -3.5527139 -1.12244 -1.6202374 3.275669 -2.7518675 2.9601195 -2.1801798 -0.41657186
2128 1.5325378 0.8295927 -0.73851764 2.075995 0.22748323 6.191522 -3.5474207 3.9742928 3.0322683 3.0114706 -5.7601566 -0.7905654 2.0405238 1.7134675 -1.7199175 -1.5551546
1075 0.45049608 -1.5559032 -6.8264327 -0.4016572 3.553365 -1.444515 -1.100113 -0.34927416 5.2725286 -2.5153744 3.4531446 -0.21689512 2.3169098 1.9738384 0.008353665 1.2602762
13817 -1.5592266 2.83721 -0.034746062 -5.706167 0.0144337 -1.6414915 0.27651232 3.200615 1.1756117 3.3370044 -0.02346526 -0.2304991 0.5390342 6.3565235 1.9392494 -0.31856042
12359 3.9600327 0.04229592 -0.84423286 -2.6910696 4.1677876 2.921342 -6.730326 -2.6846762 -5.1707745 -8.131538 0.6880834 -0.63497645 7.169048 -0.29957655 -4.422491 0.84056073
9896 -0.013321216 2.4903424 4.5326896 4.76292 2.0516386 -0.85890234 -2.0245218 3.7984235 -0.27407947 -6.8583174 -1.2683346 -4.758531 0.814153 2.0770056 -0.64641756 -5.7723174
9443 -3.775113 -1.3823515 0.4415691 -2.848596 -0.865683 3.9349546 0.8408905 4.9767995 -0.6472387 3.8891468 1.4675394 -6.039999 1.3592979 3.4449098 0.9991052 -1.8072103
12953 -0.12542982 -0.90319365 -7.1710453 -0.05876831 3.2130742 -1.5287132 -0.06954901 -2.2390308 4.8916483 -1.3399029 2.7870355 0.95347744 2.5609531 0.61783206 0.25987136 1.1094549
8865 0.7314501 2.7947495 -0.49509054 -7.87595 -0.9486609 -0.6391292 -1.9565722 2.4520864 0.2538012 0.8832016 0.68809175 -0.8764886 4.9406247 6.97425 -1.1747397 1.904417
1745 2.0377548 -5.0289006 1.8889838 2.466547 -0.5942793 2.661765 2.5687363 -3.4115467 5.7044134 3.6085303 1.613869 1.754408 1.3651496 4.961214 4.256507 -0.81339955
8370 4.029944 -2.7488344 2.866024 -3.7154946 -1.0136863 3.0523343 -10.025912 -2.1438584 -5.611736 -6.0913815 -1.0705981 1.1365416 1.5071895 2.856512 -1.766407 -5.406605
4608 -0.94476354 1.5942593 1.7004751 -5.321316 -1.8814753 -6.1568584 0.52761436 4.4453564 0.5604934 -2.340112 2.0741503 -3.987081 3.1329336 4.86017 0.01212166 -0.254385
1405 -2.6789103 4.407597 -0.31908932 -5.5204134 -4.8716273 -1.6299822 -0.2756574 4.725074 3.7050936 1.3927047 -1.9477129 1.9603201 -6.7289357 6.6902847 7.4910502 -0.089742005
11015 -1.1117517 2.13134 0.43275943 -5.7760167 0.7538348 -0.30015165 -0.59758615 3.389889 0.39470443 3.5180705 0.58332866 0.46560737 -0.07039198 5.5838885 2.2013457 -0.4815899
13147 -0.79934704 2.6766894 4.524921 1.493643 -0.24164088 -2.9846742 -3.2236683 4.5226765 -0.36807215 -5.6578336 -2.57509 -5.6043854 4.740936 3.6506047 -0.7073945 -4.2390776
2843 -1.2322698 -3.790949 4.4082193 1.1420333 1.5658602 0.9291276 -0.07494226 1.0632446 5.089412 0.851583 2.729166 1.0540036 1.54323 3.6244156 5.801374 -1.777161
9011 1.9581343 0.2271683 -0.06795846 0.65881336 -0.8801637 4.0673637 -4.0625143 3.489175 4.2408886 0.9440568 -7.43994 -1.3244101 1.7102401 0.82179326 -0.980648 1.3275337
7069 -4.088038 4.5012894 0.6623966 -2.5839765 -5.4567766 0.23303811 3.1326327 7.037344 3.457657 0.953129 -1.578619 0.5441191 -5.411234 8.319479 5.9217143 0.4284424
4645 1.019926 -2.777459 -3.3865066 1.7915537 2.1551907 -1.9857291 5.2810793 -3.2660139 -2.6921873 -1.6581167 -0.42446825 2.4100416 6.40813 -0.09391633 2.3094563 4.6710534
13754 -2.2759526 -5.3289065 0.5471116 1.0990553 6.244836 1.0470737 -0.003945828 -1.2923466 -0.5559733 0.42805302 -2.5038102 1.0085844 -3.090293 -4.2234316 -3.7481565 -3.4654973
9409 -2.2484741 1.0866604 4.109273 -4.667805 0.3904328 -3.7000268 -1.9965963 3.9825041 3.0699766 -1.168844 0.88862 -1.9062109 4.9762297 5.7470827 -3.0532382 -1.5069224
9853 -2.4863122 4.821177 1.032203 -3.358815 -1.2310264 3.7032247 -1.7240958 6.4192348 -0.4832159 0.33974126 -0.8221757 2.0237834 -5.2957954 7.95636 6.3437686 -1.3607345
4676 -5.763139 1.977706 -0.48795125 -2.0289207 -1.3468904 3.3439238 -2.5164855 6.406282 4.619015 4.3181114 -0.9850604 3.1320279 -3.334307 6.6815667 -2.2317035 -3.9887204
9515 -1.9271119 0.90318966 5.292098 -3.3732882 1.145055 -4.8246665 -0.9808614 3.8135374 3.1513393 -0.28755382 1.1538336 -2.5878139 5.437892 4.6052322 -2.7933624 -2.6396916
2255 2.5809896 1.96361 5.2594066 -3.6819837 1.9059201 -5.259076 -1.4098073 4.041958 1.0776982 -0.4060362 1.7662065 -2.384954 2.920816 4.594765 -1.0255584 -3.153201
2364 -7.551227 0.10067776 -0.25285462 -3.0764194 -2.4899817 3.9418147 0.9346714 7.158451 -0.96877456 1.2148144 0.6641384 -0.3853281 -1.6675234 9.751161 5.0005946 -0.055528153
4610 2.3491724 0.082776174 -2.4511847 -0.20711468 4.592865 3.1597087 1.5744892 -4.323903 -0.65397835 -4.195037 -0.6157961 2.8395765 -2.3534646 4.8096466 -3.0471847 3.3197005
11006 -5.9527345 1.215893 0.38877168 -5.7251787 0.15314929 -0.99905115 -1.1189604 2.8254077 2.521077 3.21681 -1.3829919 2.105238 -0.9847626 5.7396927 2.526848 -0.5953006
11047 -5.477234 0.09332647 1.8648617 -5.130571 -4.593836 0.9352963 0.261001 4.8438725 0.6063518 2.7676666 -1.817579 3.019656 -2.4444585 6.7708306 6.2517066 1.2576861
2064 2.7881672 2.0034356 5.3493667 -3.8121386 0.5805001 -4.4655023 -0.5853617 3.8337212 0.9522955 -1.2641864 2.150568 -2.4099622 2.1248899 5.732856 0.38602376 -2.1641111
11126 -3.5158947 3.175669 -1.2929343 -4.5263906 -5.3790402 -1.2078449 0.95101875 6.343992 4.3813486 3.1887546 -1.0869405 0.6237569 -4.424347 6.0573983 4.1147795 0.04717136
13414 -0.7385061 3.0924342 0.48732355 -5.340075 1.0501394 -0.93643934 -0.44578314 3.2305887 -0.5108787 2.8078132 0.46420166 0.22758862 1.3439738 6.2316093 1.394447 -0.96338636
9950 -1.8329785 2.2177353 0.3348473 -5.851388 0.38801017 -0.6661601 0.41959128 3.27615 0.5156846 3.6330767 0.21885486 1.1980499 0.40843305 7.1537943 2.7306523 0.27575535
13884 0.21915898 -2.2912197 -0.16801335 2.1371875 1.8369136 0.5345409 -1.191695 -0.69792974 4.01161 -0.7014915 3.1444852 -1.072534 0.7177115 4.8473663 5.0208035 -3.7250786
9836 -2.937965 2.851948 0.25079814 -5.4862037 0.15233663 -0.5847106 0.64238197 2.727756 0.26237503 3.743456 -1.1989769 3.6654186 -1.3270298 6.5487914 1.8169733 0.0628115
8496 -4.9102263 0.36515954 0.44351268 -1.4536344 2.7971616 0.81079406 -3.721053 0.12054447 -0.8633763 -6.709258 -5.8149157 -2.401124 -0.04616133 -0.7300265 2.4662251 1.8882798
2017 0.7798042 0.4685999 -0.47612226 0.34368816 -2.7719586 3.3099024 -1.8093433 1.8534031 -0.3402704 2.9171016 -6.2163982 -1.3386756 1.2962149 0.14606915 0.16732383 -2.3110666
11704 7.6638184 -2.0404541 -0.745868 2.354142 3.7573156 0.19639647 3.6574202 1.9649831 -4.22183 -2.0393975 -2.1480784 -4.420661 -0.5302023 0.54124534 5.4851 1.4906797
2349 -0.6669996 -1.937943 2.3912096 0.108104676 2.3151803 0.030723818 -1.1420951 0.96837866 5.457126 1.205796 2.72301 0.10435125 1.6195865 3.4332 5.9634404 -1.9625883
12949 1.5518016 1.0539134 -4.606562 -1.9645865 2.3872983 -0.45214716 -1.0899763 -2.8796952 7.2769117 -2.8268092 5.4950595 -0.5898941 -1.275138 2.4112031 0.19994952 -1.0723472
9399 3.1111925 -4.7469735 1.9007862 1.7997779 -2.3681023 3.0908458 2.3417895 -3.890627 4.470948 2.5192897 1.5545698 1.7645724 1.2986003 7.1896586 3.9793584 -0.8700915
9509 0.99844044 -2.2914 5.0197387 -3.5021286 -2.9546292 -3.3883243 -1.777655 4.6023326 -1.6274898 -2.3171964 4.505578 -0.7078295 3.5838492 5.588178 0.730321 -2.0041208
13807 -1.4150311 2.8502433 0.25936726 -5.1176114 0.72131443 -1.8814722 -0.100967504 3.7404795 0.49762794 1.9111547 0.906557 0.43429846 1.7041801 6.180186 0.88431305 -0.22160757
646 -3.0262392 -1.7540483 3.938698 -0.71393234 4.0189424 3.4605029 1.0345813 1.0481536 -3.1211207 1.3300678 -1.3440616 1.7205732 -2.950345 -4.1548953 -2.514348 -3.3341808
6481 1.398928 -2.2689257 -3.697109 3.680166 -2.0695348 2.403021 -0.17517395 0.45952553 2.1522162 -2.4892128 -5.751567 -0.10052323 0.50305414 -1.6657301 -1.8697971 3.6750004
507 -1.9360881 7.520625 -4.0654945 1.1295885 0.45588574 1.0806606 -1.079913 4.111463 7.1097183 -1.7809817 -2.5252461 -2.8011584 -2.8743327 0.012071079 0.3816462 -1.05969
6780 -0.510251 -0.6616563 3.1178107 -5.8249955 -1.4440742 -5.935092 -0.036186386 4.5829124 -1.4423068 -0.19889139 -1.1338326 -3.7747462 3.8297637 5.4320745 -1.2782977 -0.9320364
328 4.2480206 -1.5987309 1.4904772 -3.1786098 -0.24921252 4.227635 -9.523054 -1.3782626 -4.943277 -6.1997604 0.052209117 -0.56790864 3.8912559 3.0827708 -2.6254938 -4.243889
13818 -0.9713445 3.2539809 -0.05583565 -5.232485 0.29951593 -1.5506546 0.20393111 2.9853458 0.6296131 3.2505944 0.3403797 0.017319977 1.5507534 5.879713 1.8047049 -0.8268866
6991 -0.39137733 1.8025898 0.9360751 -0.5979885 -3.6617963 2.3390596 -1.4101304 -1.8587136 5.0749354 -1.3920003 -8.529641 -4.0999804 -2.837573 -2.413028 -0.47747782 0.5924292
10081 2.665824 0.38888216 -0.6248663 1.4996585 -1.3983501 4.7261486 -3.923711 3.2099087 1.9310774 1.7483249 -7.8363647 -0.955256 0.00858181 1.2014936 0.87833834 -0.9098367
2126 -0.9785641 2.4966292 0.8789625 -5.5668283 0.17979424 -0.16306973 -1.4524775 2.6573656 0.48538882 1.1386971 1.4485258 -1.3818908 5.140827 5.876174 -0.50266945 0.07493789
13830 -0.87070906 1.8818189 0.41222742 -5.6866174 0.46086293 -1.1246346 -0.3198236 2.8928914 0.28768623 2.606018 0.050037257 -0.19236141 0.32999247 6.361963 2.0812902 -0.100517415
7713 -2.5334876 3.7287247 -2.4815764 -6.4950066 -1.5748408 2.4035816 -3.4305296 4.105158 1.23169 1.7224231 0.3117149 1.9879147 -2.5738966 6.999993 5.197669 0.4892864
10316 -2.85451 -0.37910974 -3.987455 -0.34530476 -0.88145953 2.3195145 -0.7902695 1.5531867 -2.2921782 -7.196746 2.1515636 5.277864 -7.4574285 -2.9316912 3.019886 0.71568066
5492 0.59085375 -0.6173829 -3.480651 -1.6093439 6.286993 2.366041 3.549354 -4.552748 -1.4463904 -2.431071 0.17104018 1.8850913 -0.6417715 4.8536 -3.8455517 4.3592353
10907 1.9145494 -2.9344697 4.4124246 -3.2317808 -3.4996295 -3.4454787 -1.1437856 5.4448605 -2.882745 -2.150012 3.8552363 0.24918021 3.0429895 7.4908195 1.0004716 -2.2033353
7161 -1.3712763 0.23753308 -1.7426956 0.34809464 -0.9677793 3.416885 -2.0633492 3.8315706 8.058706 4.299404 -0.4188589 0.7616297 2.7148552 5.835949 0.28448164 0.28992972
13816 1.9812657 -1.6854013 -0.9937124 -1.5907862 5.891921 -2.2386885 -0.36301172 -3.6766481 7.4714556 -0.1485265 3.301587 -0.4851413 -1.9089705 -1.1867645 -1.5411097 -1.5545409
13592 1.8948799 1.2643375 -4.015642 -1.5102515 2.6279857 -0.62737334 -1.5816104 -1.9288188 6.8984942 -2.4493392 4.715406 -1.4937302 0.069072455 2.8199992 0.8930984 -1.5478934
8049 -0.21073267 -2.227134 -1.5500385 0.33803004 3.0851429 1.164063 -1.7646941 2.4820087 7.0376344 0.79282707 2.929609 -2.9475322 0.22811414 2.1727939 4.013421 -1.3613487
2576 0.09013128 2.9486172 0.23320262 -5.7445374 1.944606 -0.36235884 -0.44780964 3.300295 0.39188823 4.1663847 0.62427723 0.6263385 0.8840219 5.0274677 1.884269 -0.3364744
13831 -0.3896247 2.2562435 -0.17170252 -5.1151323 0.24142313 -1.1109685 -0.44594896 3.1778598 0.25344986 2.936315 0.5902327 0.6816908 0.77088416 5.8552084 1.7505554 -0.43912432
7340 0.47424284 0.15550077 5.1537976 -4.3653226 0.23467506 -5.6899433 -0.33042046 3.2443693 2.1863842 -0.51556444 0.1940401 -3.0641143 4.6712036 5.1593065 -1.8604968 -0.93913966
6760 1.1407603 0.24897961 3.751293 -1.4180876 -1.4086665 -4.3201737 -2.6376326 6.9530973 -0.46799874 -4.0407047 0.9620233 0.9564449 3.8226469 6.8111606 -2.1997623 -1.6566849
10221 2.3256953 2.4706526 4.830215 -3.6092107 1.3555865 -5.1432295 -1.6808552 4.059988 0.9040216 -1.6918733 1.7892147 -2.4287136 3.5589132 4.485606 -0.9091459 -2.5256093
8620 -3.4423575 2.7159455 -0.52835333 -2.3240342 0.3631767 3.2919424 -4.9778996 1.3031731 -1.6654873 -3.6450095 -7.3200784 -2.5623722 0.5861682 0.64546126 0.71394145 0.38840175
1047 -3.3513741 1.2754915 -1.7483324 -5.0723615 -0.48036256 -0.9175495 -0.23549904 4.0061746 0.5163635 3.56968 -0.19093536 3.7027717 -1.3379567 6.3906302 3.7921488 0.20980465
10122 -2.5310645 3.0205584 -0.86147124 -2.9507 -1.7821618 0.42178124 -3.8691578 3.2769027 1.165895 -6.1964164 -5.0610914 0.89607036 -1.0395087 -1.7044346 -0.6703471 2.5043535
11404 2.7280176 -2.3839421 -3.0292847 4.672692 1.1618165 0.22117878 -0.85542125 1.524102 2.1591787 -0.80577564 -5.073722 1.4923866 2.0559206 -2.0775208 0.17406484 2.4040625
7270 -2.310966 7.9173856 -6.729016 -0.20458293 0.8098565 2.4370127 1.3557407 5.202498 1.3962986 -0.73356295 -2.1314793 -0.22894396 -2.1377046 -0.2785836 -1.1412141 1.4966766
14363 1.9708984 0.7069091 -2.0883381 -0.73847556 2.108982 -0.91527414 -0.8758087 -3.4737651 7.3175654 -2.479734 5.1013966 -0.07939504 -0.903652 2.9580538 1.0729795 -2.5384672
6827 1.1174107 6.2274585 0.86245984 -3.0551963 -1.7754335 1.2775044 -4.263707 1.7386202 0.6491227 -3.5394177 -6.4937367 -4.001155 -0.20325392 -4.177012 2.1124847 0.67973506
7549 -0.38229924 -1.2523216 -7.8467975 0.3381477 3.0847883 -0.76614404 -1.8699751 -0.25046742 3.967124 -1.6390072 1.3716598 -1.5094578 2.321375 0.15915686 1.7392046 0.2585095
735 3.0709167 2.9031923 4.620548 -3.7961166 0.9558092 -5.1773515 -2.168989 4.1586895 0.9859962 -1.217461 2.086944 -2.4303179 2.853493 4.8593497 0.8950541 -3.6138113
10197 1.2601402 -2.5568895 1.5951357 0.33416423 -0.7258015 5.0526075 -1.2167654 6.6363487 -1.155089 5.8060513 -6.1371136 -2.9774084 2.4073908 1.0052497 0.72715086 -0.6567776
12142 0.7420566 2.5209231 2.2847972 -5.022849 -7.093419 0.46878758 -3.1018748 1.6319171 2.5895624 -3.2495914 -2.1859832 0.32819104 -6.5420103 6.505884 3.225203 -0.6182952
8802 1.2847128 -4.6261334 5.265435 -3.0532064 -3.8426595 -5.0444064 0.47962233 7.313878 -2.2118707 1.1496603 -1.996624 -0.1769976 2.8302152 4.335582 -1.119503 -0.4966643
7641 0.7050465 0.11492442 4.6674585 -4.5446377 1.55559 -4.4465866 -2.460593 3.7588422 2.4680283 -1.703598 1.1085168 -2.5621433 4.193856 4.998214 -2.1959176 -0.8196323
2887 3.2448864 -2.4267333 -3.713999 4.063365 -0.066542655 3.6122923 -1.1946223 0.70835114 2.886116 -1.9181216 -4.195069 0.44240782 -0.17582186 -1.7485518 -3.152623 2.7181456
595 0.27120748 0.6232103 4.8516755 -5.83836 -0.28026366 -4.540196 -0.5502153 2.860372 1.3112441 0.19891286 0.009961841 -3.7192247 3.7476854 5.409564 -2.9827726 -1.4741279
2752 -1.6485945 -4.593376 -0.84074855 0.90097976 5.321385 1.8445431 0.57953525 -3.3673093 -2.1956418 0.7695664 -2.9459443 1.4923675 -4.1651454 -5.3261633 -3.5188751 -4.189104
12052 -2.4461544 4.0359597 -1.255088 -4.2214127 -6.4845147 -1.236235 0.44483042 8.424299 5.3477845 0.9951235 -0.3832986 -1.0969484 -5.213101 5.733364 2.794166 -0.38069257
9828 1.8910636 5.8954573 0.9111155 -2.6919866 -2.25094 2.0278552 -4.370299 1.6638635 -1.0136021 -2.3420968 -1.627015 -2.1619632 1.267427 -4.0978527 2.2633262 -1.4398189
9810 0.28814077 -1.367651 -2.408749 -0.08716058 5.313564 1.0071669 0.3044112 4.8642316 -3.6750076 -3.3309107 -0.59076923 5.3111124 -2.6306038 -1.6182691 -1.1039467 5.071477
1268 0.026938787 0.85148895 2.8694715 -0.26705238 6.6144786 -2.2078567 1.6561418 -1.4657187 -0.636724 -2.7364445 -2.6513593 1.1664256 -3.67697 -4.167638 -3.2007542 -1.5450889
2740 -0.8615907 -5.262273 0.03849114 1.2908043 6.6177206 0.2664583 0.76514024 -2.5448847 -0.36101633 0.5252147 -2.8156757 1.7541156 -2.9973714 -4.65676 -3.489755 -2.3702638
8762 1.0680375 0.87222373 -1.1030285 1.6267921 -1.1255988 5.552386 -2.435119 3.2886128 3.3599954 1.6722229 -6.481252 -0.47091573 0.5277333 1.7902112 -1.8296384 0.37143028
8407 -0.82752407 0.4499167 5.016517 0.69141954 5.5236597 3.6981964 2.499986 1.1879382 -2.1600034 0.020947242 -1.4311444 1.5061532 -2.2424142 -5.256107 -2.6413708 -0.811537
12448 -0.7018793 1.6855788 0.70184356 -3.9487193 -2.4118457 0.15193862 1.3885152 3.307443 -0.68780035 -6.152975 -3.1054947 -1.2263721 3.456665 0.70512164 -3.6381629 7.796595
1006 2.4596217 4.9898725 0.7659424 -5.50972 -2.0303688 -0.49383307 1.1353136 0.92822117 -1.5227108 6.732323 -3.5084884 3.1779337 1.0884635 6.692393 0.85997915 -0.85953915
2513 -0.7361006 1.1520574 1.1156158 1.2770913 -1.6371989 4.405867 -3.9850147 0.1779537 5.444554 -0.455708 -11.200533 -3.6924114 -2.1751823 0.012902668 1.2231152 -0.76061857
9765 -2.658068 0.6027332 3.89254 -3.0672753 -0.029404884 -4.9791894 -0.4073773 3.1920416 3.885895 -1.1958933 1.2032468 -1.8924433 3.4134176 6.6960273 -3.3947713 -2.8918931
7154 -1.9594904 -3.4665995 -1.0790672 1.24378 7.036195 1.9412577 0.7400919 -2.390517 -0.7557722 1.1943413 -3.49841 1.4675789 -2.7639403 -5.2222457 -3.5339823 -2.2750394
9298 1.8965487 0.87233114 4.605045 0.6268861 5.0970488 1.0257602 2.0615866 -0.76643765 -2.6498287 -2.3697102 -3.5769675 3.1424716 -3.9503222 -3.4767845 -3.5466423 -0.7795833
5211 -2.1887798 -4.8006606 -0.4640421 1.2708384 6.6219025 1.667077 0.9223571 -2.286291 -0.82561624 1.1924952 -3.8198767 0.69268143 -1.6967093 -5.0003195 -3.6568384 -1.8680148
8721 -0.23044506 -0.7230692 -0.34988147 1.6186775 -1.7488252 4.2673445 -4.228132 -0.09416217 5.045521 -0.43502307 -10.927191 -1.1182418 -1.0017194 0.76078033 0.8698549 0.20585284
10235 -4.1703734 2.2387164 1.0274439 -1.4578582 -0.05513727 2.3053901 -3.231062 1.4839908 -0.79563206 -4.4948506 -7.1534834 -3.3975308 -1.5105866 -0.10548317 1.0666698 0.47689146
7912 -4.8576007 2.3812306 -2.0421185 -1.9855434 0.29672837 2.0113587 -4.636129 1.5264015 -1.3279649 -4.912195 -5.208995 -1.0549773 -1.7066697 -0.40054092 1.8384782 -0.11309047
11278 -0.8063397 2.5950797 1.009401 -5.1596904 1.1680118 -0.06557677 -0.52415943 3.2092805 -0.83801943 3.6591809 0.5961564 -0.213029 -0.101051256 5.5324893 2.9774346 -1.823355
3030 -3.909998 -0.2837001 -1.5135335 -0.04229236 -0.87975997 1.221593 -3.0164561 1.9618205 -1.6830494 -6.365327 -6.2342043 -1.5849465 -1.1112127 -0.7414603 1.9390557 1.719462
11863 2.2139683 3.1190293 3.815023 -4.106024 0.16723652 -3.2590656 -1.1437212 4.469489 -1.6846181 -2.2282047 0.07364242 -3.3697069 3.73839 4.5061793 -1.430819 -0.84293985
3174 -4.921685 2.4819021 -0.12523127 -5.826312 -0.4906631 -0.9960916 -1.295493 2.3203475 2.7584774 3.7558994 -0.86523414 1.6279693 0.5919511 4.994395 2.351541 -1.2513382
8753 0.348756 -1.4649004 -0.6622873 1.3306053 0.2838682 0.6848723 -0.34369892 -3.1323915 5.8350964 -1.5693605 2.1728754 -0.43849587 0.3234217 1.6185015 3.4812055 -1.1496677
3787 -2.6963048 -4.9013443 -1.114864 1.4406022 6.2400374 1.3555971 1.2855483 -2.0372021 -1.6059493 0.4867436 -2.8367367 1.7492626 -2.6706347 -3.8278763 -2.457108 -1.4861615
6707 -1.5162977 -4.271604 -0.6116549 1.2314466 6.7952185 2.5315366 1.0507355 -3.040401 -0.6411152 0.9097646 -2.6468987 0.64934 -2.7555714 -5.546835 -3.0093658 -1.6989162
9852 5.0347414 -1.669107 -1.7869331 3.501463 0.04427881 -2.182965 1.8804775 -2.1093524 1.9249313 3.5766914 -2.800399 -0.122610874 -0.1811222 3.6189437 6.4561644 -3.916375
1165 1.980379 1.7288921 -1.9800094 0.66916585 0.9483481 1.530122 0.073268056 -4.19224 -0.53184307 -2.3991728 -0.91022366 1.8509191 -1.0388833 -2.379136 1.7992089 1.2558732
10389 -1.0437546 3.451071 1.8227053 -5.170775 0.4585145 0.035522092 -0.6382552 2.5988708 0.28458104 2.315107 1.4308598 -0.8622244 3.9445426 5.503314 -0.33362004 -1.441644
7046 -1.7376703 -0.6157399 -1.1683311 -3.295362 -1.1839539 1.7911669 -0.09582824 0.30256262 -1.6290637 -2.5036013 3.42657 4.6590395 -2.6527312 1.4626802 -0.15925112 -0.23691091
7817 -1.8656127 -4.591774 -3.2676349 0.29198048 -1.7734188 -2.0520265 -2.406953 8.12509 4.4574833 0.16119537 0.279704 2.2525299 4.4238634 12.516209 -2.407822 -1.5562967
7593 -0.7905963 1.2059481 5.7100043 -5.1815777 0.042466618 -4.144511 -1.3235782 2.76024 1.687428 -1.9779867 0.31185958 -2.9819562 4.4875307 5.210552 -2.435003 -0.98096
12227 -1.5397626 2.5578923 -0.14346705 -6.3800187 0.97560245 -1.4109644 -0.8381368 2.2395391 -0.04289061 2.9510775 -0.109999746 0.96850604 0.2564847 5.3917785 2.7205305 -0.5891872
12691 2.8789363 1.6901637 -0.12559731 2.8320513 -0.7257397 5.2827516 -3.0614526 2.3771012 1.8621898 1.1572741 -7.2826414 0.1119683 -0.12779106 0.004536277 0.056015443 -1.4283496
5478 -2.5624876 4.387427 0.16420935 -0.44765347 0.47893882 4.036758 -3.357205 1.085707 -5.2080994 -4.69747 -3.8570013 -2.5421643 0.6646947 -2.7092686 2.6798496 -1.7295005
12968 3.1996994 0.8591153 -3.4986842 -1.7242135 2.9488864 -0.07176997 0.18373433 -0.60119176 8.024759 -0.31480166 5.4392385 -1.056306 -2.475876 1.8855929 0.63404644 -0.42714295
13331 -4.481161 0.43700147 -0.36606544 -1.8287303 -4.5449986 1.5844879 2.8913913 7.5383215 -0.49147594 2.17977 -1.1270465 1.2570139 -4.3580527 7.2953267 4.8278418 0.5763471
13844 -1.3983386 2.2866035 0.56221604 -5.758615 1.2814487 -1.3136024 -0.0827667 3.1011217 -0.7480641 2.69994 0.9268627 0.0566229 1.325292 5.351079 1.4538618 -0.66466165
4720 2.7916374 -1.0384123 -0.8053299 1.4760529 -0.3766119 5.2985244 -3.872853 2.4949768 1.1971523 1.8835057 -6.352136 -0.06633504 -0.077493176 1.6560048 -0.7214208 -1.3454888
11570 -5.2030315 3.153676 1.806612 -3.5903373 -5.4122734 3.2456267 -1.7246282 7.3557177 3.4200702 1.8906404 4.0653076 0.39767176 0.35656378 -0.7374992 -4.6475973 -4.418638
6743 0.341388 -0.6040491 5.5218906 -3.02359 0.57322353 -5.050129 -0.5955135 4.4383335 2.0937114 -1.4953063 2.85052 -4.2023044 5.380144 4.4377737 -0.92861485 -1.9498833
7741 -1.2077874 -0.40491962 -2.5780017 1.754051 6.1095977 -0.47642952 1.2143767 2.3024647 4.4578476 -3.7241638 4.463758 -2.4106748 0.8453362 1.3361745 0.9768201 0.65274966
9530 -1.223262 -0.7130789 -1.2969779 -3.003779 -1.630243 1.8852752 -0.23083912 0.38297427 -1.5846493 -2.0836084 3.7187867 4.5903854 -2.034604 1.5865837 -0.23068069 -0.57756287
14804 -2.3027124 -3.3565032 3.8587492 -0.63717794 3.8912106 4.0895705 1.4372518 -3.0365193 -4.4687896 0.004490346 -0.83965737 1.1034658 -1.102728 -6.3217096 -2.6423995 -2.6731436
13116 0.38428384 3.3625643 0.9919632 -3.7495716 -1.9150783 -3.7199721 -1.0153162 5.680471 1.8153112 0.031627405 1.7398539 -2.1897135 2.6485212 4.7521276 -1.2345246 -2.0514817
723 -1.4661766 -1.7015587 1.7625198 0.44726223 1.4491645 0.07613333 -1.0348961 -1.4272019 5.3682995 -0.7134249 1.8291346 -1.2452039 1.0492455 2.1685033 5.1248083 -1.7585986
7594 -1.1916974 1.5703026 3.8796015 -4.019701 -0.40391594 -0.74943715 -1.8771235 4.7684445 1.2669617 -1.0070997 2.8873017 -3.3723314 5.3468804 6.3207703 -2.8775373 -1.8758885
8144 -3.2658968 5.9729843 -2.7272296 -0.08809243 2.1101723 2.4696798 -0.6891761 2.9915626 1.0143799 -4.2221446 -1.0856415 -1.540911 0.1301983 -1.2946885 2.1165645 1.6484457
8224 0.0841058 -2.504707 -0.529639 -0.4083911 6.1622596 -2.4933975 0.89663976 -3.0505416 7.0708833 0.8106965 2.0944755 -0.9746367 -1.157937 -2.0055528 -0.2674474 -1.4120473
6738 -3.2055244 2.204778 -0.97158134 -5.6126156 -0.43589514 -0.87395966 -1.2060063 3.3939772 1.6555827 3.9639575 -1.7478906 2.9564388 -2.2647755 5.022382 4.4088707 -0.0286803
3993 -1.3882037 -0.5993673 -1.4796835 -2.9638708 -1.2573258 1.9439365 -0.22595912 0.14028007 -1.6180302 -2.5412636 3.3884044 4.3041334 -2.528854 1.20259 0.43008056 -0.40066373
8755 2.386789 -0.023662763 -2.585348 2.8686152 -0.9004711 3.24761 -1.5862192 2.3950725 3.578487 1.1007848 -6.0321636 0.45818818 -1.128659 -0.0022879252 -1.1276622 0.48146307
9077 5.5312643 0.67165256 -2.154609 4.270698 -0.49357164 0.93623155 -0.7062332 -1.1305783 3.0473402 0.88831097 -1.9914849 1.6723843 4.3936067 -1.1340108 -2.8098292 -0.7264436
4213 -0.9499792 2.8396566 0.60914576 -5.282305 1.0328181 -1.2080799 0.24279417 2.3253787 -0.32205376 2.989485 0.316379 1.459069 0.7415744 5.718419 2.370322 -0.58059394
5487 -1.9323969 -0.64371675 -1.4847767 -3.635688 -1.4475939 1.7822663 -0.36757976 0.43862262 -1.6304944 -2.7432878 3.6650946 4.367897 -1.9304826 1.1517929 0.6225971 -0.16173968
1183 2.0351677 0.49702737 -2.732122 2.3816457 6.2751474 3.802484 3.6890256 -5.4062147 -1.4180249 -2.6415155 -0.5798148 1.3416147 -2.701564 3.6492817 -4.053845 0.87856424
1070 -3.278935 7.0580616 0.2617395 -0.023111656 2.227146 1.4756985 -0.039052293 2.3364387 1.7566389 -4.2221045 -3.5644898 -0.736022 -2.053258 -4.9879904 -0.03578548 1.8229486
13868 -1.7265867 -1.1698017 -1.413302 -2.723386 -1.5481824 2.2462952 0.19047378 -0.7021458 -1.6651154 -3.014669 3.4951732 4.738485 -2.2402253 1.3818064 -0.385756 -0.12480015
5948 0.69478464 -0.2293496 -1.6208074 2.7605534 -0.24052063 3.3794158 -1.3661903 4.6624365 4.8552856 1.0439215 -4.754761 -1.1702054 0.20799273 1.4501013 -2.4426582 0.52513355
13864 -0.6620252 1.6244582 1.6802516 -5.456019 1.6218566 0.035843827 -0.20821743 2.9327788 0.19685948 3.2285216 0.54702884 -0.48640427 0.6999225 5.1699457 1.367938 -0.39315805
8025 -1.285903 -0.76314557 -1.2266005 -2.610631 -1.4021889 1.7859099 -0.26105323 0.47723964 -1.5260844 -2.032502 3.1111135 4.545262 -2.1314783 1.2617508 0.0046069 -0.66876256
2285 1.09205 -3.7958877 3.0541883 1.2705827 3.511967 -1.5148441 2.9548252 0.45960823 0.86683595 -3.189619 -0.0059334007 3.9767094 1.3453658 -0.7146722 0.24262367 5.302344
14500 5.815784 -1.0933958 -0.5555036 -0.45126215 1.8511847 1.3932006 2.6989834 -4.8335104 0.35828444 -3.7379055 1.1374766 0.61367977 -0.8067318 -0.5158398 -3.8321922 3.2915914
8101 1.9259394 -1.383578 -1.688987 0.6462899 -0.77569616 4.938938 -2.4296713 3.780952 1.681916 2.217293 -5.3491535 -0.78083 0.34134018 1.7379252 -1.9014542 0.6551074
721 1.211063 -2.2346406 0.99369633 0.56791204 0.207986 0.87518924 -1.558552 -1.7051624 6.429709 -2.2019794 2.7685738 0.63095635 -0.12858923 2.907302 3.0632374 -0.56651723
13673 -0.7852698 -2.2175686 -3.4939983 -3.4262087 3.3232305 0.29300594 3.7267554 -1.3672372 0.19747175 2.3877997 -3.4658322 0.8179221 2.5491924 -1.4811652 -2.0715024 7.3821607
315 -0.80962515 -5.3672004 -1.7156342 0.53554016 6.4210396 1.4605427 0.9829093 -4.013711 -0.4028993 1.7846261 -2.5223186 0.91831136 -2.257147 -5.3001404 -4.5594893 -2.6322787
7045 -1.8618494 -0.4640651 -0.9664625 -3.3744354 -1.5722235 2.1181135 -0.65853304 0.7497764 -1.8619888 -1.8344663 2.6261296 4.203067 -1.9837933 1.2292663 -0.15203378 -0.6113714
13866 -1.2290803 -0.72683156 -1.3186657 -2.8232834 -1.3628005 1.583205 -0.24146019 0.47901657 -1.6050338 -2.5924466 3.5446503 3.5608094 -2.1143634 1.4456458 0.041536875 -0.89174694
11784 1.3095971 -0.36500487 -1.0536388 1.9381515 4.2394304 -1.1208783 1.7796617 -3.503278 1.7500561 -3.0606658 -4.646501 1.9670016 -0.19570392 -1.7218293 -0.30435684 3.9081495
14162 -2.7284372 5.1855497 -3.4814053 -0.58703893 1.4043273 1.4349763 5.305093 5.0519857 1.2443907 -1.7475172 -0.4098994 -4.8435946 -1.9302099 -1.7025586 -0.64494115 3.0948753
6056 -1.3580849 -0.49939862 -1.376435 -2.7105224 -1.632246 1.8707435 0.11846124 -0.00026643876 -2.2180529 -2.4139276 3.2429028 4.3384237 -2.7586894 0.24504921 0.018492486 -0.6858275
14668 -3.7291057 1.4697171 0.6283834 -6.2452693 -0.65051764 -1.1021575 -1.0036516 2.0865195 1.8433232 3.9258523 -1.0114156 1.8074517 1.9243462 3.6860564 1.2816641 0.2433996
13886 -2.0824165 1.9682074 0.19547567 -4.59038 1.2731345 0.23952769 0.13535199 2.940072 -0.108160704 2.9116788 0.68216366 -0.62560004 1.5870079 5.621304 1.5736976 -0.72563064
11876 -0.064180635 -1.2142093 4.396243 -5.4468203 -0.33162856 -5.640361 -1.7726455 3.5806704 0.8695437 -0.8998835 -0.7093023 -3.6400611 2.7605002 4.5041523 -2.8358586 -1.995265
6814 -5.061845 1.6430651 -0.2989949 -8.321914 -1.3976426 -2.097448 -5.221456 -1.9323564 1.8795304 4.705109 -1.0041353 -0.68713903 4.742116 1.9945284 0.37996694 -5.4689803
8440 -2.1149118 -0.8015351 -0.90299284 -3.098284 -1.5478926 1.3878764 -0.26738632 -0.19403993 -1.5322429 -2.344569 3.3443224 4.091699 -2.0891757 1.1788938 0.33682916 -1.0950596
8006 -1.5965233 -0.8324022 -1.5842552 -3.2890062 -0.58993876 1.4922949 -0.18482621 -0.38673797 -1.6491283 -2.3413365 3.3944395 4.4212604 -2.3282847 0.3866509 -0.49843988 -0.54747593
8642 -1.2845889 -1.1876705 -1.7816429 -2.8783178 -1.5307118 1.569896 -0.27643758 0.60278314 -1.4153426 -2.9652474 3.573145 4.6610017 -2.2359219 1.4275105 -0.10815323 -0.10170605
8334 -4.254603 4.111189 0.926482 -3.3325298 -2.4215581 4.707174 -3.852018 7.859301 -2.3185081 -2.0541885 -1.1798841 -0.19557577 -2.102449 5.50103 4.6960464 -0.3222407
14149 -1.0950761 -1.1719769 2.2895713 1.2500274 3.7205985 0.5656251 3.390442 -0.96407866 -0.8172824 -3.2870972 -1.0029069 4.261429 -1.2963312 -2.9178255 -4.748404 2.7313018
6830 -3.3117454 2.4016602 -1.6513864 -2.1449978 -2.6018002 2.2737744 -4.695619 2.0623558 -0.8767433 -5.642047 -4.5740414 0.3716887 -2.59039 -2.8272882 1.6036459 0.7098661
10643 -2.5057955 1.755152 0.6507251 -6.2279954 1.0370479 -1.1111175 -0.5943251 2.7270563 -0.7516495 2.4993136 0.2747032 -0.52484024 0.28976205 5.7247376 3.114825 -0.8964
877 -0.75466156 -3.018018 1.568974 0.74563444 1.6321534 -1.0916333 -1.6006604 -1.1373373 5.2219963 -0.6980535 1.1465318 2.1546009 1.3174654 2.0222368 3.5002942 -1.0058765
10396 2.8980818 -1.3794377 -2.7967794 4.5753894 0.107546285 1.6457915 -0.752317 2.038029 3.1762466 -3.6704981 -5.1809926 -2.378065 2.6008327 1.0067846 -1.1439062 3.2461398
14599 0.67626274 -0.6817331 -1.3934106 0.36950794 -0.88097465 2.8880525 -3.880638 -1.40607 -0.5293492 -4.7663913 -0.9714794 -0.49225327 -0.36307916 0.8787832 1.6495092 0.40633374
6011 -2.791947 -2.0548475 3.8207936 0.23314427 5.8916636 2.4859488 3.6230986 -1.1201861 -2.2757392 -0.4736525 -3.4279823 0.3875635 0.14049406 -5.5131264 -3.6851046 1.7416956
14684 -0.59097725 1.7011461 2.048933 -5.204487 1.231013 -0.076248646 0.1077443 2.2771256 -1.1489452 3.3951948 0.44586685 -2.1085143 2.397867 4.9717073 0.88756156 -1.4508927
4211 -0.8287014 0.12749054 -1.4425308 1.5438639 1.9226947 0.7896101 -1.39786 5.0275702 7.0970454 3.1271489 0.69415176 3.0369039 0.6454992 5.5744324 -0.9063062 -0.50905544
2535 -7.102234 1.3300306 -1.5462617 -4.7553477 0.24269232 0.18667802 -1.4892641 2.9805398 4.045536 2.1582432 -1.3019685 2.4435158 -2.9229221 6.3498883 1.4358042 -0.9372827
10068 -3.616343 2.6876767 -0.9329075 -4.8563066 -0.39078856 0.5490295 -1.2934424 3.4110174 1.6300474 3.8017395 -0.27051747 2.2948494 -2.002712 5.4048004 4.2362022 -1.1039075
6041 2.7858229 -1.2612036 3.0725646 -2.0866318 5.773059 0.16197711 0.9731458 -5.2265983 0.12052961 0.0072802235 -3.2297845 1.6506552 -2.2645211 -4.9675674 -5.6020074 -0.7396369
4087 -4.522093 1.4299784 0.66410637 -6.1678534 0.5439401 -0.98369384 -0.8635615 0.69669706 2.1975746 3.6074443 -1.1533176 0.43771362 1.7912672 4.4483757 1.9394264 -0.6106991
9596 -4.6476107 -3.3289537 -1.3030157 2.877253 3.9917846 0.9865742 3.8892553 -3.024778 -0.14121665 -5.6320043 -0.15943797 2.8516223 -3.599732 5.7999787 -1.7151028 0.9004503
14673 -3.962542 2.4264321 -0.4851343 -6.174887 0.21215513 -0.2703229 -0.5778641 1.3798981 1.5015948 3.442226 -0.08862623 1.5353873 0.5404364 4.627509 1.9619689 -0.11473133
8498 -3.3844047 3.0837088 -1.1450126 -2.4073246 1.2965161 1.6840667 -2.0941072 2.169708 -3.9915178 -3.1653771 -6.9385934 -1.3219424 -1.9900025 -1.5123733 0.8915761 1.4638872
14235 -0.9358956 2.9086583 1.1304041 -4.8863926 1.501852 -0.66140413 -0.003994848 2.579275 0.37804258 2.5196426 1.2404923 -1.08848 2.2995036 5.4478655 1.0927386 -1.1971729
8693 -6.367887 3.2314417 2.9910595 -0.3110125 -6.61524 4.1841903 2.6297748 7.0875263 0.44567803 2.5407732 -1.4918759 0.9899762 -0.22860783 4.5942883 7.657504 -0.2611888
1117 1.8813483 0.53863984 2.0826864 -2.2106261 -2.3577812 -4.3467393 0.0799065 5.5302153 0.6991952 -0.5382109 -0.37021953 -3.903967 2.6721787 5.6381726 -2.2961175 -1.6367928
7662 -0.9906544 -1.3729855 2.8084972 -4.189176 -2.434478 -5.697171 -0.822884 4.0724688 1.9500046 -2.022825 0.18279594 -4.2991204 3.5897233 4.9057727 -1.3606173 -0.9571559
3867 0.5363883 -1.5576046 -2.3308585 1.1879855 5.70038 0.23595795 1.9568444 1.7335492 3.7602103 -1.7889221 4.341858 -2.7146142 0.48119456 1.3588157 2.1246068 1.2363002
12901 0.6794891 -0.06651 4.0890956 1.4018484 3.7359564 -3.1739535 1.4498279 2.284128 -4.6969748 -3.1778278 -3.3114643 5.515022 -4.777158 -0.9805322 -1.4431752 -3.8658905
1797 5.560311 0.003882257 0.08651971 -1.8452759 1.2154689 2.3177967 2.0647938 -0.7900134 -0.43632123 -2.889506 1.3029513 1.6865826 -4.766135 0.50326324 -2.1332908 1.8225896
7858 -2.7171881 6.382103 -4.074593 0.6178254 1.2631485 1.7405102 -0.7822027 2.8276997 2.4988995 -2.6584985 -3.1807914 -1.322987 -1.7893931 -1.7639879 0.3314485 -0.2902378
4502 1.7596308 8.1638775 1.9116756 -6.2416315 -1.856093 0.761419 -6.855319 2.7438157 0.3369513 -2.2436454 -1.2777364 -0.3138112 3.0549493 -4.4412155 4.8009896 -1.2747073
13402 -1.0237452 0.17028297 4.369475 -4.991046 -0.19221064 -5.563352 -0.42042214 3.5196166 0.08225272 -1.2432512 -1.1929702 -3.5292244 2.5737495 3.9613411 -3.160354 -1.5142742
6532 -3.9205027 -2.7125623 4.659529 -1.7518021 1.1924517 4.4800158 1.8792496 -3.0728383 -5.0781107 2.0066156 -0.91338176 1.7215258 -0.33700198 -5.3978934 -2.0617254 -3.9957616
3864 -4.151834 -2.5620954 -2.3328307 3.8029733 6.209811 1.1913913 5.81694 -2.1926441 0.17955866 -3.0086884 0.08385977 0.6812045 -0.8944984 7.179875 -2.6823986 0.86404926
2166 1.2999043 -1.6532938 -3.50805 0.44309342 6.4573646 3.4258995 1.8998358 -3.8146455 -2.198456 -2.1792202 0.22691812 1.859973 -3.9672523 5.585308 -3.5777082 0.6415365
11893 -1.9463665 2.2630653 0.1952958 -4.772269 2.2195163 -0.62266773 0.3422432 2.6493163 -0.1931959 3.6510108 0.38084167 -0.06415557 1.7219918 5.347166 2.1476536 -0.83590686
8970 1.5402646 -2.708274 -1.2671102 0.085968204 2.47438 2.3741853 -1.9147531 0.6019553 5.9368978 -0.53632134 3.744354 -3.0407116 -0.6415911 2.4246204 3.7782133 -1.2203612
8010 -0.24632163 1.9601388 3.3181705 -2.194149 -1.9388667 -5.2573314 1.1242594 5.7115107 0.8557438 -0.44525653 2.500482 -2.6380765 3.7213078 3.5768023 -0.5179702 -2.6211696
7913 -4.9695706 2.4810514 1.1602125 -1.391673 0.14748874 2.3287864 -4.3500586 1.2357244 -2.70429 -2.9802842 -6.627602 0.6913287 4.2743907 -1.2656635 0.7079386 0.32179204
13958 5.4937496 -2.278561 -1.9930854 2.380988 -2.8415291 -1.7135532 1.9830276 -5.930077 -0.33351913 -1.2114066 -3.584342 -2.7574737 -0.88510484 0.13054374 4.3791914 -2.6529515
10766 4.154394 -0.78638977 -2.3561618 4.884947 -0.7794432 2.9385207 -0.45952272 0.5550654 0.77803123 0.8566302 -3.972607 2.5375354 1.2033215 -1.9764014 -1.2213805 0.21292743
11894 -1.5126604 2.2526731 1.2695802 -4.7864714 1.9019845 -0.118670315 -0.049298357 3.1130629 -0.23638009 3.5253997 -0.15629874 -0.04231755 1.0561731 5.1362057 1.8203977 -0.8316879
1123 -2.340545 2.9365206 -1.2997009 -4.9380302 -0.14448743 -0.36205828 -0.51854897 3.501527 1.4946694 3.9384727 0.4670475 3.3908143 -0.4279631 5.089692 3.542989 -0.32263348
11113 -2.7572758 1.8141383 -0.035022486 -3.7830935 -1.7288836 -0.35825726 -3.4030654 1.0679682 1.9888945 -5.872409 -5.5102806 1.6043043 -0.14850706 -1.0510088 -1.2751697 3.5863438
1241 0.95910263 1.710006 2.7587829 -0.4744702 5.9328966 -1.7191306 2.4655752 -1.4328815 -0.9257187 -2.0672364 -1.0888336 1.6609104 -2.5817058 -5.2773705 -2.6391337 -1.1531757
4796 1.6088077 -2.1328754 -0.3875428 1.833833 0.07039933 1.7733397 -0.38065714 -1.9182618 4.5719585 0.35691875 3.7050984 -1.6097344 1.2299134 4.977166 4.478488 -3.470807
7601 -0.018526757 -1.4825747 -0.71105516 1.6051779 -0.5776275 5.2559924 -2.9364097 3.088597 5.019177 1.1928782 -4.120382 -2.2417428 2.4633965 0.13196106 -1.8901348 1.3190551
13170 1.4803327 -2.4122071 3.4281406 2.6546538 -1.3267956 -2.100886 4.163272 -3.1488414 6.418874 5.2415776 -2.4617844 3.985038 2.8598285 5.4118443 1.7185134 -2.258854
5784 0.45537743 3.9373417 -0.3467195 4.1486444 3.7081952 2.1722844 2.6573014 0.32375997 1.0350076 -4.1050797 -2.0760844 2.6369665 1.5720559 -1.5763767 1.9328512 3.9227302
448 2.8064306 -0.21085379 -1.2099644 2.3813186 -0.122643515 4.818789 -3.542177 3.6041439 2.0819724 0.6422159 -5.7456794 -0.5580519 0.012118753 2.1736894 -0.3775531 -0.7669049
9236 -2.9217472 3.2301333 -0.1852204 -1.5035293 -2.0198076 -0.43090913 -3.83254 3.0669155 1.5230315 -5.226336 -4.270901 2.605193 0.23948605 -2.8555865 0.579569 0.77468693
708 -0.82987845 2.1766918 0.7846988 -6.046999 0.58982223 0.050192915 -0.53835326 2.3618162 -0.643828 3.041655 1.6537299 1.0243413 1.3254764 4.1708508 1.2426305 -0.09716757
1652 -2.2511725 2.979893 -1.8544552 -4.3935976 -0.903191 -0.014976319 -1.0859491 3.6307814 1.3219625 3.5599434 -0.5592443 2.9374332 -0.6752432 5.657916 3.7840085 -0.38830355
5043 0.17763835 -3.6494873 -0.018525634 -0.26897672 6.2181687 -2.1450284 0.64389 -1.6081172 6.9231133 1.916508 2.5226066 -1.1702337 -1.6550038 -2.7019062 -1.6386094 -2.1782002
12416 0.79054415 -1.8493551 -0.85091996 3.1638966 -0.6515411 3.8366523 -0.75479496 4.320178 3.567801 1.6300039 -5.6032915 -1.1953806 0.94858605 0.99228925 -0.6433635 1.0636561
8002 -0.6840153 0.3678514 4.1456633 -4.720074 -0.15848112 -4.6892805 -1.7298263 3.58139 2.8659458 -1.3741177 -0.20505685 -2.6545157 3.0975182 5.799688 -4.290302 -1.934731
6554 0.5113124 4.4682646 0.854949 -0.87038636 2.7086756 1.2896284 5.4757085 -5.3654366 0.9915354 -4.8776193 1.1426102 -1.4972603 3.87603 -1.9750792 -1.8550324 4.9712653
8300 -1.2029748 -5.63193 -2.2449017 1.162651 5.543296 1.0671581 0.7691215 -2.6513638 0.21424451 1.4886814 -2.7553346 1.2472355 -3.5268617 -4.2973137 -4.022778 -2.8187373
4771 -1.4757801 4.212084 1.0361907 0.54069406 -1.2748421 1.3341135 -0.30631477 1.9434993 2.8758192 -5.8654666 -2.1211562 -1.4109676 0.11813509 -1.5120445 -0.7028583 3.2404227
3171 -1.466129 -2.1772974 -0.69396293 -5.555003 -2.1576948 -6.1975255 -2.2403486 5.5896506 -1.322207 -2.9181297 -1.5549862 -2.5908966 -0.23861477 5.0718737 1.0903077 -0.76658076
7920 -1.4304763 -4.3419023 -2.547812 0.6358145 6.4402227 1.113844 1.2390258 -3.3914232 -1.0467803 1.3494005 -2.973693 0.9615281 -3.521917 -5.0483637 -3.3729627 -2.3877673
13229 -5.7367797 -3.169718 -1.3401932 2.1755157 2.1833587 0.24908046 3.0524728 -3.5868902 -0.44487986 -5.4841676 -0.6787549 2.4222617 -1.4512868 7.5632696 -2.270899 -0.14549842
9893 -0.059090164 3.0267746 4.631121 -4.0035563 -2.6213188 -3.8080416 0.45946777 4.9610844 1.5519664 -0.87079513 1.0327203 -3.4699924 2.8833575 4.5546985 -2.569016 -2.2856119
10131 2.7191503 -2.5869384 -1.4935685 2.1734924 -1.9040381 5.220414 1.9609067 3.712635 1.5702226 0.089833505 -1.7802789 -4.1752825 0.13487591 -0.5922362 -2.3222957 2.7251267
9833 -0.7294683 -2.699092 1.3948886 4.6031833 0.049420767 -1.443755 -0.5779028 -2.2443142 3.9098022 -5.35588 0.8456702 4.627584 3.7213764 1.3234602 1.2886572 -1.3305326
5579 3.6541386 0.13311413 -2.178698 2.750647 -2.8662245 3.457999 -0.26216513 1.0946229 3.4458706 1.0060157 -3.2304971 0.24984424 1.3422947 -0.33215195 -1.3802619 1.355091
5110 -3.409638 -2.742479 -1.3688638 2.8943727 2.6881995 1.2170361 3.409098 -2.0363805 -0.41140342 -1.5173556 -3.0684395 3.2306616 -1.436958 8.378924 -4.308454 -0.45198643
4906 -0.30644318 -3.5227172 -6.3719277 -0.5463076 3.4928112 -1.3009975 -0.4026534 1.5922109 3.775784 -0.79822564 4.3736477 -1.2446928 2.8973176 1.576078 0.5804521 0.6054533
10621 3.2695947 1.1754651 -2.364021 -1.1840839 6.1967955 -0.13760607 -1.1469306 3.6836944 4.8556204 0.32034042 2.9474018 -0.5622273 -1.52939 -1.0339348 3.1234088 1.0099463
2331 -0.23075826 -1.780042 4.5399723 -1.4311485 -1.129803 -4.049345 -0.15996008 5.260856 1.8450475 -1.61984 1.3999723 -2.6763835 3.6220613 5.4522724 -5.2007813 -2.4969494
5868 -4.359034 1.9286296 -0.82860136 -4.461887 -0.8420179 -1.045934 0.30489957 3.0747068 1.7926648 3.3229053 -0.46573502 1.6678723 -0.47938523 5.2296286 3.2735064 -0.46991605
10143 4.2102823 1.3003774 4.6626587 -2.778559 0.7987188 -4.3013263 -1.0331575 3.638952 0.6621554 -1.4567777 2.5841255 -3.3559852 2.7832901 4.620198 -1.2812004 -3.122741
13936 -0.30781725 1.405995 -1.8998095 2.3874452 4.711593 5.035682 2.5537722 -5.7410665 -1.2921265 -3.2276661 -0.8188121 0.7022057 0.37310976 5.1712713 -3.8632371 0.5929005
13531 -3.2743177 -1.1631259 -4.3606567 -1.7592195 -5.070084 -3.4017227 -0.08921693 6.0161743 4.358248 1.3063953 -3.0902107 -1.1825434 -1.2856543 5.726748 3.2696412 1.0776701
7411 -3.0461614 2.9174411 -2.205204 -2.8044403 -1.1373345 -0.31403327 -3.7785826 3.137914 -1.017873 -4.2243004 -6.0551567 -1.0457275 -1.3900621 -2.4473078 1.4374145 0.9288581
12946 1.5816057 -1.1057794 -1.3393708 -1.5335149 6.555191 -2.4926805 1.5396589 -6.608044 5.8815026 -1.3601754 1.9888737 2.3301039 -2.2405214 -5.978357 -4.743016 0.4095045
14343 -7.3964553 1.5245074 -2.673489 -5.136005 -2.1906044 0.5949331 -0.3031404 8.62088 -1.3162156 2.9382915 0.21850762 -2.7370846 2.8358264 1.0497552 1.6180811 0.717112
4898 3.639419 0.595295 -2.6835368 -0.95209736 5.9239984 0.99712855 -0.7026174 2.635138 3.3719747 -0.27992082 2.7780771 -1.2650467 -1.205737 -1.5291996 3.9263706 1.8697238
986 -0.6456372 1.4213912 2.5872958 -5.703513 1.401142 -0.5432053 0.7757079 2.4942586 -0.19774067 3.0208378 1.0783012 -1.8371229 1.3440301 4.089998 0.66518354 -0.34204957
9639 -2.750538 3.3242593 -0.4557431 -2.0381768 -1.6867399 0.15592785 -4.066562 3.1136968 1.1640614 -4.3646364 -4.1960773 2.7063441 0.7756304 -2.6790702 0.655304 1.5032574
8770 -1.3615295 3.1136997 -0.83387274 1.2335857 -0.08108928 2.6534593 1.5341523 3.0906138 2.057035 -1.7152327 4.4552884 3.841995 0.6000731 -1.7720475 -2.9792905 1.4593017
11881 -4.0501914 2.174899 -1.3934033 -1.7583104 0.55034804 -0.9372817 -3.4214556 2.4178026 -2.3919985 -4.38836 -5.843632 -0.77330476 -1.5683063 0.44061822 0.92295635 -0.45882142
10126 0.31223136 -0.39203197 3.679187 -5.505266 -1.1698347 -6.0060835 -0.4954393 3.948013 -0.5854716 -1.0796599 -1.0312194 -2.228693 1.9906367 5.0841594 -1.7389413 -1.1666977
8388 1.9763626 1.6973101 2.1226852 -5.91678 -1.8172661 -4.5246983 -1.1759268 3.186467 -0.8544041 -1.0248988 1.3981094 -1.7296154 4.964158 5.4148183 -1.5004694 -0.485528
8779 -2.8639345 -0.6151684 3.7296834 -1.4028999 2.252094 4.996193 1.930046 0.24741353 -6.299613 1.233187 -1.2774951 1.7689512 -2.9964716 -5.1063247 -2.1258135 -3.4122295
467 0.8081412 -0.064220905 3.6162336 -0.043024648 4.708752 1.1697346 1.2974793 -3.2609828 -1.62735 -1.7934247 -2.3611805 0.924902 -2.8285599 -5.038243 -3.3099525 -1.1401594
2424 2.5309396 -0.5770963 -1.4131049 1.1096532 5.483346 4.1573353 1.6503128 -4.354083 -0.7822552 -1.7047076 -0.11677885 0.67695034 -3.4841142 5.446493 -3.5617447 -0.7544362
9881 1.0221968 0.90887755 0.33784175 -1.7456758 -3.598238 -3.7373939 -0.06631804 5.5040073 1.4137428 -1.0331067 -0.16309278 -1.5146538 0.9779769 5.2916503 -0.3869531 -1.5641004
11778 5.3198476 2.9764583 -1.5725036 2.2972445 1.0234512 -1.1334354 3.2562764 1.4406239 -0.7493486 0.560881 -4.359112 4.639898 -0.28347188 -0.7608489 7.2035995 2.6102648
1985 0.7283145 -2.1243947 3.2178786 1.7907592 -2.0495887 -0.36202 6.8616405 -2.280945 4.3403125 3.658419 -2.0735154 6.204702 0.6053592 5.1150675 -2.3637733 0.3616677
10038 -2.485408 3.3056107 -0.6335373 -1.8592656 -1.827906 0.24936411 -4.218023 3.1502461 1.3173292 -5.5582337 -3.5846589 2.62828 0.26218772 -2.6493785 1.0157593 1.3667775
8722 -0.89664716 0.52295303 2.600902 3.4929502 4.2335944 1.5440681 0.6981231 3.1731787 2.0363278 -2.6714592 1.9421909 2.981915 0.7621162 -0.7119301 4.492386 0.3501393
1458 -5.288355 1.8574435 -0.029665696 -6.052818 -0.13057436 -0.68890077 -0.7716715 1.147754 2.0536144 3.2546074 -0.7857777 1.8134459 1.2323422 3.9658604 1.040861 -0.5471559
12026 7.8935423 2.2245712 0.7797836 -0.38787255 3.4518898 4.6633573 1.3390427 -1.7099253 0.43210903 -2.724897 3.0652673 6.5218706 -0.5860942 0.15574628 -2.509322 3.814971
3262 -8.007105 1.6081775 0.1475048 -4.7866116 -2.0300584 -1.7533684 -4.020583 5.850026 2.4330087 -2.5557172 -3.5789225 1.5327276 1.1626877 1.547436 1.4834524 2.1314323
1394 -3.163322 -2.318136 -0.6063375 2.8164265 5.092437 0.32198596 4.4774237 -4.086679 0.38950604 -2.4691465 0.659397 3.091994 -1.2241287 7.764402 -0.6683106 -0.17358865
12876 -2.2049363 3.942277 -1.4628738 -3.1632175 -5.474067 -1.7838355 1.5612578 7.480346 4.0177274 1.245594 -1.908072 -0.7875888 -4.6875634 6.3776155 3.4566236 -0.44503385
9644 0.4882977 -0.54575795 0.1267836 3.0654218 5.302393 2.5728 4.1677628 -4.005844 1.3232266 -0.46571064 -2.5807323 2.0454369 -1.3444314 7.8788247 -0.68208224 0.99407166
9640 -2.9705098 3.0212598 -1.0419044 -2.0242238 -1.0340892 -0.4109188 -3.7223165 3.5188782 0.91705596 -4.809317 -4.3980107 2.7769558 0.20548746 -2.6629908 0.70765924 1.7583939
2044 1.851099 -0.13028868 -1.1561657 1.5082735 -2.0356061 4.2785354 -1.7641804 3.837692 2.582615 2.3171208 -5.9631414 -0.6582733 1.9809793 1.2786354 -0.90900475 0.69527894
11865 -0.9808374 -0.7513042 -1.1787857 -5.660627 -2.8233879 -5.666715 -1.6273371 4.5856395 -0.7080541 -2.7905538 0.052295174 -4.9073544 3.1880925 5.37323 1.1723901 0.06540486
13194 0.5398559 0.45006862 -4.2612004 0.083671644 6.651798 3.356803 2.630383 -5.7633557 -1.1683645 -2.9789693 0.19357961 2.5857096 -2.2939248 5.809811 -2.6868737 2.0367942
13400 0.49771416 -1.374889 4.116278 -4.269613 -0.97041476 -5.409415 -1.5305691 3.959863 0.4243192 -1.5964537 0.24741982 -3.321499 2.9236684 4.307345 -3.1380324 -2.383222
8425 2.595508 2.6245704 2.6964417 -2.1269984 -2.0516503 -4.146352 0.60635066 3.9926572 1.113515 -0.798421 -0.79529035 -4.2236876 0.96451735 5.2473497 -1.5004486 -2.3984644
9720 0.38767442 -0.82174164 -2.6274948 -0.44254074 6.3827076 1.8468035 2.3100162 -2.0926318 -1.8209888 -2.8917587 -0.70662034 1.0479757 -4.2344427 6.05121 -5.5619073 0.61138433
9382 1.4437947 -0.80162674 -0.97831327 2.317813 -1.3979614 4.20057 -2.5733452 3.4347804 2.3984694 0.8567717 -5.866697 0.10056292 1.0493568 0.5312846 -0.27868053 0.8662242
1723 6.71588 -0.20112693 0.7618529 -1.6202605 -0.17987736 0.00045158982 3.8121533 -1.5182402 1.204749 -2.5394454 0.34332177 0.5164768 -2.936466 -0.5320898 -2.6071672 2.9440424
5337 3.8029017 -5.695184 -1.8128684 2.915876 -3.1548977 1.1580089 -3.2915971 2.2312763 4.664551 2.4798222 -0.14395714 2.0969899 2.9895892 -0.3286394 0.5879845 -1.5499319
9438 5.60207 -0.15323853 -2.2956383 3.9268582 -2.7722318 3.5636234 -2.4143121 0.7107737 2.5879796 -1.469823 -3.1238205 0.48532385 0.89764816 0.052010685 -2.6203547 -0.5164245
10596 1.2999424 -0.6285963 -1.5036085 -1.7724072 0.93257785 -0.33139896 -2.144767 6.1083193 -3.1000776 -2.629694 0.2981047 3.1314974 -0.7163932 -1.2879688 -2.2725012 2.1523728
11889 3.4772081 1.7451789 3.3578084 2.8971095 3.5722017 1.4144619 2.8831158 5.074187 -2.0243483 -1.9477094 0.25753966 4.366773 -0.7819991 -2.0897648 0.8664465 2.3777351
12674 0.098892 0.17418726 -2.7459126 -0.39172584 6.395288 1.7650625 3.4122853 -3.007958 -2.0732014 -2.8028905 0.46365285 1.7903358 -1.8430108 6.120303 -3.0833075 2.218831
8623 -4.201141 -0.33961064 -1.3360349 -1.8722593 1.4618773 2.3771527 -5.1131907 4.827639 -4.9088664 1.3081975 -2.9296243 1.704051 9.014177 -2.3492837 -0.63262534 -1.329056
8332 -4.962989 0.9098314 -0.45250693 -3.6318913 0.47000042 1.3634251 -2.6368754 4.246079 -2.2715104 -4.266541 -4.0039835 -2.506852 0.45484796 -0.77234215 0.8410327 2.821273
8724 0.4282601 2.7381163 -0.2518814 -2.1660109 5.602758 -5.136978 2.886994 -4.185348 -0.571509 -2.1122768 -1.4391484 2.227305 -3.5083964 -5.5684357 -2.4001503 -1.7336667
6858 2.7049093 -1.4954687 2.099465 -0.33039317 -3.901013 1.608692 -1.9737403 -2.0372293 0.5089269 -2.1662998 -2.9735625 -1.6735957 -0.68809164 0.62348115 -1.4654268 -3.6304343
2309 -1.4751023 2.6657565 1.2635354 4.070527 1.5565537 2.6329565 1.7207628 3.78826 -0.66137034 -3.185283 0.115186974 3.0583072 -2.238441 -1.080054 2.6782982 -0.098439604
14669 -3.98441 1.4752245 0.36094415 -5.9100533 0.2744525 -1.3752742 -1.0760081 0.79681677 2.0657759 3.3077857 -1.2656795 1.2090379 2.227585 3.0370638 1.1975014 -0.16060582
10130 1.8819075 -3.2479436 -2.6355867 2.1535685 0.58767974 3.9670973 2.4226408 3.6275434 1.4868665 2.2738192 -2.4480183 -4.4818425 1.0855165 -1.1544547 -2.360715 2.2951941
9928 -2.3371246 3.2247655 -1.4397252 -2.2730894 -0.78350544 0.5797484 -1.9843045 2.581508 -3.9544 -4.099185 -5.268583 -1.2076435 -2.1523268 -3.024176 -0.03907548 0.4955378
318 1.6053934 1.1066035 -0.47758627 1.397848 -1.5610425 5.2851896 -3.3306313 0.65530324 2.1824598 -0.88081396 -8.4283 -1.3750236 1.4808298 -0.51296896 -0.41519514 1.2155111
5328 0.26530504 -1.1686814 -3.0827022 0.36728942 7.604034 1.9218284 2.7584794 -2.7188182 -2.6081433 -0.64995414 -0.9071984 3.257944 -1.9485415 5.994725 -4.827837 1.2689123
6060 0.5359861 1.4022931 5.035448 -2.722202 0.5953279 -1.6994379 0.56856275 4.984219 -3.3413427 -1.0309194 0.12719397 -3.5590138 2.6404965 5.2037177 -2.3563278 -2.2877386
9014 -5.483609 6.853667 -3.8216262 0.40228376 1.2647717 2.5091043 1.201417 1.1343391 1.1551236 -3.027676 -3.2526488 -0.58090895 0.4621898 -1.0105566 2.626294 2.4150774
439 -4.2303424 5.0697064 -3.189207 2.615254 1.9372706 2.682237 -0.18696712 3.0155897 2.4670353 -3.459058 0.3495489 -1.4711157 0.8283592 -1.4444506 4.6011095 0.9484344
5522 -1.148869 -3.130688 2.22874 0.9226218 1.2656887 0.6736945 -1.7559805 0.10323199 5.511929 -1.4124682 1.941879 0.3376141 -0.17930324 2.124164 4.2348022 -1.4638615
10289 -0.32476103 4.9305425 4.6059685 -1.308042 -5.723159 3.026542 -4.5431414 2.65472 0.5854265 -4.5498476 -2.6764493 1.835855 3.4006126 -2.4731886 0.8598795 -0.16981983
4292 3.8556516 2.43321 1.1654233 -0.74324185 0.75886685 2.1229932 1.975947 -0.45273876 0.98062617 -5.935666 -0.44048825 -1.6751779 -2.0324879 0.48846686 -0.93208987 5.1850295
10140 1.9079964 1.163539 1.3753692 -1.0750011 -3.406129 -3.7981377 0.76830316 5.5548177 0.98068017 -1.698064 -0.8127415 -3.3169606 2.2956364 7.021681 -1.1390059 -1.3214846
952 -1.755501 -4.2875896 -2.721262 0.4090274 5.117377 1.0675286 1.6588902 -4.3497467 -0.7272799 1.5574384 -3.8130322 0.6911675 -2.554806 -5.196634 -3.5009372 -1.7221819
6390 -1.1733997 -2.489385 -6.3953857 0.7405256 2.474279 -0.85264796 -0.6484291 0.2847003 4.1497374 -0.040090945 1.0267284 -1.367482 3.8042552 -0.52226603 3.604372 1.1583437
4012 -2.411322 -3.163381 1.0035257 0.8766721 4.2870483 3.4502795 0.91476476 -1.9991746 -2.162334 1.8220329 -1.0718131 1.8158051 -2.7347922 -5.4167123 -1.3635057 -3.5032406
8036 3.1659985 -0.27898145 -1.1761374 1.2771983 -1.296118 4.5717955 -3.1415904 3.1689088 0.30376178 1.5778135 -6.221083 -0.27343616 0.5597153 0.7464211 -0.5999836 -0.8795481
878 1.628179 -1.6506284 -2.1738048 -0.026346747 6.7290363 2.7010682 2.9823718 -3.303416 -3.1466541 -2.2352016 -1.1226017 0.5106434 -1.7696931 6.815919 -4.8278384 1.4300959
11220 2.9290833 1.7515357 -1.8448502 4.073312 4.2921076 0.7769743 5.126583 -1.4801637 1.6947018 -2.9178696 1.2599337 -2.6070123 1.6642612 0.633878 1.7875217 1.8799752
3527 -2.5973923 3.3606424 -0.21393272 -2.395649 -1.8027426 -0.588561 -4.1731634 2.7504172 1.329699 -4.9122334 -4.0988603 2.4791913 0.73628485 -3.107768 1.0070378 0.8610464
9402 -1.376647 -4.60309 -1.1518931 -0.14110863 4.563916 0.2550857 0.37073174 -3.5779054 -0.3328899 0.15084252 -2.860322 -0.27278098 -3.8412971 -4.9537926 -3.535114 -3.0279055
7767 -1.0720997 0.123785466 2.8123217 4.4307227 2.7912195 -0.5777343 2.427245 -0.92690164 3.4250271 -5.318633 1.5823004 3.143309 2.4074626 2.274904 1.8334068 0.59374577
13156 -1.6716676 0.8560991 -1.6255745 5.2580314 6.670717 4.267257 3.1949656 -1.1395913 -2.1943083 -2.2063618 -0.40918007 5.4406605 -2.2077968 6.6790977 -2.044802 -0.502093
6321 -2.3842332 3.5860138 4.9725866 0.04361752 1.928632 1.4572397 -3.1853604 3.7419112 1.765066 -6.4318905 -1.1442266 3.459694 0.41570908 -1.5242157 1.2577145 2.2380033
489 -2.8321116 -1.0105616 -1.9535822 3.5071182 2.5838282 1.2095556 4.1375895 -2.1897867 -0.30812475 -0.16900796 -2.5531735 2.1977677 0.090620585 7.52433 -3.7489848 -1.6088283
7592 2.9995246 -4.0087676 -7.49687 2.0320358 -5.272541 6.192855 -0.2714425 -0.20777968 1.82764 -0.60654896 -2.3693113 0.20456193 -0.31756845 0.19112507 -2.1748443 2.688672
1153 -2.1145089 -1.0859536 -0.90875137 -5.4431453 -1.9319106 2.3206172 0.07321529 0.039895475 -2.6432564 -6.303666 6.2987914 4.6697683 -5.540492 -1.1915383 0.0143911205 -1.3722823
9599 -4.5359774 2.069225 -1.8237634 -2.1878424 0.032661505 0.584825 -3.131033 2.3235419 -2.3635056 -4.0688066 -6.2627735 -1.5725472 -0.6930585 -0.8120781 0.80388874 0.51983744
9801 -0.865984 3.4975786 -0.19070832 -5.2123566 0.23191261 -0.8115459 -0.8554086 2.666669 1.3421493 3.3184705 -0.13553767 1.3591945 0.3100816 4.6614943 2.1604187 -0.62259424
249 0.55734235 3.074187 0.15171061 -2.3178394 5.467124 -4.5826163 2.6465557 -4.0908914 0.037940238 -1.1956522 -1.7817298 1.6609666 -3.2872636 -5.9397945 -2.700976 -2.028751
3949 4.186659 -2.0051575 -2.4037497 5.352579 -0.03167698 4.271384 -0.9981191 3.2608054 2.5259283 0.028371515 -4.038184 -0.20519687 0.2681535 -0.7520934 1.6776359 1.3500065
10116 2.777789 0.14130002 -1.2677883 2.9441648 -0.7010548 0.81842965 -1.548453 2.374444 1.2783608 -0.030196369 -4.8550425 -0.49722144 1.8688084 0.20571966 -2.1958985 -0.9611674
9520 -0.09453142 1.3084841 -0.11536074 -2.6039538 -4.605121 -4.5121307 -0.3762616 4.665094 1.8989644 -1.6470952 -0.8931883 -1.1770923 0.09698193 3.8454306 0.3160473 -0.8883024
1391 6.7583265 -0.36672857 -0.513583 -0.7791631 1.3947631 2.5790744 -0.46974334 1.8351834 0.67946786 -2.4937742 -1.2393113 1.0194663 -3.5063803 0.7311138 -3.6311016 1.8422813
13204 -1.5886902 -0.18936187 -0.89922595 -4.3668995 -2.6700172 2.544595 -1.4034289 0.66704035 -2.7191892 -5.457117 4.379873 4.9516563 -4.7760167 -0.45187226 -0.069034316 0.21617605
11277 -4.354301 2.8546948 0.1954016 -5.7979145 0.1085061 -0.65684885 -1.1787982 1.5062696 1.6538652 2.962532 -0.99493265 -0.024141066 1.3845301 4.27097 2.3976433 -1.0330023
10213 -1.6571369 -4.5603137 -2.0583055 0.057116747 4.4201193 1.5039203 1.2181176 -2.9126608 0.84742355 2.1585455 -1.5768999 0.415606 -2.7212486 -3.3950555 -4.4281907 -2.0648687
9528 -1.1517154 -0.7692575 0.22571228 -5.173231 -3.3282542 -5.8076644 -0.5980546 4.467406 -0.09847463 -2.6099768 0.10618889 -4.3703227 1.7354914 5.191572 -0.095566586 -1.0206677
11791 -1.5395848 2.2498488 2.2202733 -5.468091 1.5642816 -1.227699 0.25911197 2.6037576 -0.2024799 2.6187243 0.060782302 -0.7146479 1.413106 5.1183157 1.5902339 -0.77230066
3529 -2.3442485 3.3518605 -0.24521635 -2.5133758 -1.73822 0.05289319 -4.410212 3.2687554 1.4172813 -5.427575 -3.458325 3.0218027 0.3279128 -2.473615 1.3736105 1.6134595
11014 -5.272248 1.6958658 1.3648477 -5.374265 0.64686024 0.15345074 -0.28849736 0.8730413 2.0816061 3.3429341 -0.32092687 0.41281685 1.8437042 4.1482506 0.94493747 -0.96186835
1916 1.0787716 -0.99338055 -3.2708323 1.8094039 6.1970205 2.7375846 2.933602 -3.1728537 -1.9490658 -2.3598504 -1.2169094 1.9081475 -3.6382225 6.393337 -3.366147 0.73826206
12146 4.2394123 2.2710125 -1.3427376 -2.1261 3.5343633 3.9288478 1.1752157 -3.7772932 1.0607764 -3.9197967 -0.4304991 2.2355917 -1.2585115 -1.1196233 -3.4758987 6.1186585
11944 2.5058067 0.75389117 -0.44449598 1.1141762 -2.1515281 5.8434477 -0.25781235 -3.775963 -0.36014825 -1.9514045 1.8751138 2.0324552 -0.87832886 -1.4793321 1.226223 0.17882878
10877 0.8958642 2.6358893 0.84119916 -1.5436237 4.851558 -4.5475097 2.4910254 -3.706091 0.4535267 -1.6892669 -1.5726191 1.8928436 -2.8095567 -5.4928036 -2.648892 -1.7264847
14672 -3.8342133 0.74383575 0.6344275 -5.562632 -0.24393317 -0.6776479 -0.6573168 0.5670379 2.069128 3.564928 -0.6144064 0.5798872 2.440238 4.285387 1.173214 -0.31854576
9858 -2.2451942 -0.24658412 2.9627566 5.121372 2.985264 0.12847365 0.8752315 -0.608021 3.7187843 -5.023042 0.15066709 3.257058 1.394296 0.06853273 2.036022 -0.5764786
11539 1.1226583 -0.2994904 1.7145623 -0.15296036 6.9405613 -2.0668733 2.7184875 -3.3279982 2.5154023 -1.945551 -1.0255154 1.5459088 -2.8932204 -5.5369887 -3.5329473 0.3481338
8704 -2.0112255 0.41035277 3.0558991 5.191384 2.1151855 1.8164924 1.2991675 1.3154441 1.9301763 -5.2988095 1.5862458 3.2472916 1.1165473 0.18693246 2.2398393 -0.15916714
13318 0.54854965 -5.078318 -1.2341138 -0.28035456 -2.172405 2.5140097 0.6735695 4.64758 -1.0538515 -0.056832362 2.2422495 -6.668483 -1.3034632 3.0224767 0.050915103 -2.2863526
4089 2.9558344 0.81297404 -2.1647718 1.7889647 -2.4464147 4.3307247 -3.6758952 2.70182 1.8795214 0.16845925 -6.2126074 -0.35139492 -1.4991138 -0.034352083 0.35826886 -1.2595202
12447 -2.0227644 -0.7325671 -1.4175246 -3.6079624 -2.391129 2.0942342 -1.6163484 0.6196934 -2.847088 -5.5237117 4.205242 5.0364637 -4.821312 -0.35683587 0.6289252 -0.5437751
5446 -0.7695839 1.5068071 -3.288886 2.4016726 4.6468363 0.8055446 1.3636677 0.468202 4.1083016 -2.720903 3.2266257 -1.6042217 0.6194173 1.8325287 3.6436067 -0.0046830648
1233 0.8538091 0.78025734 -2.434719 0.8579241 6.1968026 3.690332 2.3110344 -4.963531 -1.787779 -2.9104202 0.5542303 1.3716327 -4.0829086 5.146396 -3.4256585 -0.69499344
11064 2.0562632 0.53726166 -0.8644718 1.9286729 -1.9927984 3.244951 -3.4605606 3.5419223 1.295556 1.404844 -7.1218667 0.05202389 -0.4017073 -0.46097 1.1267078 -2.0693052
967 -1.386543 2.626969 1.6665374 -5.870338 1.9702524 -0.76410973 -0.13947651 2.0718937 0.098178685 2.619928 0.7312929 -0.68463826 0.8924941 3.9013274 0.4944651 -0.75512266
1351 2.2518766 -1.1302594 4.1809726 -3.5972168 -2.238748 -4.321988 -1.854015 3.675454 0.20503633 -3.5572846 1.2526604 -1.6103528 4.4378242 5.829104 -0.7218882 -0.4594021
9365 2.1693313 -3.359167 4.6061873 -2.239377 -3.2661943 -3.3825035 0.02307315 5.76671 -2.459709 -0.65748405 0.25843203 -1.2140584 2.4872017 5.15802 -2.335968 -1.8842212
12951 2.282465 -0.70145845 -0.6294582 -1.0909883 1.2808766 -0.44797015 1.0443316 -4.7357144 6.500625 -1.6653078 5.2300243 0.7291765 -0.22059989 3.1030605 0.083451726 -0.9786473
2278 1.7841643 3.459412 4.619812 -2.1582198 1.1431801 -3.78396 -0.9935754 5.140962 -0.5908156 -2.3184984 1.0544358 -2.0335338 1.3705395 3.0335426 -1.4592975 -2.7795682
11544 5.011799 -0.31465265 2.386007 -2.3295548 2.1006165 1.9940356 2.6964247 -0.5308017 -0.17197648 -3.609733 0.46202388 3.0051358 -4.1612587 0.36026004 -3.5704837 3.8539715
4260 0.04188892 2.7718067 0.2749202 -1.8984668 5.2054396 -4.431186 2.4185123 -4.524913 0.13357845 -1.914899 -1.1690612 1.2294282 -2.5908306 -6.316819 -1.7279663 -1.9846121
10771 -3.546289 0.50784755 1.0539762 -5.745411 0.47618878 -0.92248154 -1.3919408 1.5305225 1.7149252 3.578701 -0.96823597 1.6508355 1.8158915 3.5262492 1.3466864 -0.20718177
7288 0.7324877 3.0133357 0.77068853 -1.6347041 6.2819524 -4.7865186 2.6284256 -3.9686785 0.22778337 -0.32734117 -1.100736 2.2861612 -3.39814 -4.7338467 -1.125026 -3.3237627
8398 2.572711 1.3631804 3.1745617 -1.2630626 -1.8735223 -3.5042706 -0.1576379 5.906029 1.1804128 -1.9955382 0.570678 -3.1279483 2.029058 5.819764 -1.2171762 -1.9365343
12352 -2.9193108 4.3983016 -1.287426 -2.795066 -2.7111468 1.6119847 -3.2135892 3.6520333 0.769476 -4.190548 -2.3271558 0.7574687 -0.5769987 -0.11582596 3.0105326 1.6748912
5364 1.0464535 -4.0438085 -0.123801455 2.8685765 4.1170006 2.7046566 7.121486 2.1620023 0.17176285 0.10243383 3.206523 -2.2703125 -0.50497866 -2.7102983 0.4751727 3.5517893
1708 -4.149188 -0.49736947 -2.0702446 2.499943 2.6337852 0.99027354 3.6361551 -1.9323301 -0.58342683 -1.5860391 -2.412744 2.0275645 -0.39487538 7.549598 -4.0915303 -0.7674033
9616 -3.975087 1.5260845 1.2690351 -5.2877707 -0.25961488 -0.23400447 -0.74410206 0.35647842 1.4662818 2.9600215 -0.6297919 1.2546568 3.0045588 3.7274969 1.0293701 -0.5143608
6826 -1.0717143 -4.6578407 -2.216252 0.4295089 -0.8113868 -0.8453432 -0.65355635 9.726407 2.4949136 1.1030316 1.7449328 2.7442036 3.029211 8.718773 -3.2166684 -0.90475935
6392 -1.8159465 -2.1795883 -6.4061966 1.2054781 2.507962 -1.9242294 -0.80028033 0.7473357 4.243322 0.630119 1.2029449 0.32427296 3.7523124 -0.46716788 4.081796 0.0510021
9141 0.90521073 -3.6044984 2.171714 -1.550311 -2.6905932 -5.1352124 0.07415822 5.7539315 0.30078912 -2.2411666 0.1507897 -1.059482 3.4024496 5.982138 -1.3794179 -0.024986686
4219 -2.2620459 2.3354163 0.105188444 -2.4275384 -1.6191008 -0.0045206198 -4.2819963 2.9126234 1.5735091 -4.7094197 -4.694825 2.8800719 0.4839009 -3.2927787 0.84667516 1.4063395
6037 -0.79427624 -1.8072736 0.4836583 -2.2856753 -2.5459838 -5.2360744 -0.34028375 5.264169 -0.43951702 -2.9656103 -0.028041456 -4.3043485 2.105038 4.542973 0.7499517 -1.2712408
923 -4.662758 2.1370366 -2.5546057 -3.9538302 0.58153194 0.88886863 -0.8464286 1.7646568 1.4934417 4.3122787 -0.64254993 1.9863297 -0.7194931 4.1192517 4.2762628 -0.99665594
4218 -1.8758141 2.3047607 -0.41829446 -2.450943 -1.4282295 0.011931138 -4.619343 2.744195 1.1857705 -4.4257627 -4.0441976 3.306373 0.77190834 -2.7045774 0.15241864 1.1152415
597 -1.675555 -1.0648955 -1.047494 -3.8987575 -2.563589 3.0881908 -0.49692795 0.378346 -2.488666 -4.350507 5.3178945 5.180749 -4.162749 0.08431913 0.42459598 0.12653184
13311 1.3497138 3.2751172 1.4458553 -3.0654194 -3.381525 -2.935857 -0.28491247 5.233739 0.97838604 -0.6923976 0.5638775 -2.510515 0.97417945 3.6246064 -0.3398815 -1.3887902
8259 0.39439213 3.2461224 0.2069882 -2.767332 5.3347487 -4.2052293 1.9565979 -4.352229 -0.12352702 -2.3927543 -0.9866175 1.0303746 -3.3042386 -5.338638 -2.069693 -1.9767352
12925 0.8610577 2.929656 -0.2500081 -1.6663277 5.523706 -4.082499 2.8030207 -4.068424 -0.51017904 -1.3728982 -1.5332245 1.8060371 -3.648726 -4.9122386 -1.7575798 -1.9641762
8380 1.4685102 1.2324239 3.3443778 3.899972 2.3931277 1.7125499 -0.5930695 1.2715243 3.3655262 -3.9993045 0.6892477 4.6101575 -0.21633567 0.0038378458 3.4788475 0.55296063
407 -2.7661858 -0.9975605 2.4686136 -0.7347423 -2.959487 3.4782796 0.7187474 7.0562873 1.4536093 -3.6917243 1.9337732 -3.6742003 -0.973031 3.4592392 -2.768543 0.74360234
9742 -2.7238903 -0.5524794 -1.8136051 2.8078253 2.924063 1.0596753 2.7642703 -1.51656 -0.81786007 -1.0914278 -2.73687 2.4885361 -0.09601324 7.61542 -4.003208 -0.9935501
8871 -1.533109 5.5093956 -3.3454344 -1.1378336 1.6809195 2.7787683 -2.097829 2.1930954 -0.35381186 -2.34156 -2.2372286 -0.079382494 -1.7156755 -1.8330603 0.047188997 -0.5179939
8225 0.4148075 -0.030202888 1.7199705 0.91592467 7.54549 -2.2604592 2.2162282 -2.518262 4.3034096 -0.39898026 0.16866365 0.8849893 -1.6043725 -6.235308 -0.90103984 -0.21158664
5829 2.1840925 1.8126272 2.024534 -0.6271834 -2.0529823 -2.6495917 -0.13597043 5.3791895 -1.3957747 -3.1956758 1.5287694 -2.5366511 0.34737408 5.8526144 -2.3578424 -3.3898778
1111 1.4745926 1.6221272 1.5768737 -2.459075 -1.3484243 -4.875457 -0.49026972 5.1404343 0.80021805 -1.6286641 -0.6131044 -3.58819 2.216689 5.5020103 -1.2875197 -1.6906251
8266 -2.0368652 0.6059844 4.004959 -2.7673237 -0.98129344 -4.159233 -1.423328 4.4993496 2.8227108 -1.0177411 0.029348949 -1.8531586 2.432655 6.1138153 -3.6484237 -3.845737
2079 -0.024804803 2.118022 2.434407 0.037762284 6.1552305 2.6308818 2.410263 -3.3038807 -1.0290227 -0.007789242 -5.1923823 0.7316906 -0.95745975 -7.1097393 -3.048282 0.5937523
9762 -1.7412006 3.383871 -0.85915667 -2.5784037 -1.9306583 -0.5473854 -3.9301722 3.0952933 0.47863266 -4.376774 -3.432272 2.3059337 0.41084045 -3.9126523 1.14475 1.0796757
11702 -0.41156232 -0.1579256 -6.4043493 2.8947275 -0.82487243 -4.165115 4.2838135 -2.8781402 -0.32817408 -1.3100511 -4.748603 3.3982363 0.4061779 -0.99232453 5.1585097 1.3076311
10418 1.905745 1.7899804 1.0628572 -1.04394 -2.9634194 -4.1392326 0.07417037 6.3778815 0.5308028 -1.9244488 0.16748454 -2.147319 0.05567869 4.665616 -0.63349134 -2.6820166
7676 -2.513668 0.7163725 4.686054 -3.7608624 0.026776537 -1.4238862 -1.1934203 3.4370503 1.0863788 -0.8946596 1.1120033 -2.5300057 3.5467598 5.296436 -4.503717 -2.66055
2551 0.33728436 2.9455602 0.2260838 -2.0319242 5.7650476 -4.3562913 2.5728319 -4.338798 -0.4975924 -1.8388811 -0.10917919 2.119977 -2.6460085 -5.98244 -2.1344943 -2.4301698
10661 8.048878 0.3658634 0.23637126 -0.40432224 3.8441741 4.2608213 -0.43952417 0.490472 -0.38533282 -0.93527776 2.0475085 3.423931 -3.353158 -1.6600337 -2.9315104 1.4028208
5129 1.2562556 3.213304 0.17251118 -1.76159 5.8572707 -4.1451373 2.191302 -3.4146135 -0.28075856 -2.021794 -1.5456859 1.513367 -4.1380577 -5.4045963 -2.6994002 -2.538374
8941 2.162459 -0.079550155 -2.7743168 3.0049973 -2.060038 2.4335625 -0.2770524 2.4499464 3.0194387 -1.8727537 -3.7852144 -0.78020805 1.5058899 1.3388752 -1.9624761 2.6506312
9500 1.4529406 0.9974269 0.6532075 -1.869575 -2.6185656 -2.5195115 0.030231014 5.107965 -0.6409551 -1.8689063 0.6548965 -3.326761 -0.8239916 3.8333843 -0.49779257 -1.7204939
9805 -3.8249319 1.6464831 -0.55907214 -1.6363332 -0.26954594 1.4164251 -3.8870444 3.332135 0.32225874 -3.9108243 -5.6444445 0.34189907 -0.11025446 -1.5644978 0.23807363 1.9373292
7910 2.206361 -3.618621 2.1790097 3.278484 0.16018243 0.939466 -1.9441901 0.4411278 4.0630383 4.270027 -4.03856 1.0853574 -1.190873 -2.2064831 0.2967838 -3.6827638
1373 -0.584386 -0.9288848 -2.910212 1.261494 -0.31343946 4.521828 -1.8941855 -3.5067105 -1.8270693 -2.7298853 -2.5280015 1.6795162 -2.0410788 -1.4205433 2.7601023 0.92104626
9266 7.6717525 1.2746148 1.6461792 0.23225063 2.5191674 4.837528 0.20223825 0.10020048 0.16211776 -1.71989 1.5666841 3.254057 -3.2635152 0.918183 -2.117918 0.28728673
